epoch,Area,GDP,Inflation,Life.expect,Military,Pop.growth,Unemployment
init,0.7739560485559633,0.4388784397520523,0.8585979199113825,0.6973680290593639,0.09417734788764953,0.9756223516367559,0.761139701990353
0,0.7343767485571014,0.4220215120985079,0.7910791686100265,0.6660438489361111,0.08622988056343538,0.9278507003863833,0.7095784802688969
1,0.7019022762588424,0.40944518044844785,0.7336645355400973,0.6415932190452256,0.07928647344484337,0.8897286512871104,0.6661466715887777
2,0.6745398617439681,0.4000845390998426,0.6835805395027857,0.6222447807090394,0.0730392516071139,0.8587202283101352,0.6285936589089587
3,0.6509558784919046,0.39323110420208174,0.6389692086958121,0.6068168682412074,0.06728076881641329,0.8331332408169985,0.5954122886821379
4,0.630216566717812,0.3883921100826064,0.5985309198831381,0.5944852732741231,0.06186481612062348,0.8117873532350018,0.5655480801492949
5,0.611643330372922,0.38521179461404564,0.5613245749230064,0.5846533690379044,0.05668456078722551,0.7938285209314017,0.5382366595806533
6,0.5947272796514581,0.38342472152948903,0.5266493136745186,0.5768751668586863,0.051659662232137554,0.7786191245533216,0.5129076014748527
7,0.5790764161430207,0.3828267396512909,0.4939712363663286,0.5708075319199242,0.046728343372734495,0.7656698105536356,0.48912490715485507
8,0.5643817708993005,0.38325617177456733,0.46287629431141425,0.5661793233842405,0.041842344486325685,0.7545955404419574,0.4665487760412037
9,0.5503950453312683,0.38458120668934936,0.43303906797436564,0.562770802846528,0.03696362864758723,0.7450863265436337,0.44491030324885567
10,0.5369135046992466,0.38669120353496184,0.40420154849616896,0.5603995190786859,0.032062190861705024,0.7368872256825726,0.4239943199601311
11,0.5237695985218334,0.3894905551628202,0.3761584127899916,0.5589104232436235,0.027114583122633717,0.7297843716608193,0.4036275263205313
12,0.5108237512789034,0.392894285873366,0.34874661929047557,0.5581688399620854,0.022102913512724923,0.7235950717592806,0.3836701545748979
13,0.4979593306217144,0.3968248681255222,0.32183793209578304,0.5580554285054503,0.01701416212225583,0.7181607189613898,0.36401003467811527
14,0.4850791379440295,0.40120992910536857,0.2953334517111665,0.5584625745366818,0.011839707176669637,0.71334170855556,0.344558316202075
15,0.4721029731622414,0.4059806326262046,0.2691595224864867,0.5592918411311134,0.00657498589878534,0.7090138168096507,0.3252463361889971
16,0.45896595500167975,0.4110705929216532,0.24326457332345078,0.5604522251766825,0.0012192344763306466,0.7050656678031585,0.3060232722666699
17,0.4456173606849301,0.41641522056605546,0.21761657149335104,0.5618590385400959,-0.004224735175764539,0.7013970208431938,0.28685431823326735
18,0.43201980312103394,0.42195142655043943,0.19220085453484548,0.5634332785879512,-0.009750754489202734,0.6979176781711436,0.26771918596594535
19,0.41814860102719426,0.42761762442869405,0.16701816744586645,0.5651013797552701,-0.015349537968754132,0.6945468551779731,0.24861078550244708
20,0.4039912252919009,0.43335397645721513,0.14208278106162697,0.5667952534623089,-0.021008961371670572,0.6912128824001906,0.2295339723142012
21,0.38954672811496815,0.43910283076343454,0.11742060814497189,0.568452532449199,-0.02671438935083743,0.6878531265293936,0.2105042819109247
22,0.37482508302361045,0.44480929519060153,0.09306726926136996,0.5700169409872209,-0.03244905681285196,0.6844140310335345,0.19154659968286952
23,0.35984638536246694,0.4504218915876664,0.06906609212691626,0.5714387170564956,-0.03819450160826999,0.6808511889340222,0.1726937394842473
24,0.34463988476206914,0.4558932335989611,0.04546605573066093,0.5726750183603786,-0.04393103997162184,0.6771293729131622,0.15398492798130753
25,0.329242842976446,0.46118067269671315,0.022319713327156734,0.5736902521823096,-0.04963827079623557,0.6732224623805054,0.13546421258319222
26,0.3136992312693312,0.4662468620199054,-0.00031885472595578293,0.5744562800674091,-0.05529559082024072,0.6691132236557171,0.11717882780773123
27,0.2980582997936443,0.47106019568985036,-0.0223959973044213,0.5749524619149292,-0.06088270049492528,0.6647929175079847,0.09917756713339017
28,0.28237306570453335,0.4755950922447142,-0.04386029438751729,0.5751655194795308,-0.06638007992078507,0.6602607268209365,0.08150921395364033
29,0.26669877592002467,0.47983210376121965,-0.06466414528313533,0.5750892152526558,-0.07176941576759611,0.6555230146930165,0.06422108589327766
30,0.2510914038798945,0.4837578458781619,-0.08476509463240331,0.574723857796673,-0.07703396331003698,0.6505924383679341,0.04735774180892077
31,0.23560623740221429,0.48736475696406767,-0.10412686273906659,0.5740756574745121,-0.08215883218060463,0.6454869557952875,0.030959891230683056
32,0.220296607504282,0.4906507058599911,-0.12272006437643003,0.5731559660996227,-0.08713118961102798,0.6402287685816305,0.015063533231384204
33,0.20521279707086543,0.4936184760615209,-0.1405226181913722,0.5719804397260411,-0.09194038020926577,0.634843247405161,-0.00030066259962429546
34,0.19040115505470256,0.496275159381242,-0.1575198652309344,0.5705681655194561,-0.09657796616041288,0.6293578839865102,-0.015107734592626761
35,0.1759034280763043,0.4986314939955911,-0.17370442849004142,0.5689407917809031,-0.10103769572724482,0.6238013082353366,-0.029338581014145666
36,0.16175630827780202,0.500701180658092,-0.1890758548288728,0.5671216954709027,-0.10531541080252223,0.6182024013058709,-0.04297990993269092
37,0.14799118517257553,0.5025002073635915,-0.20364008584694426,0.5651352149345928,-0.10940890594271784,0.6125895261589799,-0.056024018187539014
38,0.1346340806994196,0.5040462076309422,-0.21740880556406877,0.5630059679244203,-0.11331775185235687,0.6069898879256163,-0.06846843448123734
39,0.12170574100325986,0.5053578716085907,-0.23039871066563103,0.5607582673269786,-0.11704309586021665,0.6014290277735487,-0.08031546242915755
40,0.10922185553562601,0.5064544230899974,-0.24263074445943544,0.5584156399115623,-0.12058745076720313,0.5959304467043789,-0.09157165777472362
41,0.09719337355048925,0.5073551697980654,-0.254129329465832,0.5560004473943211,-0.12395448180445362,0.590515350081518,-0.10224727056248614
42,0.0856268894661059,0.5080791293309065,-0.26492162656489404,0.5535336043973659,-0.12714879955750633,0.5852024997969373,-0.11235567851828292
43,0.07452507131820663,0.5086447291576159,-0.2750368415576211,0.5510343845320964,-0.13017576478837145,0.5800081587210553,-0.12191283282013506
44,0.0638871101128182,0.5090695760711977,-0.28450559338799003,0.548520303764156,-0.13304130927266883,0.5749461112177935,-0.13093673234829678
45,0.05370917183860455,0.5093702884976903,-0.29335935246230643,0.5460070692468004,-0.13575177516326034,0.5700277437540923,-0.13944693773988642
46,0.04398483785669655,0.5095623839072927,-0.3016299526718318,0.5435085817182053,-0.1383137740486856,0.5652621706845912,-0.14746413237559003
47,0.034705523091752205,0.5096602131199541,-0.3093491769232842,0.541036980115739,-0.14073406581092332,0.5606563918634424,-0.15500973391336295
48,0.02586086473822781,0.5096769333797293,-0.31654841316428134,0.5386027180522542,-0.14301945659233875,0.5562154705840399,-0.16210555718850403
49,0.017439076987343954,0.5096245125332733,-0.3232583759516926,0.5362146630428959,-0.14517671462868936,0.5519427222826974,-0.16877352718936234
50,0.009427269551151867,0.5095137573519551,-0.32950888741344786,0.5338802107200249,-0.14721250235708427,0.5478399063245296,-0.17503543932176507
51,0.0018117295316290828,0.5093543598732285,-0.3353287108524901,0.5316054076204763,-0.14913332302518142,0.5439074149262073,-0.18091276320084967
52,-0.005421832496992069,0.5091549565197989,-0.34074543009475905,0.5293950773993839,-0.1509454799722703,0.540144454806902,-0.1864264856578754
53,-0.01228807039316723,0.5089231956235309,-0.3457853678656842,0.5272529464725167,-0.15265504678972033,0.5365492184717782,-0.19159698842690784
54,-0.018801821931568638,0.5086658097941394,-0.35047353688526134,0.5251817660911433,-0.154267846668252,0.5331190431196732,-0.19644395599668443
55,-0.02497795710439148,0.5083886903061873,-0.3548336179144905,0.5231834287028969,-0.15578943937886233,0.5298505560404829,-0.20098630930368924
56,-0.030831252325336074,0.5080969613200211,-0.35888795959938746,0.5212590771532634,-0.15722511449458462,0.5267398060493016,-0.20524216124406133
57,-0.03637628761329412,0.5077950523002862,-0.36265759559388194,0.5194092058465837,-0.15857988962791472,0.5237823810187263,-0.20922879034781297
58,-0.04162736392843083,0.5074867674529172,-0.3661622750651764,0.5176337534281222,-0.15985851262404763,0.5209735119443283,-0.21296262935379554
59,-0.046598437997963135,0.5071753513751567,-0.3694205032718407,0.5159321868866684,-0.16106546680660397,0.5183081642365073,-0.21645926582249903
60,-0.05130307217546276,0.5068635504122855,-0.3724495894423592,0.5143035772271534,-0.16220497851640103,0.5157811170979263,-0.2197334523086467
61,-0.055754397105503437,0.5065536694493498,-0.3752656996631659,0.5127466670406696,-0.16328102631299624,0.51338703193989,-0.22279912397542553
62,-0.059965085199952,0.5062476240460165,-0.37788391290834156,0.5112599304193237,-0.1642973513225412,0.5111205108306539,-0.22566942186060582
63,-0.06394733316264065,0.5059469879570729,-0.38031827870937496,0.509841625737904,-0.16525746831416502,0.5089761459681136,-0.22835672029876944
64,-0.06771285201851882,0.5056530361783548,-0.38258187527607485,0.5084898418639338,-0.1661646771715094,0.5069485611402675,-0.23087265726284784
65,-0.07127286330730265,0.5053667837253714,-0.38468686714345884,0.5072025383709863,-0.16702207449735115,0.5050324460884356,-0.23322816661331244
66,-0.07463810028775336,0.5050890203958837,-0.38664456163942823,0.505977580324307,-0.167832565148828,0.5032225846276662,-0.23543351143682006
67,-0.07781881316609542,0.5048203417934383,-0.3884654636495786,0.5048127681884044,-0.1685988735500584,0.5015138773114484,-0.23749831782065767
68,-0.08082477751081,0.5045611769007767,-0.39015932830375594,0.5037058633778719,-0.16932355466926038,0.49990135935781776,-0.23943160854798418
69,-0.08366530514686142,0.5043118124936096,-0.3917352113287897,0.5026546099386133,-0.17000900458015555,0.4983802144841002,-0.24124183631469032
70,-0.08634925693649709,0.5040724146793572,-0.39320151690758937,0.5016567528095375,-0.17065747055363137,0.49694578522987193,-0.24293691616465168
71,-0.08888505695251292,0.503843047834349,-0.3945660429604081,0.5007100530765456,-0.1712710606464081,0.4955935802835833,-0.24452425691900542
72,-0.09128070763478827,0.503623691198388,-0.3958360238229674,0.49981230059260423,-0.17185175276971146,0.4943192792685045,-0.24601079143934093
73,-0.09354380559348556,0.5034142533688946,-0.3970181703412701,0.4989613243009335,-0.1724014032334995,0.49311873538862855,-0.24740300561662276
74,-0.09568155778403062,0.5032145849190256,-0.3981187074368268,0.49815500056338013,-0.17292175477130617,0.4919879762850701,-0.24870696601922646
75,-0.09770079783121095,0.5030244893460357,-0.39914340922082564,0.4973912597633558,-0.17341444405781925,0.4909232034082869,-0.24992834616640477
76,-0.09960800232370591,0.5028437325381817,-0.4000976317532796,0.49666809142249896,-0.17388100873639398,0.4899207901709361,-0.2510724514192779
77,-0.10140930693722931,0.5026720509311166,-0.4009863435548816,0.4959835480425185,-0.1743228939772106,0.48897727911010724,-0.25214424250133854
78,-0.10311052227523436,0.502509158508192,-0.401814153986417,0.49533574785852325,-0.17474145858905693,0.48808937825572163,-0.253148357675541
79,-0.10471714934169749,0.5023547527835753,-0.40258533961413995,0.4947228766674221,-0.17513798070901537,0.48725395687372947,-0.25408913361622065
80,-0.10623439458164123,0.5022085198926489,-0.40330386868034046,0.4941431888745876,-0.17551366309489116,0.4864680407280064,-0.2549706250220989
81,-0.10766718444246097,0.5020701389008775,-0.4039734237970738,0.493595007883755,-0.17586963804520775,0.4857288069832308,-0.2557966230221191
82,-0.10902017942336768,0.5019392854301385,-0.4045974229782429,0.4930767259389127,-0.17620697197116603,0.4850335788521713,-0.2565706724293373
83,-0.11029778759185749,0.5018156346904529,-0.40517903912133146,0.4925868035125708,-0.17652666964422528,0.48437982007443353,-0.2572960878999847
84,-0.11150417755549771,0.5016988639950032,-0.40572121804544264,0.4921237683220832,-0.17682967814201553,0.4837651292995255,-0.2579759690554857
85,-0.11264329088484502,0.5015886548273031,-0.4062266951871426,0.491686214044515,-0.1771168905142001,0.483187234434837,-0.2586132146249295
86,-0.11371885398929613,0.5014846945212411,-0.4066980110501886,0.4912727987906951,-0.1773891491887281,0.4826439870085629,-0.2592105356644981
87,-0.1147343894523794,0.501386677607465,-0.40713752549965676,0.49088224339047765,-0.17764724913769864,0.4821333565885224,-0.259770467908824
88,-0.1156932268366465,0.5012943068730622,-0.4075474309854277,0.49051332953368154,-0.17789194082082962,0.4816534252900453,-0.2602953833073444
89,-0.11659851297110509,0.5012072941757301,-0.4079297647745171,0.4901648978045876,-0.17812393292330989,0.48120238239944846,-0.2607875007965507
90,-0.11745322173620347,0.5011253610484719,-0.40828642026641665,0.4898358456421335,-0.17834389490363034,0.48077851913396075,-0.26124889635669823
91,-0.11826016336286313,0.5010482391263141,-0.40861915746049704,0.4895251252529503,-0.17855245936585643,0.4803802235541466,-0.2616815123991119
92,-0.1190219932630717,0.5009756704225004,-0.4089296126396352,0.4892317415000495,-0.1787502242697187,0.4800059756408048,-0.2620871665277603
93,-0.11974122041017701,0.5009074074780643,-0.40921930732959444,0.4889547497862193,-0.17893775499087597,0.47965434254489114,-0.26246755971631625
94,-0.12042021528735121,0.5008432134055363,-0.40948965658931646,0.4886932539479369,-0.1791155862427428,0.4793239740161307,-0.2628242839395018
95,-0.1210612174227716,0.5007828618447786,-0.4097419766831713,0.488446404172806,-0.17928422387037313,0.47901359801358306,-0.263158829295171
96,-0.12166634252995379,0.5007261368465062,-0.4099774921823705,0.4882133949511192,-0.17944414652605484,0.47872201649942725,-0.2634725906513073
97,-0.12223758927140958,0.5006728326969256,-0.4101973425391589,0.4879934630700687,-0.17959580723549176,0.478448101415582,-0.26376687384994546
98,-0.12277684566342358,0.5006227536950439,-0.41040258817406255,0.48778588565736103,-0.17973963486273253,0.47819079084143706,-0.2640429014979469
99,-0.12328589513927649,0.5005757138925647,-0.41059421611336866,0.4875899782794712,-0.17987603548134173,0.47794908532987607,-0.26430181837259553
100,-0.1237664222877153,0.500531536804858,-0.4107731452111354,0.48740509309848173,-0.18000539365869844,0.47772204441790106,-0.26454469646811635
101,-0.1242200182828947,0.5004900551002367,-0.41094023098737287,0.48723061709035825,-0.18012807365974545,0.47750878330748214,-0.26477253970746717
102,-0.12464818602141141,0.5004511102736862,-0.41109627011157057,0.4870659703265839,-0.18024442057600118,0.477308469711728,-0.2649862883421058
103,-0.12505234498143117,0.5004145523102441,-0.41124200455847804,0.48691060432029537,-0.1803547613851701,0.4771203208610756,-0.26518682306088703
104,-0.12543383581828013,0.5003802393424001,-0.4113781254609441,0.486764000437415,-0.18045940594625903,0.47694360066391456,-0.265374968827797
105,-0.12579392471024217,0.5003480373051784,-0.41150527668269127,0.486625668372722,-0.18055864793471044,0.47677761701587423,-0.26555149846687764
106,-0.12613380746768196,0.5003178195919397,-0.41162405813211533,0.48649514469036265,-0.18065276572170172,0.4766217192518862,-0.26571713601143104
107,-0.12645461341800152,0.500289466713404,-0.41173502883655916,0.4863719914279321,-0.18074202320143232,0.47647529573509645,-0.265872559833414
108,-0.12675740907833918,0.5002628659619465,-0.41183870979500065,0.48625579476295727,-0.1808266705699147,0.4763377715767011,-0.2660184055678338
109,-0.12704320162734087,0.5002379110828059,-0.41193558662569946,0.48614616374037645,-0.18090694505851349,0.4762086064808412,-0.2661552688459342
110,-0.12731294218676942,0.500214501953517,-0.41202611202406575,0.48604272905942436,-0.18098307162522345,0.47608729270877154,-0.2662837078500078
111,-0.12756752892317866,0.5001925442725808,-0.4121107080448391,0.4859451419181863,-0.1810552636064475,0.4759733531566435,-0.26640424570178367
112,-0.12780780997935476,0.500171949258142,-0.4121897682215745,0.4858530729139775,-0.18112372333182508,0.47586633954137336,-0.2665173726955161
113,-0.1280345862447309,0.5001526333572316,-0.41226365953543664,0.4857662109976342,-0.18118864270447063,0.4757658306892332,-0.26662354838613633
114,-0.12824861397350085,0.5001345179659537,-0.41233272424438466,0.48568426247974766,-0.18125020374880504,0.47567143092196246,-0.2667232035421121
115,-0.12845060725870253,0.500117529160843,-0.4123972815829789,0.48560695008685306,-0.18130857912800238,0.47558276853538484,-0.26681674197200156
116,-0.1286412403701045,0.5001015974414994,-0.41245762934226765,0.4855340120655708,-0.18136393263292727,0.4754994943656978,-0.26690454223307253
117,-0.12882114996331614,0.5000866574844979,-0.4125140453384876,0.4854652013327115,-0.1814164196443037,0.4754212804387927,-0.26698695922978316
118,-0.1289909371671453,0.5000726479084844,-0.412566788778657,0.48540028466937396,-0.18146618756973165,0.47534781869815346,-0.2670643257093923
119,-0.12915116955585298,0.5000595110503001,-0.41261610153052397,0.48533904195709443,-0.18151337625705607,0.4752788198070753,-0.26713695366147167
120,-0.12930238301259755,0.5000471927519223,-0.4126622093037815,0.485281265454148,-0.18155811838548644,0.47521401202113417,-0.2672051356276317
121,-0.12944508349002262,0.5000356421579564,-0.4127053227489304,0.48522675911014895,-0.18160053983577248,0.4751531401270235,-0.26726914592734846
122,-0.12957974867362207,0.5000248115233858,-0.41274563847970724,0.4851753379171427,-0.18164076004064983,0.47509596444405905,-0.26732924180537837
123,-0.12970682955321042,0.5000146560312562,-0.4127833400245446,0.4851268272954429,-0.18167889231669287,0.475042259884833,-0.2673856645058817
124,-0.12982675190753853,0.5000051336199531,-0.41281859871213206,0.4850810625125236,-0.18171504417863288,0.4749918150716703,-0.26743864027802866
125,-0.12993991770682237,0.49999620481971296,-0.41285157449576776,0.48503788813333154,-0.18174931763713476,0.4749444315057101,-0.26748838131754427
126,-0.13004670643769073,0.499987832598004,-0.4128824167208465,0.484997157500452,-0.18178180948095896,0.4748999227855987,-0.26753508664835113
127,-0.13014747635481644,0.4999799822134102,-0.4129112648395101,0.4849587322426156,-0.1818126115443783,0.47485811387293625,-0.2675789429481884
128,-0.13024256566325976,0.4999726210776457,-0.41293824907619486,0.4849224818101012,-0.18184181096066424,0.4748188404017708,-0.26762012532183344
129,-0.1303322936353359,0.49996571862533085,-0.4129634910475316,0.48488828303564596,-0.18186949040240666,0.47478194802957724,-0.2676587980253051
130,-0.13041696166560862,0.49995924619117116,-0.4129871043398102,0.48485601971953696,-0.181895728309386,0.4747472918272999,-0.2676951151442122
131,-0.13049685426741658,0.49995317689417906,-0.41300919504698186,0.4848255822376172,-0.18192059910467015,0.47471473570616557,-0.26772922122919435
132,-0.13057224001415194,0.4999474855285929,-0.4130298622719601,0.48479686717099646,-0.18194417339957217,0.4746841518791045,-0.2677612518912131
133,-0.1306433724283357,0.4999421484611537,-0.4130491985937828,0.4847697769563132,-0.1819665181880633,0.47465542035473446,-0.2677913343592687
134,-0.13071049082136643,0.4999371435344112,-0.4130672905030108,0.48474421955545105,-0.18198769703120493,0.47462842846197845,-0.26781958800294964
135,-0.13077382108666316,0.49993244997574476,-0.4130842188075727,0.48472010814366195,-0.18200777023212653,0.4746030704034965,-0.2678461248220632
136,-0.13083357644877247,0.4999280483117891,-0.41310005901110464,0.48469736081510467,-0.18202679500205052,0.4745792468362139,-0.26787104990545135
137,-0.1308899581708708,0.4999239202879776,-0.4131148816656859,0.48467590030485175,-0.18204482561783242,0.47455686447732737,-0.2678944618609545
138,-0.1309431562229577,0.4999200487929172,-0.41312875270074206,0.4846556537264699,-0.18206191357146148,0.4745358357342651,-0.2679164532183657
139,-0.13099334991291248,0.4999164177873292,-0.41314173372975727,0.4846365523243202,-0.1820781077119407,0.4745160783571615,-0.2679371108070879
140,-0.13104070848246427,0.49991301223729545,-0.4131538823363211,0.4846185312397728,-0.18209345437994107,0.4744975151124932,-0.267956516110108
141,-0.13108539167001637,0.49990981805156837,-0.4131652523409308,0.48460152929056666,-0.1821079975356056,0.47448007347660515,-0.26797474559578605
142,-0.1311275502421565,0.49990682202270975,-0.413175894049867,0.4845854887625936,-0.18212177887985603,0.47446368534792055,-0.26799187102886834
143,-0.1311673264955851,0.4999040117718375,-0.41318585448737033,0.4845703552134121,-0.18213483796953683,0.47444828677671214,-0.2680079597620406
144,-0.13120485473109944,0.49990137569676896,-0.41319517761225827,0.48455607728684624,-0.1821472123267126,0.474433817711367,-0.26802307500925104
145,-0.13124026170117892,0.4998989029233611,-0.4132039045200463,0.48454260653805076,-0.1821589375424189,0.4744202217601492,-0.2680372761019564
146,-0.13127366703263507,0.4998965832598606,-0.41321207363155577,0.48452989726845586,-0.1821700473751501,0.4744074459675161,-0.2680506187293685
147,-0.1313051836257063,0.49989440715407946,-0.41321972086893155,0.48451790637004466,-0.18218057384435252,0.4743954406041086,-0.2680631551637116
148,-0.1313349180309033,0.49989236565323436,-0.4132268798199205,0.4845065931784377,-0.1821905473191772,0.4743841589695799,-0.2680749344714336
149,-0.13136297080483833,0.4998904503662819,-0.4132335818912096,0.4844959193342927,-0.18219999660273392,0.4743735572074834,-0.26808600271125793
150,-0.13138943684620463,0.49988865342860345,-0.41323985645156047,0.48448584865255234,-0.18220894901207413,0.474363594131486,-0.2680964031199009
151,-0.13141440571300644,0.499886967468897,-0.4132457309654323,0.4844763469990985,-0.18221743045412028,0.47435423106221286,-0.26810617628623185
152,-0.1314379619220805,0.49988538557813705,-0.4132512311177347,0.4844673821743966,-0.18222546549774626,0.474345431674079,-0.2681153603146016
153,-0.13146018523189212,0.49988390128048116,-0.41325638093030687,0.4844589238037362,-0.18223307744220418,0.4743371618514951,-0.2681239909780191
154,-0.1314811509095358,0.4998825085060004,-0.4132612028706807,0.4844509432336959,-0.18224028838208217,0.4743293895538758,-0.26813210186181186
155,-0.13150092998281596,0.4998812015651222,-0.4132657179536476,0.48444341343448133,-0.1822471192689683,0.47432208468891196,-0.2681397244983678
156,-0.1315195894782394,0.4998799751246793,-0.4132699458361087,0.48443630890780326,-0.18225358996998672,0.47431521899360274,-0.26814688849351587
157,-0.1315371926457014,0.49987882418546636,-0.4132739049056626,0.4844296055999847,-0.18225971932336532,0.47430876592257104,-0.2681536216450695
158,-0.1315537991706058,0.49987774406120855,-0.41327761236334737,0.4844232808199992,-0.18226552519118241,0.47430270054321705,-0.26815995005402127
159,-0.13156946537411926,0.49987673035885627,-0.41328108430092836,0.48441731316216174,-0.18227102450943686,0.47429699943729176,-0.2681658982288516
160,-0.13158424440221836,0.49987577896012153,-0.4132843357730959,0.48441168243320953,-0.18227623333557508,0.47429164060849627,-0.2681714891833764
161,-0.1315981864041558,0.4998748860041816,-0.41328738086491396,0.4844063695835221,-0.182281166893604,0.47428660339573825,-0.2681767445285406
162,-0.13161133870093317,0.49987404787146966,-0.41329023275483373,0.4844013566422482,-0.18228583961691114,0.4742818683916989,-0.268181684558535
163,-0.13162374594433845,0.4998732611684926,-0.41329290377356964,0.48439662665611494,-0.18229026518890792,0.47427741736638424,-0.26818632833158723
164,-0.13163545026707368,0.4998725227136073,-0.4132954054591118,0.48439216363171395,-0.18229445658160554,0.47427323319535525,-0.26819069374576254
165,-0.1316464914244695,0.49987182952369447,-0.4132977486081311,0.48438795248106464,-0.18229842609222735,0.4742692997923516,-0.2681947976100818
166,-0.13165690692825596,0.4998711788016747,-0.413299943324018,0.48438397897026736,-0.18230218537795745,0.4742656020460367,-0.26819865571125
167,-0.13166673217283342,0.499870567924814,-0.4133019990617762,0.48438022967107464,-0.182305745488919,0.47426212576061316,-0.26820228287626846
168,-0.13167600055446127,0.49986999443376734,-0.4133039246699809,0.48437669191521227,-0.1823091168994718,0.47425885760007136,-0.26820569303118336
169,-0.1316847435837601,0.4998694560223169,-0.4133057284299949,0.4843733537512935,-0.1823123095379134,0.4742557850358475,-0.268208899256216
170,-0.13169299099190168,0.4998689505277557,-0.41330741809262445,0.4843702039041808,-0.18231533281466494,0.474252896297682,-0.2682119138374937
171,-0.13170077083083823,0.4998684759218817,-0.4133090009123834,0.4843672317366548,-0.18231819564901808,0.4742501803274827,-0.2682147483155966
172,-0.13170810956790466,0.49986803030255944,-0.4133104836795246,0.4843644272132599,-0.18232090649451524,0.4742476267360079,-0.26821741353111556
173,-0.13171503217510894,0.4998676118858153,-0.41331187274998304,0.48436178086620235,-0.18232347336303295,0.4742452257621966,-0.26821991966740716
174,-0.13172156221340642,0.49986721899843195,-0.41331317407337104,0.4843592837631849,-0.1823259038476331,0.47424296823498296,-0.2682222762907191
175,-0.1317277219122397,0.49986685007100984,-0.41331439321915225,0.484356927477066,-0.1823282051442447,0.47424084553744417,-0.26822449238784984
176,-0.13173353224460885,0.4998665036314691,-0.41331553540111526,0.48435470405724335,-0.1823303840722359,0.47423884957313683,-0.26822657640149283
177,-0.13173901299792162,0.4998661782989578,-0.41331660550025584,0.48435260600265945,-0.1823324470939312,0.47423697273448884,-0.2682285362634118
178,-0.13174418284086062,0.49986587277814715,-0.4133176080861767,0.48435062623634034,-0.18233440033312845,0.4742352078731205,-0.26823037942557876
179,-0.1317490593864902,0.4998655858538866,-0.41331854743709606,0.4843487580813792,-0.1823362495926658,0.47423354827197656,-0.26823211288940046
180,-0.1317536592518134,0.4998653163861941,-0.4133194275585629,0.4843469952382823,-0.18233800037108672,0.4742319876191578,-0.26823374323315374
181,-0.13175799811397904,0.499865063305563,-0.4133202522009574,0.48434533176359923,-0.1823396578784492,0.47423051998334886,-0.26823527663773855
182,-0.13176209076332493,0.4998648256085663,-0.41332102487586037,0.4843437620497679,-0.18234122705132183,0.47422913979074427,-0.2682367189108518
183,-0.1317659511534366,0.49986460235373464,-0.4133217488713626,0.4843422808060998,-0.1823427125670094,0.47422784180338046,-0.26823807550968204
184,-0.13176959244838712,0.49986439265769506,-0.41332242726638574,0.48434088304084577,-0.18234411885704555,0.4742266210987881,-0.26823935156221385
185,-0.1317730270673176,0.4998641956915533,-0.41332306294407767,0.4843395640442775,-0.18234545011999104,0.4742254730508835,-0.26824055188722784
186,-0.13177626672650675,0.49986401067750225,-0.4133236586043436,0.48433831937272925,-0.18234671033357255,0.47422439331202426,-0.26824168101307894
187,-0.1317793224790705,0.49986383688564534,-0.4133242167755681,0.48433714483354345,-0.1823479032661952,0.47422337779615675,-0.2682427431953244
188,-0.13178220475242544,0.499863673631016,-0.41332473982558154,0.4843360364708702,-0.1823490324878613,0.47422242266298903,-0.26824374243327603
189,-0.1317849233836404,0.4998635202707882,-0.41332522997192045,0.48433499055227164,-0.18235010138052532,0.4742215243031269,-0.2682446824855406
190,-0.13178748765279635,0.4998633762016597,-0.4133256892914268,0.484334003556085,-0.18235111314791408,0.47422067932411305,-0.26824556688461104
191,-0.13178990631446522,0.4998632408573997,-0.41332611972922995,0.484333072159502,-0.18235207082483898,0.4742198845373167,-0.26824639895056723
192,-0.13179218762741374,0.4998631137065491,-0.41332652310715035,0.48433219322732424,-0.1823529772860264,0.4742191369456185,-0.26824718180394125
193,-0.13179433938263274,0.49986299425026837,-0.41332690113156323,0.4843313638013543,-0.18235383525449186,0.47421843373184314,-0.2682479183777972
194,-0.13179636892978483,0.49986288202031454,-0.4133272554007579,0.48433058109038934,-0.18235464730947948,0.4742177722478965,-0.2682486114290755
195,-0.13179828320216058,0.49986277657715034,-0.4133275874118235,0.48432984246078004,-0.18235541589399049,0.47421715000456,-0.2682492635492454
196,-0.13180008874022678,0.4998626775081668,-0.41332789856709407,0.4843291454275244,-0.18235614332192143,0.47421656466190654,-0.26824987717430865
197,-0.1318017917138448,0.49986258442601983,-0.4133281901801792,0.48432848764586717,-0.18235683178483159,0.4742160140202959,-0.2682504545941947
198,-0.1318033979432363,0.49986249696707,-0.4133284634816091,0.4843278669033732,-0.18235748335835944,0.47421549601191765,-0.2682509979615839
199,-0.13180491291876428,0.49986241478991905,-0.4133287196241174,0.48432728111245,-0.18235810000830552,0.4742150086928458,-0.26825150930019326
200,-0.1318063418195978,0.4998623375740379,-0.4133289596875861,0.48432672830329443,-0.18235868359639906,0.4742145502355757,-0.26825199051256005
201,-0.13180768953132282,0.49986226501847963,-0.41332918468367436,0.48432620661723763,-0.1823592358857648,0.4742141189220129,-0.26825244338735044
202,-0.13180896066255812,0.4998621968406736,-0.4133293955601507,0.48432571430046617,-0.18235975854610553,0.47421371313688615,-0.2682528696062258
203,-0.1318101595606328,0.49986213277529423,-0.41332959320494866,0.4843252496980999,-0.18236025315861398,0.4742133313615605,-0.2682532707502913
204,-0.13181129032637803,0.49986207257319903,-0.4133297784499635,0.4843248112486039,-0.18236072122062966,0.47421297216822234,-0.26825364830615317
205,-0.13181235682808343,0.4998620160004346,-0.4133299520746055,0.48432439747851624,-0.18236116415005219,0.47421263421441906,-0.26825400367160857
206,-0.13181336271466365,0.4998619628373026,-0.41333011480912885,0.48432400699747485,-0.18236158328952498,0.4742123162379273,-0.26825433816099026
207,-0.13181431142808223,0.4998619128774839,-0.41333026733774514,0.4843236384935251,-0.18236197991040007,0.47421201705193156,-0.2682546530101875
208,-0.1318152062150721,0.4998618659272181,-0.4133304103015407,0.4843232907286928,-0.18236235521649596,0.4742117355404947,-0.2682549493813633
209,-0.1318160501381938,0.4998618218045332,-0.4133305443012071,0.48432296253480733,-0.18236271034765952,0.4742114706543013,-0.2682552283673842
210,-0.1318168460862688,0.4998617803385218,-0.41333066989959705,0.48432265280956116,-0.18236304638314113,0.4742112214066587,-0.2682554909959842
211,-0.1318175967842222,0.4998617413686648,-0.41333078762411984,0.48432236051279304,-0.18236336434479336,0.47421098686973956,-0.26825573823367505
212,-0.13181830480236903,0.49986170474419417,-0.4133308979689818,0.4843220846629789,-0.18236366520010241,0.47421076617105073,-0.2682559709894209
213,-0.1318189725651752,0.49986167032349704,-0.41333100139728624,0.48432182433392346,-0.18236394986506052,0.4742105584901146,-0.2682561901180903
214,-0.1318196023595233,0.4998616379735546,-0.4133310983429979,0.48432157865163794,-0.18236421920688833,0.4742103630553523,-0.26825639642370014
215,-0.13182019634250977,0.49986160756941855,-0.4133311892127845,0.4843213467913937,-0.18236447404661382,0.4742101791411529,-0.2682565906624633
216,-0.1318207565488017,0.4998615789937163,-0.41333127438774103,0.484321127974943,-0.18236471516151642,0.47421000606511987,-0.26825677354565225
217,-0.13182128489757697,0.49986155213619016,-0.4133313542250029,0.48432092146789657,-0.18236494328744288,0.4742098431854844,-0.26825694574229
218,-0.13182178319907156,0.4998615268932617,-0.41333142905925907,0.4843207265772494,-0.18236515912100118,0.4742096898986729,-0.2682571078816791
219,-0.13182225316075621,0.49986150316762534,-0.41333149920416723,0.48432054264904645,-0.18236536332163966,0.4742095456370218,-0.26825726055577725
220,-0.13182269639316357,0.4998614808678657,-0.4133315649536804,0.4843203690661796,-0.18236555651361613,0.4742094098666291,-0.26825740432143075
221,-0.13182311441538525,0.4998614599080987,-0.41333162658328915,0.4843202052463098,-0.18236573928786423,0.47420928208533664,-0.26825753970247246
222,-0.13182350866025772,0.49986144020763473,-0.4133316843511855,0.4843200506399056,-0.18236591220376094,0.47420916182083234,-0.2682576671916949
223,-0.1318238804792544,0.49986142169066305,-0.41333173849935223,0.4843199047283935,-0.1823660757908014,0.47420904862886637,-0.2682577872527028
224,-0.1318242311471008,0.49986140428595466,-0.4133317892545838,0.484319767022412,-0.1823662305501855,0.4742089420915758,-0.2682579003216546
225,-0.13182456186612806,0.49986138792658347,-0.4133318368294426,0.48431963706016484,-0.18236637695632046,0.4742088418159087,-0.26825800680890116
226,-0.1318248737703801,0.4998613725496654,-0.41333188142315547,0.48431951440586624,-0.18236651545824478,0.4742087474321429,-0.2682581071005238
227,-0.13182516792948792,0.4998613580961123,-0.41333192322245194,0.4843193986482748,-0.18236664648097659,0.4742086585924947,-0.2682582015597802
228,-0.13182544535232432,0.49986134451040226,-0.4133319624023508,0.48431928939931,-0.182366770426791,0.47420857496980995,-0.268258290528465
229,-0.13182570699045174,0.49986133174036274,-0.4133319991268965,0.4843191862927461,-0.18236688767642995,0.47420849625633377,-0.2682583743281866
230,-0.13182595374137465,0.49986131973696774,-0.41333203354984926,0.48431908898298065,-0.18236699859024844,0.47420842216255465,-0.2682584532615697
231,-0.13182618645160707,0.4998613084541469,-0.413332065815331,0.48431899714387183,-0.18236710350929966,0.4742083524161173,-0.26825852761338354
232,-0.13182640591956712,0.4998612978486064,-0.41333209605843163,0.48431891046764197,-0.18236720275636362,0.4742082867608007,-0.26825859765160387
233,-0.131826612898307,0.4998612878796607,-0.41333212440577616,0.4843188286638421,-0.18236729663691958,0.47420822495555753,-0.26825866362841094
234,-0.13182680809808786,0.49986127850907464,-0.4133321509760561,0.48431875145837633,-0.1823673854400696,0.47420816677361055,-0.2682587257811278
235,-0.13182699218880958,0.49986126970091566,-0.41333217588052773,0.48431867859257943,-0.1823674694394109,0.47420811200160445,-0.26825878433310213
236,-0.1318271658023017,0.4998612614214141,-0.41333219922347936,0.48431860982234765,-0.1823675488938631,0.4742080604388063,-0.26825883949453605
237,-0.13182732953448525,0.4998612536388327,-0.41333222110266765,0.4843185449173184,-0.1823676240484517,0.474208011896356,-0.2682588914632649
238,-0.1318274839474116,0.4998612463233432,-0.4133322416097284,0.484318483660096,-0.1823676951350494,0.47420796619655997,-0.2682589404254919
239,-0.13182762957118577,0.4998612394469115,-0.41333226083055985,0.4843184258455215,-0.1823677623730784,0.47420792317222754,-0.26825898655647584
240,-0.13182776690578082,0.49986123298318946,-0.41333227884568274,0.4843183712799828,-0.18236782597017578,0.4742078826660474,-0.2682590300211801
241,-0.13182789642274875,0.49986122690741275,-0.4133322957305778,0.4843183197807644,-0.1823678861228233,0.47420784453000053,-0.26825907097488216
242,-0.1318280185668351,0.4998612211963056,-0.4133323115560013,0.484318271175434,-0.18236794301694326,0.47420780862480916,-0.26825910956374666
243,-0.13182813375750116,0.4998612158279907,-0.41333232638828116,0.4843182253012628,-0.18236799682846364,0.4742077748194174,-0.2682591459253641
244,-0.13182824239036067,0.4998612107819051,-0.41333234028959465,0.4843181820046796,-0.18236804772385237,0.47420774299050394,-0.26825918018925804
245,-0.13182834483853398,0.49986120603872103,-0.41333235331822854,0.4843181411407541,-0.1823680958606236,0.47420771302202314,-0.2682592124773616
246,-0.13182844145392636,0.4998612015802713,-0.41333236552882235,0.4843181025727113,-0.18236814138781704,0.4742076848047739,-0.2682592429044658
247,-0.13182853256843308,0.4998611973894793,-0.4133323769725974,0.48431806617147166,-0.18236818444645173,0.4742076582359931,-0.268259271578641
248,-0.13182861849507638,0.4998611934502936,-0.4133323876975707,0.48431803181521776,-0.18236822516995577,0.4742076332189759,-0.2682592986016332
249,-0.13182869952907797,0.4998611897476263,-0.4133323977487549,0.4843179993889863,-0.1823682636845725,0.47420760966271513,-0.268259324069238
250,-0.13182877594887005,0.49986118626729426,-0.41333240716834757,0.4843179687842808,-0.18236830010974628,0.4742075874815654,-0.26825934807165
251,-0.13182884801705008,0.49986118299596644,-0.41333241599590625,0.4843179398987082,-0.18236833455848667,0.47420756659492447,-0.26825937069379346
252,-0.1318289159812801,0.4998611799211103,-0.41333242426851446,0.484317912635636,-0.18236836713771326,0.474207546926936,-0.268259392015633
253,-0.1318289800751359,0.4998611770309451,-0.4133324320209363,0.4843178869038666,-0.18236839794858303,0.4742075284062077,-0.26825941211246457
254,-0.13182904051890737,0.4998611743143977,-0.413332439285761,0.4843178626173321,-0.1823684270867989,0.47420751096554836,-0.2682594310551913
255,-0.1318290975203538,0.49986117176105804,-0.4133324460935401,0.4843178396948056,-0.18236845464290294,0.4742074945417191,-0.26825944891058096
256,-0.13182915127541628,0.49986116936113995,-0.4133324524729138,0.4843178180596286,-0.1823684807025533,0.47420747907519933,-0.2682594657415088
257,-0.13182920196888911,0.4998611671054446,-0.41333245845073113,0.484317797639454,-0.18236850534678664,0.47420746450996787,-0.2682594816071872
258,-0.13182924977505392,0.49986116498532446,-0.4133324640521619,0.48431777836600276,-0.1823685286522664,0.47420745079329585,-0.26825949656337933
259,-0.13182929485827702,0.4998611629926499,-0.4133324693008015,0.4843177601748359,-0.18236855069151764,0.47420743787555253,-0.26825951066260334
260,-0.1318293373735731,0.49986116111977846,-0.4133324742187697,0.4843177430051378,-0.1823685715331498,0.4742074257100219,-0.2682595239543214
261,-0.13182937746713716,0.49986115935952635,-0.4133324788268024,0.484317726799513,-0.18236859124206709,0.4742074142527317,-0.2682595364851192
262,-0.13182941527684588,0.4998611577051396,-0.4133324831443385,0.48431771150379255,-0.1823686098796677,0.47420740346229057,-0.2682595482988745
263,-0.13182945093273046,0.49986115615026905,-0.413332487189601,0.4843176970668537,-0.18236862750403254,0.47420739329973643,-0.2682595594369159
264,-0.13182948455742316,0.499861154688946,-0.4133324909796729,0.48431768344044784,-0.18236864417010387,0.47420738372839294,-0.26825956993817207
265,-0.1318295162665775,0.49986115331555964,-0.4133324945305682,0.4843176705790389,-0.18236865992985402,0.4742073747137353,-0.2682595798393121
266,-0.1318295461692654,0.4998611520248347,-0.41333249785729914,0.48431765843965074,-0.18236867483244562,0.47420736622326315,-0.2682595891748775
267,-0.13182957436835174,0.49986115081181254,-0.4133325009739389,0.48431764698172297,-0.1823686889243826,0.4742073582263808,-0.2682595979774071
268,-0.13182960096084698,0.49986114967183054,-0.4133325038936798,0.4843176361669758,-0.18236870224965357,0.4742073506942865,-0.2682596062775534
269,-0.1318296260382403,0.4998611486005065,-0.4133325066288883,0.48431762595928085,-0.18236871484986747,0.47420734359986505,-0.26825961410419324
270,-0.13182964968681377,0.49986114759372025,-0.4133325091911574,0.4843176163245401,-0.1823687267643815,0.4742073369175902,-0.2682596214845312
271,-0.13182967198793843,0.49986114664759834,-0.41333251159135403,0.48431760723057293,-0.1823687380304231,0.47420733062343,-0.2682596284441974
272,-0.1318296930183535,0.49986114575849966,-0.413332513839665,0.4843175986470065,-0.1823687486832043,0.47420732469475974,-0.268259635007339
273,-0.13182971285043016,0.49986114492300077,-0.41333251594563925,0.48431759054517587,-0.18236875875603048,0.47420731911027847,-0.26825964119670725
274,-0.13182973155241978,0.4998611441378839,-0.413332517918228,0.4843175828980263,-0.18236876828040352,0.47420731384993187,-0.2682596470337378
275,-0.13182974918868856,0.499861143400123,-0.41333251976582197,0.4843175756800238,-0.1823687772861188,0.4742073088948384,-0.26825965253862827
276,-0.13182976581993844,0.49986114270687476,-0.41333252149628597,0.4843175688670695,-0.18236878580135776,0.4742073042272212,-0.2682596577304103
277,-0.13182978150341546,0.4998611420554649,-0.41333252311699253,0.48431756243641805,-0.1823687938527746,0.47420729983034227,-0.2682596626270164
278,-0.13182979629310662,0.4998611414433801,-0.41333252463485187,0.4843175563666032,-0.18236880146557904,0.474207295688442,-0.2682596672453448
279,-0.13182981023992524,0.4998611408682574,-0.4133325260563417,0.48431755063736387,-0.18236880866361418,0.474207291786682,-0.2682596716013196
280,-0.1318298233918857,0.4998611403278752,-0.41333252738753323,0.48431754522957793,-0.18236881546943037,0.47420728811109003,-0.2682596757099467
281,-0.13182983579426863,0.4998611398201454,-0.41333252863411746,0.4843175401251971,-0.1823688219043552,0.4742072846485107,-0.2682596795853676
282,-0.1318298474897765,0.4998611393431049,-0.4133325298014284,0.48431753530718813,-0.18236882798855927,0.47420728138655616,-0.26825968324090954
283,-0.1318298585186801,0.49986113889490824,-0.4133325308944656,0.4843175307594735,-0.1823688337411193,0.47420727831356174,-0.26825968668913264
284,-0.13182986891895704,0.49986113847382,-0.41333253191791514,0.4843175264668793,-0.18236883918007685,0.47420727541854407,-0.2682596899418742
285,-0.13182987872642238,0.49986113807821025,-0.41333253287616906,0.48431752241508436,-0.18236884432249448,0.47420727269115986,-0.2682596930102912
286,-0.13182988797485162,0.4998611377065454,-0.41333253377334384,0.4843175185905717,-0.18236884918450857,0.47420727012166947,-0.2682596959048987
287,-0.1318298966960967,0.49986113735738424,-0.41333253461329716,0.48431751498058345,-0.18236885378137954,0.47420726770090127,-0.26825969863560833
288,-0.13182990492019564,0.4998611370293722,-0.4133325353996452,0.48431751157307856,-0.18236885812753936,0.47420726542021824,-0.26825970121176224
289,-0.13182991267547578,0.49986113672123544,-0.4133325361357766,0.4843175083566923,-0.18236886223663626,0.47420726327148705,-0.26825970364216617
