i,j,Area,GDP,Inflation,Life.expect,Military,Pop.growth,Unemployment
0,0,0.19265386324422912,0.4021983174458207,-0.3173741268131918,0.4703167437998403,-0.1769579687737458,0.24335399612810443,-0.647064005997163
0,1,0.09963712514541154,0.33933365725552095,-0.2449542550393047,0.2881193612621346,-0.2320776130260946,0.1156449875876132,-0.5841405730272102
0,2,0.0939455282495943,0.3666343278928558,-0.2652501134787416,0.3513957829604395,-0.2307929003661434,0.20626517483921636,-0.5764982969170188
0,3,0.3125296468253173,0.29070069580395547,-0.06949244056490146,0.19972842311217825,-0.20215677368138427,0.10944497186623564,-0.6483182314682231
0,4,0.10270791372259985,0.44301769517034784,-0.2781050049069161,0.4266553937136016,-0.24893446993753807,0.1942188311418629,-0.6969106049133312
0,5,0.08472938604279563,0.36961863734288125,-0.36015801533144326,0.36704929409041265,-0.21478947583633426,0.16418409020934835,-0.6207948173515848
0,6,0.20340216716824863,0.401854477738342,-0.2889896045485234,0.4223883828656058,-0.20294265497707162,0.2693861265691043,-0.45834417874963074
0,7,0.21748644156538663,0.3319102870797452,-0.11078208996454111,0.2280080473599777,-0.19113095523759804,0.16010279388273618,-0.5948649370618306
0,8,0.02685166792027631,0.32375613869223535,-0.17859078537345036,0.2886738078808956,-0.1518749731046424,0.1601462567685005,-0.45879568722723085
0,9,0.07847644475216792,0.333324267942972,-0.20885775757674846,0.3386189865267022,-0.13766471330571028,0.19113349055676482,-0.4405408540141423
0,10,0.08408822846026145,0.2880002961820129,-0.1717567542134121,0.306417180061864,-0.11143071145052541,0.17510079828148306,-0.3775949285838898
0,11,0.021165681145728536,0.2768292547465327,-0.1432993588616191,0.27488677719388166,-0.12295173771489033,0.19629350103473267,-0.31886303498374813
0,12,0.026855335548102762,0.23465451579477575,-0.13379145910677898,0.23161701735001278,-0.07363766122770911,0.15240600757759445,-0.2647599884676822
0,13,0.027359802634453347,0.18941695038705092,-0.11299202435175254,0.20133334986723297,-0.06760727715274471,0.13161970363137251,-0.1920553184407417
0,14,0.012482839451042704,0.16314744588114097,-0.09820437863473752,0.1691122228115564,-0.03972098829637794,0.09565235448399881,-0.18721534924939967
0,15,-0.0020141248386321494,0.12351756282793314,-0.07598546759901485,0.14265498196422843,-0.04782243586488889,0.07457922558392127,-0.14885696400745507
0,16,0.015736716817688155,0.08919996356908678,-0.07018853800167306,0.10457115126760101,0.002932538757739128,0.02996488832576309,-0.11285759605872726
0,17,-0.0017121592147209272,-0.0019535196839985955,-0.007104027542310011,0.03829133513847618,0.01596310578975006,-0.03496318267703699,-0.027083035789098164
0,18,0.00481628969237689,-0.0916919070484729,0.047475350781502126,-0.03166863021108113,0.07547109758195975,-0.1154846973725046,0.03546152503599277
0,19,-0.019478149555397114,-0.14527758871676907,0.1142180555550196,-0.10774412997109639,0.08067987967762688,-0.17166356220053572,0.1271084408769987
1,0,0.2458245342331868,0.4535365801307667,-0.31300622468565586,0.4580952662482873,-0.20510588042693426,0.22095775751644017,-0.6621666411590731
1,1,0.09021332811130787,0.3739706939521971,-0.2698139317222116,0.3544276234436599,-0.23663347103938193,0.211010500459571,-0.5817697143587381
1,2,0.2654050620104243,0.40296633468780685,-0.3057553371994776,0.45881052913367026,-0.22308699293439302,0.2800561519548195,-0.460477059119777
1,3,0.09407375856609045,0.34876473294625054,-0.25651981851867667,0.34202867962569794,-0.24379261929488255,0.15932666879548482,-0.5445375073162734
1,4,0.06567913190227065,0.3782537799527114,-0.34522205590572674,0.36430135653953655,-0.17078913123786993,0.16969424602845998,-0.5761409087647373
1,5,0.08142482614218749,0.40520704089804305,-0.2865677729144918,0.41094385739246764,-0.021688058879033474,0.23056216312563074,-0.5088032924140492
1,6,0.05224760955613092,0.4270469686606472,-0.2814001506665873,0.3954274701498694,-0.1931110119626241,0.3123394729656271,-0.5221677167557145
1,7,0.030164815610710525,0.34868641812484125,-0.24035807107783388,0.3357039983066314,-0.15965647378933692,0.207426821588024,-0.44794830743485625
1,8,0.04060173912511796,0.29038123246913417,-0.19569040901233817,0.29650312024727804,-0.1095825602621994,0.18768274536692384,-0.3684482971515117
1,9,0.04077179018383043,0.28682955078883804,-0.17304750274319558,0.2822003807907317,-0.10222359180448794,0.18814364555600313,-0.3266422894761805
1,10,0.0034249157428611235,0.23514417660647943,-0.1494797284617299,0.22547092688407597,-0.07279284538218074,0.15679954567934376,-0.2537089750721529
1,11,0.0005103851312453403,0.22016978699655135,-0.13264696831259953,0.21659277726917062,-0.07779693895856424,0.161327252703887,-0.22055010862878485
1,12,0.00336716019773072,0.18695812622077948,-0.105783977966025,0.1909622275231008,-0.042508580712122254,0.1263695259102039,-0.20031405303231442
1,13,-0.011955309763938734,0.14056616507476008,-0.1063786360936277,0.15079094337698418,-0.032807468801709185,0.09080195414164087,-0.14146932222038128
1,14,-0.013996454930829239,0.10690687787111595,-0.07436942252194251,0.11587067055610092,-0.027505337662612952,0.06101618667653751,-0.11916723775388097
1,15,-0.013893437022528543,0.08442146849778027,-0.057912372209963224,0.1038844592665166,-0.03161426478203333,0.050744878182166026,-0.08996381858593615
1,16,-0.016977129089713845,0.03803161098568721,-0.05588500594213165,0.06252499428232217,0.007661473942478852,0.014392170048539831,-0.05736625796024294
1,17,-0.017582374926885493,-0.027001122127439006,0.0017774623722120531,0.007321158791380873,0.04092327012721622,-0.0470240533260407,0.003817837413074589
1,18,-0.014339604698730864,-0.12175063138798033,0.06338943094845248,-0.07422561472082381,0.06593585138181642,-0.12904451907200426,0.0900944521613205
1,19,-0.0004424190983029615,-0.19228600480070251,0.12711051751564312,-0.14151313822021833,0.11512583292179646,-0.18564421461781627,0.19119275764960386
2,0,0.0936015638264154,0.46084936380746583,-0.2936026980673989,0.43236707451856193,-0.2649032007593748,0.20712016834183375,-0.707518177378048
2,1,0.08129672083198229,0.37862894924400325,-0.2732888196628497,0.3553310728625555,-0.23959233997049936,0.21575887115452733,-0.5827360513942494
2,2,0.07431293037543757,0.4411425406715782,-0.289129224375508,0.42874737432125065,-0.22018472180571022,0.21572227753358228,-0.6584146892489241
2,3,0.15796013334322176,0.44263372603725,-0.2864035264071257,0.4059109545327703,-0.1638871884860822,0.22451877310915472,-0.6334050262020307
2,4,0.12834814152653365,0.43371398738015116,-0.2994283431359683,0.4449788142912564,-0.17709047224301272,0.278451925894075,-0.6069030611977572
2,5,0.07361508579061139,0.3752106684297992,-0.23179151484462718,0.371630478964606,-0.19021086087798392,0.23689568973935998,-0.5165525714040191
2,6,0.05567268583256312,0.33832236487540646,-0.2296280256242687,0.3375840541086188,-0.14353911054190882,0.23071904632700968,-0.40801097277293796
2,7,0.04919972856267318,0.2910598487024884,-0.17414386687293498,0.29901379014718504,-0.09235113478241011,0.2046003172678681,-0.3557580310282074
2,8,0.007240532949079876,0.27065523917592177,-0.15836468009729585,0.26112692786462416,-0.09071688930455536,0.19553665806478185,-0.2867774320220562
2,9,0.029896125584453797,0.22506534228657096,-0.1132361883515965,0.2030180904270754,-0.08632211647717379,0.15573513791297203,-0.2537125657579094
2,10,-0.0041116994226828105,0.19809044972486908,-0.12491420286416406,0.19325617438762185,-0.05743449636153596,0.12984659152948722,-0.20925049216666686
2,11,-0.011965974699535068,0.1683996654618928,-0.1100658154820209,0.1763130295288871,-0.05112471795741288,0.12273276940806409,-0.16614748044756428
2,12,-0.0013411410270019457,0.1485921177093168,-0.09925727937093233,0.1521220833051201,-0.04676963532903447,0.0915951427369439,-0.15222143140805386
2,13,-0.02030892928638019,0.10430905393401564,-0.06910146719317341,0.11153176101231664,-0.0366046173354658,0.06541978364177856,-0.10248831747892095
2,14,-0.022535228500183423,0.08544098890315928,-0.07210058589877084,0.09466586825603383,-0.023166558557806013,0.05910943005168828,-0.09608238234110365
2,15,-0.0067278443114866604,0.04601782524255428,-0.03150993708989482,0.05747320829211114,0.0019525846983600313,0.0167407143899947,-0.05203662614744195
2,16,-0.021198438519740903,-0.011119678659937135,-0.0023447304809891107,0.015028513767907845,0.028868151333037165,-0.01998162113929762,0.0015382727893812065
2,17,-0.02438389852110097,-0.06258550125612361,0.024011105933020537,-0.03686445644675494,0.04171716612867261,-0.07121829155733207,0.043409134530543465
2,18,-0.019172562355204408,-0.1407032334537453,0.08020862106839656,-0.08618082947397566,0.11682749920977029,-0.13203258420826794,0.12824122436728153
2,19,-0.028238157715767886,-0.21306969617280436,0.1418220295607202,-0.1610138502557144,0.12666107696190812,-0.1802931502673307,0.19411156642821029
3,0,0.09246598644819896,0.4488650673683349,-0.2724249332235681,0.4542810534485853,-0.3323335598651054,0.294489378876212,-0.6652532883858582
3,1,0.07981692938910499,0.35343993354714265,-0.24415453097052808,0.2949387710818528,-0.23119184866150957,0.14504410832747033,-0.5861769044430711
3,2,0.16076891250959158,0.45798096946653105,-0.3171692369218302,0.4210504691671324,-0.20274441627571851,0.20567715322279512,-0.6610604565246002
3,3,0.05288663206239025,0.3894093008931215,-0.30820850271897027,0.3458687061686271,-0.14138988252609164,0.22395622232165222,-0.5202550693959904
3,4,0.04846807155217067,0.39622154265242415,-0.21712589100368118,0.3726095787822903,-0.2524389455744484,0.26625203297523753,-0.5128330119878312
3,5,0.04703934013052083,0.36834010358967867,-0.22537746552041268,0.35986465251090405,-0.16807100834885147,0.25160597241450083,-0.45709606083160276
3,6,0.023398878965402648,0.3155522589930521,-0.19280010886089521,0.3017498437421736,-0.13145014458386178,0.24495473087715072,-0.3251718493360472
3,7,0.002373908828662635,0.26721922051824526,-0.15891951114853495,0.2496434191991207,-0.10773221079280583,0.1984205662168964,-0.271653098323149
3,8,-0.0038549346471750665,0.23329198099372653,-0.14430710768452126,0.22177701409840153,-0.08236023611291224,0.17112116636191965,-0.2340910537383557
3,9,-0.01556787599462542,0.21050556514415084,-0.1354064048047726,0.20457182341793403,-0.0702039808762747,0.15398084810753235,-0.20816482253435392
3,10,-0.015215524414883812,0.16752045467399823,-0.10493240920952011,0.16159718331638687,-0.06460071478687483,0.12173577450704655,-0.16392026967155152
3,11,-0.01779051674842639,0.146498171232145,-0.10497468821385816,0.14461293120595228,-0.050229973731824015,0.109027676574887,-0.1515418312845147
3,12,-0.018197703958541773,0.11268600193867766,-0.0634474848684077,0.11717997745600811,-0.05119568023100025,0.08238926640867002,-0.11406811978173512
3,13,-0.022671460702434316,0.0808825825547328,-0.04474666870915175,0.08591010751634502,-0.026175406548147352,0.048484530375645166,-0.0824431508204317
3,14,-0.02151601015635665,0.04036247884861152,-0.026607415673042107,0.055807129477502646,-0.0051685590185726335,0.028220280490514445,-0.03856420178098605
3,15,-0.02697092194840071,0.0036092647172816772,-0.0032608503947302086,0.008960446404313763,-0.002719375681849484,-0.00925447281216891,-0.003325315683735322
3,16,-0.009186284896505387,-0.026341793223510667,0.015147856933759965,-0.006736221756104685,0.024225038954970423,-0.030733691204717608,0.028595174014370926
3,17,-0.033043697888103636,-0.07804298617186199,0.0472125800008635,-0.05319617108348091,0.042340572039201836,-0.05146504734791777,0.09122609347714128
3,18,-0.03566019596463323,-0.15826037248587657,0.09303021437888814,-0.12316755324622077,0.07644408157487417,-0.1323375510809331,0.136970713329586
3,19,-0.05798864430871651,-0.23126534407073807,0.136682793014074,-0.1812488631198171,0.1018089569907402,-0.19300240175615785,0.2125754888614805
4,0,0.07222381914372607,0.44868282312527363,-0.32027585378446266,0.4218692023977679,-0.25002268917219495,0.3394229796152672,-0.5693181825442032
4,1,0.059404879907853425,0.4796403240212991,-0.32557871317333775,0.4346888319817077,-0.20361441538178202,0.2817091297311572,-0.6873134377351551
4,2,0.044901250567007694,0.413444999445247,-0.2611969304066121,0.34898753973987895,-0.22089065249050402,0.2507627622684421,-0.5686855355591592
4,3,0.10833006509219999,0.3994269756231279,-0.2450078330208655,0.3774899087575484,-0.24018969984569927,0.275244831927701,-0.4447138692419974
4,4,0.04076316694836082,0.3403426185343615,-0.2010925169470837,0.31513152712824416,-0.15394698806102827,0.22216658098866646,-0.4102653797261071
4,5,0.011238097810956978,0.34970854770743687,-0.18959730397486835,0.2987891413906103,-0.14177159153748908,0.25543259574675814,-0.3416843590606922
4,6,-0.0027395466124085586,0.2734753925486231,-0.17626242334970127,0.254227687024149,-0.10451751531979604,0.1974862827537218,-0.2728846805855441
4,7,0.006428208790868494,0.24187700907090304,-0.15078923397216784,0.23032765786421455,-0.0818876840006893,0.1767342025504875,-0.23506112015852537
4,8,-0.009634752444822734,0.2019477448705446,-0.127203749329609,0.1977609571960587,-0.045047444104373405,0.1475674249296873,-0.1875509945921584
4,9,0.005257486205260048,0.17067231382668063,-0.10777771632250911,0.1687861936955994,-0.06140818991589194,0.12858827657504138,-0.14945381461155385
4,10,-0.019865780246805336,0.1670364634836796,-0.0838885641777406,0.13675916683193629,-0.0539561385984616,0.11237036852437907,-0.14738745791258637
4,11,-0.018899005103507414,0.09932234649048369,-0.05690503982438041,0.09166239487194831,-0.04388317065000057,0.06218018741575893,-0.10023338858162292
4,12,-0.01050383854774956,0.09053251263659767,-0.05757540169106762,0.083624834169213,-0.023477817069368783,0.05418217494476002,-0.08959821883976116
4,13,-0.02538272042073913,0.039536722341734,-0.020642620583985024,0.03908396120513574,-0.01765230193686823,0.016649847762649803,-0.042306529672088894
4,14,-0.018209518796696588,0.019617483965587827,-0.004134105914746409,0.028273970980667917,0.011540652564127526,0.012108484284363515,-0.020387749038950978
4,15,-0.03184979312403347,-0.02297567740252446,0.015069802240818471,-0.015813304440249122,0.010015246540503352,-0.020915486454978937,0.02533110004656225
4,16,-0.03875323564852673,-0.05281614160910845,0.03761232524417978,-0.04307952466106485,0.03190361728757267,-0.0495710681653278,0.056434821637442
4,17,-0.03758239953895947,-0.10923128193600076,0.05927260614859983,-0.08955294023843821,0.05317514470270649,-0.08959559435559575,0.10479106066178583
4,18,-0.04902945379838119,-0.17856557475703055,0.1089830874920526,-0.148736420241412,0.07125347023285643,-0.14150327354121583,0.17571555176043563
4,19,-0.07512900147400976,-0.25832081500970916,0.13285273913145748,-0.21513675494893844,0.11056516837157854,-0.19924732866286432,0.25085026134223115
5,0,0.050328790536861755,0.44011601663075106,-0.28856830188885474,0.4083119758255919,-0.22421926520889404,0.22745898877443446,-0.6565507530291143
5,1,0.10511613311329163,0.4082024569313606,-0.25948237258274093,0.34906478668763596,-0.1875360407019167,0.24057489363731224,-0.5786032370983535
5,2,0.036850855965780055,0.4167723462725015,-0.2714398071047559,0.35554268839983244,-0.22880838409893656,0.273478692611508,-0.5424107905812464
5,3,0.02507254662073973,0.3640119015245478,-0.25645444380257904,0.3411845808989513,-0.17652914914315024,0.2502585703178484,-0.41693934484554734
5,4,0.033505285042258345,0.3249943202976717,-0.1997545361080386,0.30285010489992087,-0.1406575288730949,0.23754229820817632,-0.3439287605743589
5,5,-0.006165627853648047,0.28356520073393665,-0.17425030758083748,0.25822523644711476,-0.1139197391294738,0.21032996830434944,-0.28601974514043876
5,6,-0.011378542597739278,0.23510027965535504,-0.14841668404964675,0.21892402045934367,-0.0977758835854274,0.17347947909097647,-0.2227478133817046
5,7,-0.016623317071941944,0.20474852601201263,-0.13753039083693747,0.18981872258435908,-0.07707901401991354,0.14595655330416912,-0.19830110547176116
5,8,-0.016976315129518398,0.1652085468224164,-0.10254778251688736,0.14985992031785586,-0.05985151926302437,0.11659404626865132,-0.16971318070594563
5,9,-0.02065111932443249,0.14437943924953575,-0.08913161717724788,0.13183200356071537,-0.05272278436538383,0.09974893952895003,-0.14455877190744096
5,10,-0.011139622001394301,0.11058966097854936,-0.0702611440689141,0.11264265901007386,-0.03818826812679465,0.07929915812601158,-0.11288012956055321
5,11,-0.02200650562602322,0.07066701612627847,-0.04268677045646958,0.0651820287698413,-0.016762453417185758,0.037964501030514804,-0.07993847792681953
5,12,-0.026228657990307446,0.042482602496398646,-0.02023387255999224,0.037270145369770566,-0.009480939100765366,0.016309322684330566,-0.04511632022749558
5,13,-0.010904013676236396,0.017052041405978307,-0.012119243099239677,0.027600880515104783,-0.005215377665502393,0.014235150142636927,0.00255127568759982
5,14,-0.019133452132972455,-0.0004123327585170451,-0.006274341402038874,-0.0014480491845132038,0.016194780971444663,-0.013767422135549948,0.0007512088235631711
5,15,-0.01842386724869126,-0.040534759049780086,0.024011532282529016,-0.032081881860433266,0.02820156483942654,-0.04045608608179208,0.04317938187263908
5,16,-0.01980577637193293,-0.08315026114590371,0.04885630645658459,-0.06651347219006609,0.043488304269203644,-0.05616837825954847,0.10984044218401463
5,17,-0.02535984368986325,-0.12468733373923478,0.07748119599898691,-0.10536633702111206,0.06684101527535363,-0.10053901789494925,0.12562592199158962
5,18,-0.0399168435099518,-0.18791112429716644,0.1097279872570483,-0.16057687225194722,0.08860972581822626,-0.15502430555102475,0.17808066558856947
5,19,-0.06591475771457907,-0.27874104662898325,0.15385600552342904,-0.22506638061987766,0.12173134358240174,-0.1962830107653502,0.26555709854371556
6,0,0.02786628061202305,0.49458107165233006,-0.34005766425760753,0.43422053292509477,-0.22280037528355617,0.31736139261379437,-0.6697634481883342
6,1,0.09284891822513938,0.46012283850205116,-0.2954686954566462,0.3951363027433112,-0.18758962195161202,0.2770104683997231,-0.604725170086652
6,2,0.022855704251015758,0.407222185878291,-0.2961000889641559,0.37315603391767926,-0.2258194818487718,0.31244462560793623,-0.4772888763140827
6,3,0.010431599949943953,0.315443619935522,-0.20800828055783183,0.29715646560733666,-0.15551970367746992,0.222691149977097,-0.36125428898841555
6,4,0.012367064908055484,0.28947809212290404,-0.18122734585989506,0.26841773535158586,-0.12788250046889313,0.2275909764969346,-0.26367176236142
6,5,-0.0029275868312499866,0.263449111355922,-0.17132098145883407,0.23407804201287155,-0.096290700195459,0.19068318199160597,-0.25305057513915896
6,6,-0.002372495606457796,0.21249392499225686,-0.13088799117186833,0.19420944812914986,-0.07734663492756379,0.15400327082005097,-0.20844030013005505
6,7,-0.017920775224490676,0.17003282663240718,-0.1062181571693544,0.15805493098081339,-0.05957195518771711,0.12501244426608044,-0.1682984373550603
6,8,-0.02282124120046646,0.14843436219032824,-0.08635001765911525,0.13681399807441547,-0.069347065819549,0.10962950125386735,-0.14609092340317092
6,9,-0.006013663336987098,0.11425316259949427,-0.07409459571582043,0.11055498693554788,-0.04604766166964173,0.0864907486374371,-0.09278936791798682
6,10,-0.01913425847378623,0.08526935475412817,-0.04538655008622913,0.07973136117290822,-0.01603679638324239,0.06034293654887132,-0.08399995479837209
6,11,-0.017650800923048535,0.05579566445044945,-0.03352067452495153,0.05078938993777391,-0.01128044194497102,0.031495137425808055,-0.055160872112632583
6,12,-0.020931629791540615,0.019807009824217126,-0.0169459436866048,0.028630610802686193,-0.00036526098218077064,0.010876388609892082,-0.02524356668134262
6,13,-0.03488733578917926,-0.013644563503339216,0.012249051093979718,-0.019138365677703967,0.013482880814708342,-0.02568542900549757,0.011268800147276227
6,14,-0.02434159776899687,-0.045015582064507564,0.025365984302480153,-0.03981741509035975,0.027803551694544335,-0.04028300653342662,0.04366845069689748
6,15,-0.042290936633807015,-0.0672485824072729,0.036828480421503405,-0.060888390382010646,0.04170258019661249,-0.05537671538722403,0.06683435880396228
6,16,-0.023112970744549696,-0.1087228644794203,0.06595715218107209,-0.09316895798958702,0.05572653733005844,-0.07318767098668881,0.1374396459200907
6,17,-0.05490051271587598,-0.15743270724041133,0.08571657227118785,-0.143479262274042,0.0764450986370775,-0.12332116968805905,0.16199465108558114
6,18,-0.056184922854371364,-0.21373986252936053,0.13681240319802657,-0.1874382407082424,0.10921416481143834,-0.1551794883689824,0.2072641037102835
6,19,-0.055105963651921164,-0.321335492509367,0.21174252224619064,-0.3101449190222133,0.12404943122046574,-0.23696903867838745,0.29392158877430835
7,0,0.010505928642554991,0.4871994136741385,-0.3955370570609864,0.4168601251516565,-0.24676280893208338,0.3599508019835576,-0.65120709287981
7,1,0.02071337044380513,0.40269120232633443,-0.2855501732960087,0.34884696526315134,-0.2673083775837783,0.27875856482201794,-0.48484969951221807
7,2,0.0008510270256489105,0.3361632541819925,-0.22676859721336667,0.3099757746536667,-0.17635730769014737,0.24829880487806083,-0.3739696434851292
7,3,-0.007004421032930343,0.30213008092726934,-0.1959849054203495,0.2751451026780445,-0.13977001142350287,0.23999435502876096,-0.29715002367080945
7,4,-0.021723180955359817,0.2584844691190043,-0.17124314897383452,0.23902197610835627,-0.08560571747550089,0.20296024716524866,-0.23120779578906597
7,5,-0.02580576562242631,0.22658585325101702,-0.16014261443369585,0.2032212538515685,-0.099736796921317,0.18014630830411416,-0.2208070620833745
7,6,-0.027445321015009908,0.17920277955997022,-0.1254159086149499,0.15647739247823236,-0.07470173528715501,0.12593071241674847,-0.1739592197631691
7,7,-0.027410080817630647,0.15130937168930286,-0.0934711322081433,0.13655946898046087,-0.07475373900044853,0.11310717424643468,-0.14816862123423577
7,8,-0.033407743346921086,0.1439806301118777,-0.07767223692371274,0.10625160105745564,-0.05324115836375943,0.09704521177474301,-0.12232719881575775
7,9,-0.033543232865296195,0.11190766427912577,-0.0563378756800354,0.0781744975334832,-0.03548588678001434,0.07270072081462522,-0.09089512881023298
7,10,-0.01509712482426131,0.06247626933798774,-0.03898819810316295,0.055330692989564785,-0.018237322739159928,0.037175805717062006,-0.06127422541289305
7,11,-0.03144269113445217,0.033208984339057966,-0.01714973345403827,0.025405433583526194,-0.013387424434135256,0.012485720806615122,-0.036403427289084245
7,12,-0.0232918646138152,-0.007709418928061985,-0.00033613031014068367,0.00032814312325039565,0.011409176634157324,-0.007605132771932067,0.0037527211193753296
7,13,-0.02296377618685958,-0.021242262394418617,0.007528244589975256,-0.0285412876591989,0.024813487935025462,-0.028087060841907225,0.02175700199770956
7,14,-0.039551933414377745,-0.05991505728049302,0.03312825345599986,-0.058484056368383996,0.0292318113007157,-0.03929719842795511,0.07337020478934689
7,15,-0.04483379807747417,-0.09046531112859793,0.042403663271662714,-0.08815920001179813,0.04556464763743168,-0.06299554052316719,0.09005803022858208
7,16,-0.022644895657814877,-0.14658461895244984,0.1114394657663005,-0.15270035377526261,0.06462681955988188,-0.1102321319679341,0.13776579242278053
7,17,-0.03382391184384795,-0.1816659441041933,0.10768738561233933,-0.15911500845623366,0.07833261302136094,-0.12389964967702792,0.20647737249109552
7,18,-0.06408702559190857,-0.24104883062215804,0.137938184683036,-0.2109890401557925,0.10421703688652718,-0.1735564306505183,0.2330467276887012
7,19,-0.09584411868494751,-0.33921719809746886,0.19138479152147597,-0.3104651267723023,0.13275631611508726,-0.24382866564047737,0.3429458181735992
8,0,0.02615322360988446,0.393624859827315,-0.27793120753167955,0.3207097335197951,-0.17082794957805975,0.23179905706141704,-0.5541531894944509
8,1,0.022064352080230505,0.3808382629064285,-0.27537640594116725,0.32912484822425675,-0.1989866309249488,0.2819292481238767,-0.4173559016193365
8,2,-0.005899843149792421,0.3154004249265075,-0.20837057253183444,0.2764778313112491,-0.1588193126091312,0.25245888136366595,-0.3102675769873266
8,3,-0.034894964614600656,0.26701735631144957,-0.17490562778952326,0.228493715896759,-0.12416214430167169,0.2099447099282268,-0.24406142928661767
8,4,-0.023032811690170626,0.22424563598028988,-0.15027019385534426,0.19726595629962215,-0.10366926373184027,0.1837019910725504,-0.20522396800548445
8,5,-0.035468717666102316,0.18717201406672268,-0.12640142031401688,0.1597359115647674,-0.09555396810948968,0.1500672070380291,-0.17213807630566696
8,6,-0.018940096616166743,0.1601592277577697,-0.11000994365102512,0.14048526683952348,-0.071638685603874,0.11811268777146804,-0.1485959781534277
8,7,-0.0364295443530515,0.12655259164964125,-0.09153935889271766,0.10652738638386769,-0.05758569619914659,0.0919484275082118,-0.12300713184605361
8,8,-0.018713003290854482,0.09585574958384971,-0.0671130783671823,0.0820205630139099,-0.03797297809439959,0.06388693072890696,-0.09180454617947334
8,9,-0.015970878972388733,0.062074902576130755,-0.04412686558349429,0.05584233349022986,-0.024942006986733812,0.04784468548378637,-0.045119954271160334
8,10,-0.022189325436773714,0.035498032708492736,-0.026413012203493846,0.02676381587285221,-0.009676144855165818,0.013604349020917584,-0.037283717414229325
8,11,-0.036453855509782924,0.0035700264099151253,-0.00030028777778730396,-0.0036038871036938006,0.002522746534785098,-0.0060581497812722245,-0.004032570775751498
8,12,-0.03660070936422205,-0.036171405215172994,0.019317466966386077,-0.03952015430757618,0.015430957477789341,-0.029605213724433668,0.036877321897866244
8,13,-0.017006729701974022,-0.05802039309799846,0.03168594314591194,-0.052297768253489474,0.028296593066723035,-0.039417312086550915,0.07751966854035783
8,14,-0.04050572780496918,-0.08506724004586536,0.05187893479198613,-0.08590167235725658,0.037097756769273876,-0.05402908393931349,0.09927229357820255
8,15,-0.04415603231780228,-0.12326622729453438,0.06987163848870656,-0.12277337702506243,0.05595654029842709,-0.09281600285234663,0.12380413925600167
8,16,-0.053753831801944034,-0.158494696717758,0.09042309165712496,-0.15636348230268793,0.06833118902340454,-0.11758404118039098,0.16141737947192136
8,17,-0.0647245556485343,-0.2132979085919304,0.12840647734275348,-0.20492958866691033,0.09237300237855735,-0.1541460662311424,0.21120447843587778
8,18,-0.09313168889603334,-0.272454413447301,0.16103228840995,-0.2604558318234515,0.10301697402769605,-0.19257339260208037,0.2725116056714354
8,19,-0.1325514778403409,-0.3804617189264494,0.1990581825007974,-0.36262153750115705,0.14335755808658487,-0.2761856871471778,0.3844400568204972
9,0,0.00586365665783825,0.4007984415782053,-0.27206872348112304,0.34611589860182673,-0.25525635877595326,0.2931215535730529,-0.4501768391102037
9,1,0.0057150019256648876,0.3032017544383908,-0.21991561735232532,0.27195884151293576,-0.17857218935833313,0.24433568815203033,-0.3315693769333178
9,2,-0.03599477947895014,0.28236873068702784,-0.19614870014191874,0.2482216573918725,-0.13812936710859913,0.2406910990544853,-0.2561067645085823
9,3,-0.04536203281390125,0.24804753562360404,-0.17251454367967173,0.21319173634830435,-0.12392646894397909,0.20683537956107434,-0.22459459793502812
9,4,-0.0421328070735468,0.19547112793388904,-0.13617921211926048,0.16609986039504857,-0.10727007317945061,0.16189849850124288,-0.1716345414599454
9,5,-0.04129256259876654,0.16934649328572865,-0.11480540038407364,0.14581554001432318,-0.09801252583657358,0.1430285151142778,-0.15117736256958586
9,6,-0.045784878620983474,0.12498479403965164,-0.09547899420315144,0.09869946798422984,-0.07061947051396758,0.09653764316048777,-0.11092015899164359
9,7,-0.042800812164331174,0.10353295011244845,-0.07624188798400787,0.0832999299498929,-0.055090736380302006,0.07496883045911842,-0.09750194935186159
9,8,-0.04436113504064257,0.07346028324606396,-0.060527137404883156,0.05772000370129702,-0.031645272745870895,0.053548917417727805,-0.07361796602763007
9,9,-0.03079184249263086,0.0408626655242765,-0.03526061290619723,0.02742661104161737,-0.012766442056479456,0.024427598203532172,-0.038860816977808695
9,10,-0.03958152542777604,-0.0007176103456314123,-0.0066112869260629755,-0.010808419354177933,-0.005661449805803377,-0.006221262154245917,0.00357944284541322
9,11,-0.037564305938929364,-0.022815159470194937,0.01593602419942624,-0.027940127759156455,0.00015273768904597627,-0.015675865982889343,0.02396941648414164
9,12,-0.03712657191612252,-0.050272860703233446,0.024722127108690338,-0.05433434949468684,0.028116364788770595,-0.04013444106324608,0.04692570018184644
9,13,-0.038957674251750125,-0.09124009846672025,0.05423466194429763,-0.09777045271488867,0.049249870085709316,-0.07721859361322955,0.08316996208345288
9,14,-0.043049014879078515,-0.11798710775715611,0.07282177576375462,-0.12274835939564911,0.054712474873324084,-0.08742673139632862,0.11760543958212571
9,15,-0.05161995747010819,-0.13881406599240947,0.08755191129078393,-0.1401826131956825,0.06799341403971759,-0.09951260196753853,0.14277878763868845
9,16,-0.060150453845640814,-0.1867194655367296,0.11797152217974044,-0.18748113604261485,0.07568188481531257,-0.1307232022002119,0.19759988578307572
9,17,-0.0807050847110529,-0.24032636535945756,0.14350283135767933,-0.23597937690995446,0.09697216510125463,-0.17066261312431524,0.23931531166123635
9,18,-0.10781238423545651,-0.29237995759564256,0.1782125413893582,-0.2906007959625324,0.10621997776365215,-0.21470241496967923,0.29277381905020994
9,19,-0.1626563492610647,-0.43362974104507696,0.2072477007873373,-0.40319218210556756,0.1974002078095172,-0.28085882519022254,0.46544083587084867
10,0,-0.007353840859454224,0.32581855144387484,-0.2423324200548882,0.27308452662675836,-0.22624828193673732,0.24968887364302506,-0.3616088460507786
10,1,-0.01980979409258379,0.31709940487359256,-0.22399417010772743,0.26049762582598335,-0.16842663727475127,0.25832745797136225,-0.29776958497296757
10,2,-0.04704758134935409,0.2581074433691236,-0.19607968279264773,0.2217748043335667,-0.14042132687369238,0.21986576273026462,-0.22969244552799506
10,3,-0.04770159594904997,0.2218942786778006,-0.16020466325078903,0.1887635567281086,-0.122083014797229,0.2017022839410372,-0.18104028189829038
10,4,-0.02783960624798814,0.18215347981478835,-0.13224513751234074,0.15397942764270822,-0.09560746044151137,0.15116783643780954,-0.15680594928632732
10,5,-0.0349404082007806,0.14651229800718021,-0.11352583790044593,0.12292182659388391,-0.07651371475770043,0.12161773917804623,-0.12116820460661255
10,6,-0.04002369358482026,0.11014078021466604,-0.09610914168111324,0.08943215731562683,-0.059690256560609035,0.08666946458052463,-0.0928556889493158
10,7,-0.05523964886971344,0.0811897144687053,-0.0746253691878313,0.06208892557083184,-0.041718638636959765,0.07007797543115558,-0.06906310387901676
10,8,-0.048673784404496004,0.03667141655985613,-0.04289899625693295,0.01728325146639077,-0.019076332330837224,0.023917035935351844,-0.035494776209851926
10,9,-0.04891634644573468,0.011567016560209533,-0.030926349986980108,-0.0035951245314447084,-0.008827979254959359,0.004985573338579236,-0.005111099501329189
10,10,-0.03351618319923441,-0.018197773670062336,-0.00026286477047848534,-0.02851852912061883,0.010931644323745998,-0.01769306411999502,0.019361246178459225
10,11,-0.037919697729510426,-0.0521119121041991,0.02256861888450784,-0.05488676526018169,0.04652355921377491,-0.04088349836719566,0.06332176996546093
10,12,-0.03361576791189259,-0.07328276730670898,0.04731385951456613,-0.07948630994272884,0.045425705234889584,-0.05273730984539976,0.07701655247099312
10,13,-0.04653660582705514,-0.11213379008091874,0.06837947331019055,-0.11959430664297938,0.04024424254536751,-0.08482064109732337,0.11930474941697986
10,14,-0.03250252856337229,-0.12962747477264477,0.08209124632044218,-0.13374604289987133,0.0596744548054993,-0.09626833360806711,0.1385731972350883
10,15,-0.05956758327738432,-0.1630139753864875,0.09965208344152857,-0.16718548170962455,0.07106105150051178,-0.11481602619052132,0.17291469611841995
10,16,-0.07287807936893781,-0.2082872044049045,0.12783726213705723,-0.20817724194474985,0.08067264138450027,-0.1415906129818512,0.224664040885675
10,17,-0.08649800615201561,-0.25215931482477216,0.1600226045923294,-0.2457808376326243,0.1147389957060521,-0.16923951174268959,0.2636619379429042
10,18,-0.16907903443226696,-0.3774521479697066,0.20548556390394518,-0.37476556475319,0.1438339027465992,-0.2624421611134417,0.3807682100842891
10,19,-0.17925964761663263,-0.44670500332813545,0.21578455865620133,-0.4385180967426313,0.1994953681987222,-0.3152744466014499,0.4974523691647129
11,0,-0.017112259266882063,0.29926350928232187,-0.24568568313330752,0.2578867350550453,-0.21054519452704953,0.2404933955300902,-0.33280560496875
11,1,-0.02889898521753156,0.2799847269731552,-0.20051453001582967,0.23375189824890152,-0.15455737569883327,0.2394675760650723,-0.24969655533541815
11,2,-0.040136711905009635,0.2342099377178963,-0.17740348201320172,0.19988272296609422,-0.12659287938324557,0.19761716140014943,-0.20272934792058403
11,3,-0.052277594086370886,0.17647017230025336,-0.13857212006445394,0.1417257096899237,-0.09292164832980465,0.14942871551266484,-0.1582940581594488
11,4,-0.05993628521492125,0.15721970154567988,-0.1401245773619075,0.12669258279830795,-0.09463214001173836,0.14574509389129614,-0.13437367890153887
11,5,-0.050489685931120715,0.1160083514201536,-0.10402710078936098,0.09056722670043738,-0.06547894518062336,0.10100375503286348,-0.09063521363016237
11,6,-0.06393849950834571,0.09072946546187854,-0.09867916254104318,0.0669283423347607,-0.05987443492549745,0.08833661905202982,-0.07378009402764897
11,7,-0.060376798801872876,0.0487416307488502,-0.05760292945906181,0.027780574187764893,-0.04278442832162071,0.051614729603668835,-0.02866126962084667
11,8,-0.05897523190376405,0.01906743525983819,-0.04561303249967437,0.0015063559209364586,-0.025987216329963096,0.021820120029146958,-0.008073642993795335
11,9,-0.04458823507563816,-0.01807422811377621,-0.009741581201736687,-0.03204757312124047,-0.0010477658045555636,-0.00804964007308153,0.025459610464261366
11,10,-0.0514078732590644,-0.04707043235575651,0.011088646350127443,-0.06102239550545681,0.007710639086058323,-0.03123494608745983,0.05339516267579369
11,11,-0.047966424924746606,-0.07812229695613533,0.024613304485086515,-0.08735726688753784,0.035627496436779295,-0.05723834489442896,0.08942947042058653
11,12,-0.05033735464787868,-0.10792770513324886,0.04943140641722228,-0.11693713105409884,0.04915133643084636,-0.07749902935190507,0.11863254271173718
11,13,-0.05156094308747901,-0.13183530867272794,0.07750445300692654,-0.14090923488046492,0.059358836973253885,-0.09373804520210932,0.13828634345480906
11,14,-0.061677950268047545,-0.15164727852613163,0.09114931425723248,-0.15429282186434726,0.06799318920119345,-0.1070501763699258,0.16744842423178932
11,15,-0.06671600321106111,-0.18166193870402234,0.11194491051729062,-0.17710370365303335,0.06219151468618392,-0.1148295272482734,0.203790413044859
11,16,-0.07504483101800515,-0.23305861125093352,0.1316671194644919,-0.22017282783558087,0.09560001418724595,-0.15332288721126225,0.2478482352995763
11,17,-0.0985315924777285,-0.27675513201307145,0.15413981347860078,-0.2864553567229719,0.11511851572110512,-0.1940438658617138,0.2964578885429027
11,18,-0.18321247083425363,-0.3251062086475606,0.19194988575687638,-0.3707077607607467,0.1363013262927218,-0.219609864307739,0.40682175875891885
11,19,-0.188680337428852,-0.4370487907944699,0.1869017635886734,-0.42428902203632435,0.18139445435455212,-0.26036363512166916,0.5459237464048801
12,0,-0.03396317168190898,0.2768186688519177,-0.20472793249067306,0.2207459888941185,-0.18229217489752114,0.2236351653729084,-0.2752825970811289
12,1,-0.06009402347172833,0.28406897755895444,-0.19149173779092826,0.21172912257330045,-0.15949047434195907,0.24522048273716737,-0.21949651861841007
12,2,-0.06020329213581763,0.2082896247925354,-0.16394023612217357,0.170970156981748,-0.1301095733811926,0.20189724848561233,-0.15823554699858605
12,3,-0.040551052329826545,0.16122072241639165,-0.13690310587314616,0.1350588657420657,-0.10434368890600607,0.1557980307635643,-0.10872140698428302
12,4,-0.055692173303825365,0.11959001693886429,-0.11180951792761734,0.09035364662097552,-0.07901986961285376,0.11321947234777645,-0.09162195756508708
12,5,-0.06833734325714325,0.08574018091075004,-0.09407312190953603,0.06395555220864904,-0.057512077932793046,0.08688590724405135,-0.05794035686190855
12,6,-0.07284538553160874,0.08343925363487656,-0.0731866669419694,0.037895774893082025,-0.05445194103462543,0.07533964364612578,-0.04135557052469377
12,7,-0.06859094644517776,0.020964871861147868,-0.047837474469909665,-0.0022796996746556704,-0.03085728134075485,0.029943643056487144,-0.003735915348690722
12,8,-0.05545388881596024,-0.0011997478699626455,-0.02906562413004821,-0.020021086654052212,-0.01145327961007867,0.009297886844232153,0.019815922951493523
12,9,-0.05927459611512365,-0.03128963331284922,-0.008455268182850443,-0.04677110863883385,-0.0030261408447363855,-0.0035558418910622593,0.05589010096210102
12,10,-0.05799176579255808,-0.04035369846329403,0.018572040625943538,-0.07443659751898149,0.016710718646519233,-0.02852234223096769,0.06973926775776022
12,11,-0.05656196904341115,-0.10349334735284271,0.04632813198305108,-0.11711012695988861,0.03647355405214902,-0.073072826450577,0.10674486805644981
12,12,-0.05799768362432812,-0.12069207718659647,0.05422934206654616,-0.1310070892683655,0.04629782864681448,-0.08694104833156549,0.12870170033929945
12,13,-0.06381853135906432,-0.15233256219691074,0.07394035600071817,-0.15533127275000966,0.0713489664123098,-0.10006544406515579,0.17887920734951973
12,14,-0.07255173421592834,-0.17300203009881834,0.09965098742711904,-0.17543344037621333,0.07226222492447706,-0.11884416040325546,0.19531154372916196
12,15,-0.08597387980612446,-0.21227926680906886,0.11930542799217544,-0.2165068025568679,0.08421559934329532,-0.14217522940832691,0.23247190383291452
12,16,-0.10850706720569282,-0.2612403612026105,0.15534536877721675,-0.26284108996907507,0.08259441916086291,-0.1659926852760622,0.28387586653466124
12,17,-0.15936672282922618,-0.3437867334193862,0.18202314031394,-0.34295626796165796,0.13008728213729434,-0.2230459892601497,0.38429452434234085
12,18,-0.1874156660517589,-0.42190879548667604,0.16092398068367825,-0.4113039874779548,0.17731910441152327,-0.28069761861001225,0.4800886882122566
12,19,-0.206875288903866,-0.4293670897324272,0.1260716493887315,-0.3937871632113719,0.2083348058611713,-0.3095525722845825,0.556532833264544
13,0,-0.051131255547516886,0.26829374937896516,-0.2051619127489091,0.21610935830462136,-0.17311165341186974,0.24644156692207148,-0.23550425744627926
13,1,-0.04783764924086123,0.22888712753736304,-0.18676842277723804,0.188004328056973,-0.14069061549346384,0.20405306506388227,-0.1900438312222612
13,2,-0.07072777072484561,0.18407524925274157,-0.17109956081488195,0.14682650742469266,-0.12085943967801702,0.18268731858443463,-0.15010567395560404
13,3,-0.07445511553541664,0.16351497802245868,-0.1261694179781949,0.10442665661121361,-0.10173389568027906,0.14811778867032002,-0.10912056196546936
13,4,-0.07734516331403357,0.09345743254018196,-0.11544627481264653,0.06544134022168835,-0.06764024779562441,0.09811895159001612,-0.053260126109519884
13,5,-0.07113962017794842,0.0687918593778914,-0.07999099662498561,0.043209165282508115,-0.04768741314750775,0.07765795933294461,-0.04000643952881635
13,6,-0.058677655020549335,0.03874635325196952,-0.06474666609453002,0.016273577614946636,-0.04060028136296698,0.046230612663466925,-0.010192389935209283
13,7,-0.07387170482560727,-0.0008348180308913018,-0.03806447747401092,-0.023505370262103833,-0.02769842360447028,0.02035166986364196,0.026456984583057275
13,8,-0.06839324494797663,-0.0282818410799713,-0.02624291197307905,-0.04760516878843775,-0.009518881071548725,-0.008047296856830349,0.046352907928061605
13,9,-0.06915795118442097,-0.059021647719735504,-0.0019569916698701107,-0.07581295187280863,0.012505461023312162,-0.03219787592475085,0.08110974399814162
13,10,-0.054416137519062345,-0.09398408967711216,0.035984096096778426,-0.107762048951984,0.03036199679943503,-0.057540319011944306,0.10898395160418885
13,11,-0.06704586180564709,-0.11819637385546572,0.05481732955722877,-0.13247958406356072,0.03700521040619388,-0.07504401816849332,0.13614380988447036
13,12,-0.058274224936527404,-0.14611929148137687,0.07268031392592149,-0.1521025662889908,0.059388516611855104,-0.09474949791433224,0.1666585324576532
13,13,-0.0770957069029732,-0.14429754538505804,0.08853681311148417,-0.17196711168438397,0.06355568193763461,-0.09639740987025584,0.1883844151440954
13,14,-0.08194720721745571,-0.20969065679269586,0.11349813038729988,-0.2062735843657291,0.11068606201992823,-0.13599613276635864,0.24712778917232978
13,15,-0.10877880127860556,-0.24012904406881563,0.11774955539160524,-0.25005195938679886,0.08931690289260728,-0.14974680299127843,0.2641022902918587
13,16,-0.1746607785642053,-0.3243242409018171,0.18638811350549092,-0.3246188280161231,0.12538654209601455,-0.18869778795596848,0.3681986566210912
13,17,-0.16810810326981518,-0.38958632056444464,0.18182309265446822,-0.38444887109871434,0.16388453704322126,-0.25126607767078324,0.44632341163407
13,18,-0.21636864995453614,-0.4449832339179358,0.16873519791253755,-0.43257640104336215,0.19986959760118467,-0.293932402006322,0.5293332566964454
13,19,-0.23810285305365692,-0.5110508064101315,0.2001241811801453,-0.503349997649645,0.20400949279520894,-0.3763550699020366,0.6639493032624656
14,0,-0.060186412044809845,0.24181688582823035,-0.19318691804477842,0.18523791994909306,-0.19009272156421142,0.22610037519950865,-0.19832477430042908
14,1,-0.07195751119461431,0.186186170403947,-0.1638713016871102,0.1433553657708657,-0.12360855161508766,0.17746517463788594,-0.15277645747730748
14,2,-0.07309432703752777,0.13850647264951804,-0.1339541743534754,0.09962797082071548,-0.09825192207112966,0.1354738974464977,-0.11075376891908476
14,3,-0.06815185691043875,0.11102975566440319,-0.12122495076646199,0.08684713873744612,-0.08822773517166475,0.12238571201049135,-0.07602479455484469
14,4,-0.08485598412724478,0.06816690215841745,-0.09389237655509017,0.0375591003783569,-0.07550980915251451,0.07885575807155285,-0.028926422576488926
14,5,-0.08531586191231373,0.04525635055341843,-0.07910873010223117,0.014299208319969661,-0.05346985716647622,0.057612370520572526,-0.01567565976362511
14,6,-0.07098612963043512,0.01356947885082893,-0.05532444230456409,-0.012532490792425422,-0.029129193336929,0.029925764580764982,0.016497204204259857
14,7,-0.07993370249706577,-0.027514284182975704,-0.03542920001863787,-0.05001971640889137,-0.006149793495329975,0.0008188097813767864,0.06108263970806018
14,8,-0.07831894765580169,-0.04621590054273041,-0.021960534808669167,-0.06671080032101681,-0.0017948353794167995,-0.0070164602319702386,0.06658235951903929
14,9,-0.07586448990210123,-0.08922875685334952,0.024213100097789517,-0.11157588077889553,0.015565173371937656,-0.051282402127515184,0.11308422796556751
14,10,-0.06198131587235755,-0.10955734652990991,0.04155994205424216,-0.12505293714907878,0.03850055141734518,-0.06784490313294729,0.1291585257201219
14,11,-0.07883348986859223,-0.1392240597947726,0.05971285735841856,-0.15193791814571161,0.04214952339342868,-0.08335480760612653,0.16615724627489714
14,12,-0.05568273616398124,-0.17882568003729948,0.10202711446979015,-0.1964338377868165,0.06110595905486185,-0.11730557875028526,0.1897948757382766
14,13,-0.07504598429984437,-0.19843476329620902,0.0958218460459855,-0.20342698259934017,0.07616715436773128,-0.13605123340692468,0.22169399009160598
14,14,-0.10633055761291271,-0.23045814271717344,0.10755911796810319,-0.24142077186907066,0.08538642623583245,-0.1420242568365953,0.2567977695249689
14,15,-0.1481898298020822,-0.2940441692261173,0.15273635085106108,-0.3015327817061881,0.09836579066122146,-0.1824212050080272,0.3404257645524084
14,16,-0.20389180354666675,-0.35835923601060005,0.14790260468663755,-0.35875987448186175,0.13937599497298303,-0.2336602132711736,0.4239756226402705
14,17,-0.2247465610501395,-0.42279589015897645,0.16429138045583322,-0.43262764245700236,0.17122295095296156,-0.28973284671891886,0.5110692073615059
14,18,-0.2489673114869721,-0.4230492018638024,0.08280818659586327,-0.39022963657445153,0.18891003832381567,-0.25278815775082364,0.5376967441364201
14,19,-0.22916360976642286,-0.514338229030349,0.16948838439576894,-0.4926246254120521,0.21625911950609647,-0.36709474683586363,0.6851007116943583
15,0,-0.06997846882662645,0.21737519587397017,-0.18150753626790872,0.158600530672652,-0.1575254996573923,0.20354475273700873,-0.1826721980019651
15,1,-0.07415744610899651,0.18013517006812155,-0.15128413451351092,0.13902216791760014,-0.11613624620420829,0.190107245359521,-0.12948150454081173
15,2,-0.06998223183688494,0.12634585450533234,-0.13025902190815042,0.0973072587900819,-0.09919755669642895,0.14268323294780644,-0.08458191541241436
15,3,-0.08621350753553983,0.09394729192617711,-0.10566536334962251,0.0595250226782928,-0.10016302774510111,0.11431164405553336,-0.05075717250718584
15,4,-0.08918602832844857,0.04840908417538697,-0.08555556285986093,0.019416568956607337,-0.05421519827301347,0.07226808343052872,-0.006869031670345991
15,5,-0.07754564633524466,0.022778614495398985,-0.07101515190795314,-0.008420379537698865,-0.0427855607652703,0.036782080630644726,0.012488131392198655
15,6,-0.09197441715735195,-0.008286955357298955,-0.04854802543371901,-0.03658160409565865,-0.02317304988283617,0.02050917146158346,0.040447458376701856
15,7,-0.06619924837699703,-0.04729000176667932,-0.017706711395852077,-0.06401436121324208,-0.007904866013341135,-0.0018112179163123933,0.09783347655045717
15,8,-0.0845011410589591,-0.07727381708175761,2.4899212933888485e-05,-0.09926103908297809,0.01343283227698469,-0.03718112482315022,0.11014905657522109
15,9,-0.08442282460936362,-0.11388361640808399,0.02431211273027064,-0.1312414753583475,0.03465368864503411,-0.05942366927743594,0.14770184133973366
15,10,-0.0788906850520375,-0.13123684324335022,0.05576429368860648,-0.1448219500464893,0.04983269018252145,-0.07022642577479474,0.15927638746728343
15,11,-0.08786505014372183,-0.16376437238664043,0.06547990299428111,-0.16849207698479626,0.060755176783260326,-0.09419088201526363,0.19646738118790064
15,12,-0.08523897457009333,-0.2034737125383554,0.09314615226683233,-0.21183579282357448,0.07239749221554678,-0.1256477661581142,0.23259000304731575
15,13,-0.11824481078882036,-0.22660550858279052,0.10908739480168682,-0.24318166951690792,0.07890649018156343,-0.14470057942915351,0.26198322525699724
15,14,-0.1514564978609603,-0.2628011290813007,0.11297820123440913,-0.2744980833972559,0.08927854980513461,-0.15378627651512866,0.30567346576994225
15,15,-0.20760249888992952,-0.34763520541590986,0.15807704847162568,-0.35337491240545743,0.12314555542887903,-0.21280140608615772,0.40629797386730115
15,16,-0.1708180433272827,-0.4143959201056329,0.20206005945966513,-0.4466736352641012,0.17004075272741256,-0.27540145012772127,0.47627545861976867
15,17,-0.2555484374695938,-0.43336931470060225,0.15169162104536185,-0.43164894930026365,0.20527079948166368,-0.30451797316652496,0.5581346040593912
15,18,-0.22729917573965017,-0.5175430006827431,0.18946232397457202,-0.4960839380285492,0.262382114462664,-0.37424622150863435,0.6479190470383647
15,19,-0.02047172285350133,-0.5147764695351962,0.2642180261164017,-0.4231046567094367,0.20333264530826414,-0.25529403968202763,0.9353568225509751
16,0,-0.08294248688795412,0.25236930361695564,-0.17745405701111838,0.16127625457005043,-0.17457240687622916,0.23664024515327264,-0.16744906998522074
16,1,-0.08870371354789162,0.1483510721266762,-0.1410347486488661,0.09889093120062255,-0.12195906913183255,0.16205824572047103,-0.09889470859920892
16,2,-0.08245485114913413,0.11120919159645208,-0.11046900405355171,0.07010371682577309,-0.0829588267299374,0.1333746288644354,-0.06032532778086056
16,3,-0.09000637734774132,0.0709725394237969,-0.09001503195360804,0.03226772663697207,-0.06364176629999058,0.098107356863292,-0.02216168565900558
16,4,-0.09920052889585515,0.03606031089438186,-0.07219466740334625,-0.0031148834165768313,-0.06124267792963916,0.055517563972824105,0.005723275222676993
16,5,-0.10086261329985331,-1.417484124657347e-05,-0.05910881295496533,-0.03161713848747226,-0.03374755194951534,0.03210974058574778,0.03840308652929364
16,6,-0.10050094201236887,-0.038718597065098566,-0.03894013906703407,-0.06964363282633955,-0.015271319187721143,-0.003483706294054578,0.08018077171139086
16,7,-0.08495346158772472,-0.07593203237442628,-0.0003234661634667284,-0.10133178828142796,0.004763485645661719,-0.02794044121747595,0.11006825103869258
16,8,-0.0990307986032628,-0.07684874072158074,0.019342911733769747,-0.12107557665445015,0.01311487078245388,-0.03341099751102122,0.12969154223894575
16,9,-0.09686409336776543,-0.13975174012075597,0.046705509724576995,-0.16490339381607716,0.028973009638254305,-0.082837003699556,0.1682241074346338
16,10,-0.09906629021512604,-0.16684953491893967,0.06539354440044973,-0.18808388993422953,0.042216898118772654,-0.10225879163778182,0.2004263038536432
16,11,-0.09591438203783602,-0.18670256514561892,0.07347489692724408,-0.199839069771174,0.058322303895760506,-0.11822090282266949,0.2221286054363539
16,12,-0.13710938716081816,-0.22313822925404062,0.08461757102452651,-0.23908540221006025,0.06968593684592894,-0.1390095962215713,0.26750786490568024
16,13,-0.16990150400061801,-0.2557197437704337,0.11871421314493324,-0.26203589683704553,0.06988100538410975,-0.14385970022752695,0.31666264174816383
16,14,-0.19838198878367544,-0.33577971572802673,0.14812764348901833,-0.3400999909327927,0.11354200835815441,-0.20022210999756243,0.40391473649775
16,15,-0.20968786138525716,-0.382518605456675,0.16179832033495842,-0.409419123189725,0.15760812998466667,-0.25599128622367345,0.4618917510236447
16,16,-0.18299971563634485,-0.443069965545588,0.19015203386262378,-0.4650589745418646,0.1835242884097742,-0.28988691153579565,0.5300976184815815
16,17,-0.2544091485938262,-0.4300010112897252,0.1675656951252843,-0.4218020021898877,0.21318470578970794,-0.26859646501362655,0.5828397810954687
16,18,-0.22425929361562033,-0.4578035620528888,0.2881311092162175,-0.46508632161241775,0.15233017554782463,-0.35958036276324656,0.6348178384498256
16,19,-0.1440461334469555,-0.4826990739777744,0.35615315725849334,-0.4718815344884484,0.2991602922877731,-0.2748088157356026,0.6814409730291834
17,0,-0.06855909273659164,0.2122518018382086,-0.18184082210594538,0.13859113643976845,-0.15618959861639675,0.20739399059260213,-0.14360882723881208
17,1,-0.09957572292212517,0.12650685065479866,-0.1271627946488521,0.07520112817727378,-0.12502680567669278,0.15362724441609335,-0.06008139046629251
17,2,-0.10577460891502773,0.08048222930696558,-0.11323613436916861,0.033232940852801776,-0.08888809569556769,0.10339516568031966,-0.019479263661637745
17,3,-0.10623837303781962,0.03543546889943853,-0.07979772631386473,-0.009505333316723071,-0.06716786589266888,0.06975584006030024,0.014160976469908363
17,4,-0.09049435722501309,0.011063544990363368,-0.061405989690666275,-0.026399373281746713,-0.04707913951331408,0.04281546249684932,0.04172676094027188
17,5,-0.11312518424744142,-0.025145670947951206,-0.04533824654063568,-0.05990818287755363,-0.02749248566879001,0.01638365089600643,0.07053914500325081
17,6,-0.0965848219518039,-0.052313288754010506,-0.02686650839482059,-0.0914139403526587,-0.004470107870245915,-0.01197395758207452,0.098845609401149
17,7,-0.10587640190093915,-0.104606096020895,0.010963805775858324,-0.13240459414269537,0.011971781336380454,-0.04618211275288506,0.13979919343476194
17,8,-0.10632305504014981,-0.13172626145431424,0.030959577714043285,-0.14783930676902882,0.05577922486587677,-0.06545122052137586,0.18267879716044763
17,9,-0.11801620267550557,-0.16538841564930595,0.05622486867671331,-0.19061218148711234,0.04277751392265127,-0.09296181524467319,0.20141162049020345
17,10,-0.12599316432832583,-0.187785581797108,0.06508232011290746,-0.2050092988033388,0.056112370480049654,-0.10432240241140732,0.2391908568158959
17,11,-0.16590579454562254,-0.22119612054015458,0.07937039566960097,-0.24426707580562562,0.06343412481287966,-0.132523155882134,0.2828590696791945
17,12,-0.23711996226847298,-0.2668557663071951,0.10837668503911184,-0.28275733651922114,0.05893874311728249,-0.15255130516341664,0.3375299134909171
17,13,-0.24308126438171476,-0.2944000951264447,0.11327122281546059,-0.3056317091871605,0.08375502400371279,-0.18128728617206785,0.3737646737005651
17,14,-0.28623151882915704,-0.3249248113512002,0.07465359622747003,-0.3347768457002408,0.14115707849454054,-0.20786055270393228,0.4391901499822261
17,15,-0.23158114127066035,-0.3910986560592117,0.09921665516211699,-0.3619682661258697,0.1921096018897695,-0.2297996252839936,0.5265773871661169
17,16,-0.27305809031785183,-0.22459369491940898,0.19550257112701008,-0.3897388171529476,0.164908950929925,-0.13426744029545196,0.5422048135099469
17,17,-0.16457308260126421,-0.4585404296884229,0.3024700133797098,-0.4432998090048638,0.27914486760153623,-0.24983423990148682,0.6332154729915072
17,18,-0.2446600850567812,-0.5624195722174884,0.32054674207646566,-0.5862398663617164,0.1282029260747525,-0.35548462642368667,0.7708625866599859
17,19,-0.09541300621562039,-0.48946644521724436,0.2882687844351712,-0.4987183224219016,0.22485568123117183,-0.36120402828425,0.6738782896168177
18,0,-0.11182042319018301,0.16629667975132095,-0.15500943603630843,0.09154508461544436,-0.17005114493146525,0.1775631651754047,-0.08765519790308658
18,1,-0.11603102199182998,0.10353466442585388,-0.11638882339994826,0.058039088735153815,-0.10374691322648896,0.14327250514713175,-0.0274612720311737
18,2,-0.09633633138057832,0.06317073297928466,-0.09066226729568119,0.01586702962911584,-0.0830471072308634,0.09556052899982533,0.005530791996937181
18,3,-0.12149765214366977,0.023998574762689268,-0.07421797453924991,-0.020875974451364306,-0.06762378655750817,0.07986432779128,0.05746607534746261
18,4,-0.12465408822191361,-0.025233617674842362,-0.0432055330442742,-0.0597886833544346,-0.02812224790554199,0.02753881106533285,0.08739677594986944
18,5,-0.1301261752328959,-0.0535201578554495,-0.03072958697368283,-0.09096230088379217,-0.021987486429368236,-0.0015130133461437132,0.10805487581656541
18,6,-0.13441388628282191,-0.08063527869774476,-0.014016326983582648,-0.1119718972264371,-0.006535035402143105,-0.010182388690101843,0.15426832516698843
18,7,-0.14361849082870914,-0.10874676345255295,-0.010003059338733253,-0.13562232494595866,0.012410943306778116,-0.03545136973905014,0.16144375134421557
18,8,-0.156193150119437,-0.15597617963711496,0.030360407865124082,-0.18045234395561563,0.03752645001103854,-0.07681278189814024,0.21319209985770435
18,9,-0.17464521472914626,-0.17120195676154382,0.04373271609125715,-0.19747985442915378,0.039919019046369845,-0.09457885755486393,0.23446427603338374
18,10,-0.20026447643399284,-0.2067833212306968,0.04097703304604466,-0.2239101039701209,0.06174923492704512,-0.11344528158687181,0.2897879322047
18,11,-0.2361392151079033,-0.25668350175054566,0.0700893690913159,-0.269195189033746,0.06302856042445926,-0.14790771942808958,0.3453839985673944
18,12,-0.30185326915533106,-0.264225695064285,0.04799319643576187,-0.27512246463400997,0.07409082794856917,-0.1212556900013536,0.4211332118724496
18,13,-0.26788427764505973,-0.3235152154057813,0.0913030355136851,-0.3293433347676297,0.18131048227523305,-0.18516914816232533,0.46217314602375725
18,14,-0.27102581266031495,-0.4105177758605711,0.14937744510223158,-0.4289718021976884,0.20648045951158658,-0.2483330312944323,0.5548971605798624
18,15,-0.16293653180485917,-0.39726635386257697,0.17228826303057593,-0.39152483979982056,0.2325936276123387,-0.25688864452626703,0.5631328814544415
18,16,-0.26441575424588504,-0.5254497742660551,0.3010974108475494,-0.5789739798869327,0.20233980538472732,-0.4126782037234856,0.6747823131027034
18,17,-0.015672762688682187,-0.5205339643074434,0.26920064576788827,-0.44843646750655397,0.13803225563778707,-0.2638156790324609,0.9223897453559582
18,18,-0.24673808328935048,-0.5816605669650035,0.3888748493933903,-0.655342146320412,0.2229900475535055,-0.48478216705268773,0.7559603934841922
18,19,-0.2651113724935123,-0.23486849800702708,0.29833675356001643,-0.4965684588236393,0.10778950160821994,-0.1879427000105971,0.6330255652495824
19,0,-0.159667626099018,0.16242234957289226,-0.16024247079340737,0.08783093593007056,-0.15501700921677683,0.17432909277505754,-0.04416289369244752
19,1,-0.16929512882903655,0.09627737918356855,-0.14870683449316732,0.04736368871129725,-0.1099470674284992,0.13135536299461417,0.015999558819665367
19,2,-0.16636271845846626,0.036756419312534795,-0.10241727038303837,-0.00015300103292418423,-0.06794176393035956,0.09029127359813474,0.06266006972891236
19,3,-0.17464166613884607,0.01058036768525802,-0.0909582505709103,-0.029334813209452814,-0.05199598677770285,0.06264911612007458,0.07995658229325164
19,4,-0.1744397565190676,-0.03086758771559672,-0.05333238576685365,-0.06393808316920643,-0.05057011529441576,0.0330031801379725,0.11999762967754743
19,5,-0.18128468045147483,-0.0800854397863359,-0.03515007098574574,-0.11480142442935751,-0.009119575080167908,-0.012581733937430487,0.16199385567235788
19,6,-0.15936724880423983,-0.12357306595466655,0.014112652293387649,-0.17047186969717223,0.005752845477067769,-0.052640896596512526,0.18980703673892874
19,7,-0.20283226669978507,-0.14541988582468923,0.006654462269243161,-0.1772538336112739,0.017908290799205206,-0.058233726005806494,0.23356859186739654
19,8,-0.21965379436771054,-0.1819026980226982,0.022377813797656403,-0.20747059530961565,0.04032835234279666,-0.08576855175954218,0.2679168995815375
19,9,-0.30621691247604027,-0.21004456312139505,0.034563652463412656,-0.23103793731450828,0.027320386891491806,-0.10521651181239973,0.31822821786281574
19,10,-0.32657150001585333,-0.2527618739481546,0.017531244380634685,-0.267177962037956,0.07939287946452461,-0.12560128088441957,0.40697378464867323
19,11,-0.3137390500044221,-0.26303184312588274,0.040982933794861454,-0.28293816931282806,0.0819475831814662,-0.1112041557878579,0.44665171739049414
19,12,-0.3001056989139367,-0.29301146153250596,0.06442205124772542,-0.3105788791965963,0.12765164481595812,-0.0826763087044282,0.5515418022841095
19,13,-0.2767044341606346,-0.41206045391943213,0.154881748143569,-0.43641862332222053,0.18907963839152614,-0.24193168998022563,0.55420241184053
19,14,-0.21237958359940465,-0.37814877214056763,0.2091621441219742,-0.3796255728552198,0.22782294827245397,-0.1872889131829817,0.5341334758045696
19,15,-0.15705284807699663,-0.45809739389427884,0.17228752654453955,-0.3721681115622919,0.17764481964766138,-0.24503817807552342,0.5961313373856675
19,16,-0.265618134112614,-0.526688306795914,0.18299269591765058,-0.5427869949478277,0.19005210901574582,-0.4004600266201439,0.7447477566702532
19,17,-0.24327253957184397,-0.5933582328492978,0.22185162991662893,-0.5892427759754844,0.2619372228407817,-0.388786109807513,0.8491062459810048
19,18,-0.22190136175451539,-0.5873172839190817,0.32439862127721325,-0.6205641236183493,0.19548011049583897,-0.4086481176251037,0.7252570931012795
19,19,-0.24412091258807242,-0.5829370531422436,0.3940920677701065,-0.6600520605669417,0.22087330646432712,-0.48756767923380134,0.7539503995937713
