i,j,Area,GDP,Inflation,Life.expect,Military,Pop.growth,Unemployment
0,0,0.07040155559424578,-0.05430674455214621,-0.07418272180546648,0.11746386877886326,0.221534905180958,0.006774923820924811,0.2259735915562742
0,1,0.09981823401062505,-0.1338197343215181,0.015247410728047939,0.01855875871883062,0.2676360587195982,-0.0812670720593382,0.23300768437568412
0,2,0.10455576352909644,-0.17149806495177503,0.06306237168792468,-0.03535417674508352,0.267952427289527,-0.1104771675662888,0.2474033150686411
0,3,0.10497005618635062,-0.23765419476847865,0.12496749642429879,-0.1103173579438296,0.2954060326825838,-0.17892713964453738,0.29727884426351375
0,4,0.11329325595533625,-0.297790036253608,0.154056555548243,-0.14971725253128676,0.3162577888216747,-0.21769741806661305,0.3242059570097975
0,5,0.12904250986776725,-0.39931377603377094,0.21936413417856127,-0.22605995070660517,0.3713612173647076,-0.31401026554211936,0.4115437147088842
0,6,0.18808905805878134,-0.46099812229884973,0.29542534473114873,-0.2546362534808839,0.4219864477705792,-0.3711925705205343,0.4514956856220368
0,7,0.15388715842381484,-0.38897006401573186,0.31395849289431915,-0.24486853665100272,0.4724921555203528,-0.30562113271288255,0.4467478952526841
0,8,0.15841595240277676,-0.4852325787975946,0.3644602128333833,-0.27132691946607185,0.5202017450933628,-0.36432028763996016,0.4829706989277245
0,9,0.09238311417804143,-0.6193145212095383,0.43082727494489764,-0.40127482232988926,0.6646082289353479,-0.4424237355416693,0.593325380066829
0,10,0.07920274046206303,-0.6718559659261155,0.43326188642983127,-0.39835227018885766,1.0413282717417773,-0.4384312141232828,0.8475549900331286
0,11,0.0475233023076614,-0.6207190793290299,0.411074423563482,-0.4139255410033637,0.7613062160409534,-0.31872490911212936,0.8097077708805359
0,12,0.031067402877469792,-0.6286266220067316,0.41542468037806524,-0.4211767219491456,0.8239954760067344,-0.4220544940171029,0.6655384903397694
0,13,0.12311950592335831,-0.6954450619736363,0.4764910941077362,-0.41305451167030666,0.8980015243208512,-0.4507720749335437,0.6916233716957892
0,14,0.14771852647958347,-0.6691269849179697,0.5119527065748664,-0.47723956294267217,0.9183542471098229,-0.500171232979291,0.6805458483333402
1,0,0.057910021709642844,0.021328680416483215,-0.12106751515354955,0.16715645497059167,0.14451823317183107,0.06206574973102747,0.12417728501937114
1,1,0.0954668743673274,-0.04459487358972119,-0.033292806772748484,0.08409140949121809,0.18384696388618813,-0.0008141787909381181,0.1495886933412799
1,2,0.0909236489628461,-0.09789455028533887,0.018423089298502757,0.02554753265781381,0.20612768857584743,-0.04418193391140881,0.1765230189452012
1,3,0.087712216757189,-0.13553469438729865,0.057420530806427506,-0.026266147820144824,0.2046372136245015,-0.09273508759197459,0.19069932919626434
1,4,0.09003722488423495,-0.19970646851418614,0.08813524408273296,-0.09068893864374554,0.24426484939239707,-0.13797138244395385,0.2501256550135358
1,5,0.10019291392456546,-0.23303180082232866,0.13568132451132406,-0.12519254408748703,0.250486862453415,-0.15929281835223,0.2717974729904277
1,6,0.10266396858589595,-0.30584206439105255,0.18221884533915564,-0.1971384874098107,0.30331211838468913,-0.23868363563397318,0.30643435167853117
1,7,0.15096242333431864,-0.38463183733852746,0.23702225775412936,-0.24010544095984263,0.36094525443670195,-0.31415381615425036,0.37062547270888685
1,8,0.13028522576337342,-0.5084038598679608,0.33396099341395846,-0.3413027154400058,0.40923851185146953,-0.4240976449993276,0.4608285461856567
1,9,0.14451372265874554,-0.4920710184502007,0.35321159996684487,-0.2912558914153954,0.4457430987503731,-0.36215835722603434,0.45942348918050324
1,10,0.12694309567911022,-0.5154270370147993,0.382685275870335,-0.3196618461294474,0.5121404080999011,-0.3362410612862307,0.5318487220804219
1,11,0.09006181241447,-0.5299942797281486,0.3819141957210251,-0.4004879461479207,0.6631973956372808,-0.41343597835553525,0.5615089736225238
1,12,0.017368634892947404,-0.4494966645689052,0.46736642464871075,-0.44632762890940014,0.7484581010669319,-0.3285544286230472,0.6796949176720571
1,13,0.06037395713861324,-0.7073096950706136,0.42193935723599685,-0.5129111809366261,0.7801304534710896,-0.5091273966499253,0.7236024796604521
1,14,0.030680983244692525,-0.7394144175579376,0.5394656776062544,-0.5037683797322459,0.9340379818505014,-0.48824110089385425,0.7569554092782821
2,0,0.046034945169752386,0.07129557734261871,-0.1316602561175849,0.19614706581558036,0.09864246316415227,0.11060933781744242,0.0762921163778057
2,1,0.0968975639918131,0.002875162685806668,-0.03883486887020367,0.09940146058736085,0.12908621418800764,0.03616870438121971,0.08098274752578156
2,2,0.06670755710165528,-0.03530477533023758,-0.029107196465359475,0.06291704737804164,0.14601251200396329,-0.00535586274901741,0.11649432159662126
2,3,0.08121314846061371,-0.07599063051421333,0.020401780670772342,0.016562576050175606,0.16507843207035286,-0.04448162559544301,0.1336023787847239
2,4,0.09511621314789034,-0.11880527911206151,0.056885454888833877,-0.030367628027438157,0.1824092120538679,-0.09436099975288917,0.1534923085300421
2,5,0.10018073952557438,-0.15781548804144466,0.08730002165240286,-0.08000388345997672,0.20925764515114417,-0.12826578460887106,0.17544563732590185
2,6,0.10485524875048842,-0.20530821442239414,0.11887443268422157,-0.12249023754327983,0.2436529699022278,-0.16709937231560013,0.20956800725879593
2,7,0.1006916136097115,-0.2756717656428074,0.1775589735199851,-0.1799623275874496,0.2716683579035195,-0.21731689168111853,0.26678618969492957
2,8,0.11377329448256825,-0.3374675720658851,0.21413962726985084,-0.23074535817338993,0.31524604925597827,-0.2792065338220549,0.311552349267161
2,9,0.1493089261501599,-0.4928977185054825,0.3187196296671382,-0.32379895903865746,0.4026077439561253,-0.42553162164537983,0.4225386854046636
2,10,0.19516699445790922,-0.5442124307561194,0.420245799480965,-0.3972657397587713,0.46368619162183883,-0.43831912208294743,0.43851438693330835
2,11,0.12445641416402894,-0.5279196920306883,0.41453351148266715,-0.3490534766534291,0.49065704434446855,-0.4186634800667063,0.4652036237943023
2,12,0.060596737208068754,-0.6389703425098193,0.4748372193778748,-0.46244540652535826,0.599675097776981,-0.4910393218536301,0.5583059824907219
2,13,0.12206334908137269,-0.6569980712197745,0.5396980080890615,-0.4541248773434543,0.8804736265615696,-0.4160298100310581,0.7066813234486236
2,14,0.265206638668963,-0.8251592959695212,0.7761502460069998,-0.7480603808795917,0.8337305964178754,-0.6144553540352501,0.6752121054780452
3,0,0.057001466071605396,0.12441630793076268,-0.16257205867213392,0.237492152938842,0.07283015464458609,0.13720492206848908,0.015836116447348888
3,1,0.050952736059132794,0.053061186884974534,-0.10016585671746953,0.15179495386653633,0.10669018480797422,0.08130822887609353,0.05903385211985052
3,2,0.07393339869935094,0.013659931646118072,-0.04589968553833842,0.10391546721816297,0.10823990422419527,0.03227971067519657,0.06367639166062154
3,3,0.06385039507362844,-0.02718105386661638,-0.004303128908075148,0.057482226235154144,0.12927682586759348,-0.0063373639343814875,0.0838779050177016
3,4,0.09149531844003478,-0.06956500828369351,0.032257107707667265,0.01045871340513797,0.14803180503610308,-0.04830239648760434,0.10656651668942886
3,5,0.08607262049506967,-0.10588082642235484,0.058628085008510016,-0.04166379771002194,0.16885629273515837,-0.08780094507277807,0.1233783905454009
3,6,0.06605589819187681,-0.13090987641556653,0.10159859081383546,-0.08625141966310074,0.17936376192471612,-0.11403996012234129,0.1527326185728687
3,7,0.06856914822273821,-0.21380210774355826,0.14380494265439583,-0.14510770898454015,0.21989554232593428,-0.18272404371792741,0.2005563119773042
3,8,0.08609252850163765,-0.2590929511775215,0.16852881513065593,-0.17188602509324652,0.25123984480165173,-0.20841715153291737,0.23212955376349312
3,9,0.0695894661188434,-0.3265741053063609,0.21764859674942008,-0.24695380448603763,0.2830010514382132,-0.2736723016633069,0.28212989897065033
3,10,0.09035741780325716,-0.4664007945736945,0.3089672982486053,-0.3454301785022326,0.3481782765643551,-0.3890355538939604,0.3922034317132183
3,11,0.11285839920622201,-0.5454590450590479,0.36749434551019106,-0.38285295402967656,0.40801247568586024,-0.45007022279377795,0.4475924102119545
3,12,0.04357282064984549,-0.5684937776455702,0.4201335292106601,-0.39788231336992885,0.48145264818592004,-0.4377712836634952,0.4959691624271379
3,13,0.1161054496095202,-0.5873978041078488,0.4681066389809493,-0.41085616891544713,0.5581294070392824,-0.4342466090419478,0.5371609887222755
3,14,0.11318652044001515,-0.6739554035918794,0.5485357853173459,-0.5110687150759856,0.6533281701731806,-0.4812506799698654,0.6611290056496112
4,0,0.030918415788461065,0.15052518561411912,-0.16169769831341907,0.2399464080596993,0.03370420751377402,0.15843165664738154,-0.011141284144055491
4,1,0.04155275987782096,0.09104187489119714,-0.10416560820912803,0.1726980688046623,0.06650161463162414,0.10665870290581064,0.010887551479337286
4,2,0.07071546903266411,0.0563122371029857,-0.05730649893544993,0.12951304722764148,0.08621368853430775,0.06553994088877203,0.0236876399599631
4,3,0.06779642178833901,0.0031278173403897357,-0.01790832654548946,0.07336244087649543,0.1187068385967367,0.010160040324486233,0.0456921594392718
4,4,0.06744002676001559,-0.02865798728837596,0.009506121215175701,0.04198434291812506,0.12249735238679074,-0.011573114450674063,0.06193293736618376
4,5,0.07596133623382348,-0.06571860449463954,0.03923984278355412,-0.009714331979439765,0.13980513360847313,-0.05400287412539005,0.08567426175771484
4,6,0.05881203308719936,-0.12587479021329293,0.08494994725893974,-0.0715228320775264,0.14763559397419826,-0.10556046376405306,0.1273973383023839
4,7,0.07407161156582019,-0.17322349377642488,0.13346444170790087,-0.1272776886806027,0.16691040794444015,-0.14716757606182163,0.14440754375409282
4,8,0.04739378521481396,-0.1987003630560178,0.12083350042964175,-0.14051098862571193,0.18915790381408523,-0.16489434599926034,0.16593718234979168
4,9,0.048626585604767195,-0.25888629027564397,0.17037130611416293,-0.19727722825815097,0.22127323914164282,-0.22236241471380994,0.20861308674698076
4,10,0.04795789663783017,-0.32707718859245183,0.21924353620055576,-0.25963123210120226,0.2638932510480594,-0.28055854109104017,0.2626867837823881
4,11,0.06996071012887621,-0.46425211062215577,0.3055072348536199,-0.3531749277598886,0.3356285034226091,-0.39955273922191076,0.3639087016637977
4,12,0.07277230865469092,-0.5728502451385181,0.4059489690586885,-0.45147363329559786,0.3918945049888527,-0.4989040675467485,0.4673250674286321
4,13,0.09561055916837703,-0.5790998550134443,0.4073575907465247,-0.40390984411351516,0.48871474063262543,-0.4554700422562071,0.5022178664741278
4,14,0.08306211678572589,-0.6132190050448478,0.4825709945980827,-0.4083303716977265,0.5913465889060131,-0.4266424656833058,0.5830296611905288
5,0,0.026691563619428923,0.1887679983399095,-0.18066553070355534,0.28253296720436,0.023927985688860284,0.20086943453955491,-0.042568641254918604
5,1,0.056732898672386727,0.13894196444428658,-0.12969887608307823,0.21438674140588865,0.04103801132259466,0.1335943308866868,-0.03280815017039237
5,2,0.05856600122711997,0.08511709107343915,-0.0719015004469615,0.1559253528216991,0.0697031396071524,0.09271852805496363,-0.0045387854936979125
5,3,0.07205518423152918,0.05981410150692977,-0.04690970941401939,0.11272469807518352,0.08363783124926538,0.05348832651971406,0.0004276247537894436
5,4,0.054286748698613385,-0.000853528450677571,0.006686923662917769,0.05102521890812355,0.09857837594084096,0.0015656905146113282,0.039180839282924845
5,5,0.05421138228168239,-0.04234683485123366,0.03023314049743677,0.009148567250616893,0.10903859035010331,-0.029644296153281808,0.0585874407694085
5,6,0.06640252242669646,-0.08261314946992297,0.056378052189519974,-0.025384476072701202,0.11715098175563678,-0.057732123894116374,0.10378881075918404
5,7,0.0566891252729877,-0.1229885858417523,0.08248131290231861,-0.07011191950330266,0.1311948272359033,-0.09680827877190938,0.12879659143830724
5,8,0.040382187050158426,-0.1522512555204198,0.10274501685175756,-0.11725117401819825,0.15262457754291692,-0.14167653680123304,0.12375865954429822
5,9,0.028567353309549758,-0.20836063335934732,0.1490631847116099,-0.1666460384146514,0.16660305384013838,-0.1946888567492204,0.15588801377811984
5,10,0.044892345597957795,-0.27926037105845336,0.18842320431618298,-0.22939895031335433,0.20373652258933095,-0.2463244911649029,0.20968311984041382
5,11,0.03380307323998106,-0.3600509059756146,0.25162416990890824,-0.3122625097210935,0.24853277212146965,-0.3262930389653673,0.2819287216834485
5,12,0.06929880228787096,-0.5429525206832954,0.3470334853362951,-0.414195157269868,0.34626025990650616,-0.4768078252654442,0.43492025992611466
5,13,0.08638078254658665,-0.529206441437744,0.3283319428375046,-0.3785575496715738,0.39842465853468056,-0.40690616817753644,0.4193228051096316
5,14,0.05994562340595541,-0.5703760796255096,0.44316902173081474,-0.3911899178451396,0.47187482747110526,-0.3504420471440796,0.5719269209854053
6,0,0.05328431531777152,0.21982205679792183,-0.17037982650538497,0.2854834516952969,-0.016655965283996134,0.21702966945643215,-0.09307242038303895
6,1,0.0404195753474305,0.1696351309217519,-0.1414999065483748,0.23547704875722078,0.012091768561978512,0.16861159890681518,-0.05593194108355552
6,2,0.054434224056358976,0.12059154397432195,-0.0919427781433441,0.18497164728021448,0.06489902935030098,0.11583851123631167,-0.029025413992347215
6,3,0.06655216067208962,0.08736709473307831,-0.05485370206112307,0.13951518397322546,0.052758681453394095,0.07717371684430381,-0.02493829103019692
6,4,0.04532583886257813,0.032516049720382995,-0.019494975978866937,0.0781980983225879,0.06803507214706173,0.03229517607718278,0.004026130149248866
6,5,0.04269943489803118,-0.013284597812930659,0.013933858159803268,0.029188760434872875,0.08685506440665733,-0.015010056709800866,0.02417807926754437
6,6,0.029031654844056738,-0.021727907401268533,0.03901013986542645,-0.005411179088025826,0.08077859440302317,-0.025455747132904747,0.04147495776484732
6,7,0.04485245662584387,-0.08667651746901124,0.060886455840426054,-0.04344262752216888,0.0986388971814883,-0.06944985931654563,0.08911872250244691
6,8,0.026543764152769257,-0.1177146554093285,0.08054316587401071,-0.09245927014863008,0.12043167280809346,-0.11562698217036142,0.08778056829974087
6,9,0.01147208766346623,-0.1700592907696245,0.1269271054883408,-0.13778462962105978,0.11657269646296,-0.15279032766097866,0.12283345860994367
6,10,0.010760175373405043,-0.21967780028426903,0.13729270258688975,-0.18806510977886473,0.14773145192638484,-0.1999549867123264,0.14932119939913543
6,11,0.0355745169773184,-0.2896042589131735,0.1960580067398005,-0.23862538344941628,0.1893369815698365,-0.254981668131588,0.21073146843235038
6,12,0.03442908594316239,-0.39574439186018157,0.263598302330784,-0.3394158445285179,0.2416955835363146,-0.3450163297763793,0.30137255951585584
6,13,0.061715965801753515,-0.5574486260385879,0.35985460542596254,-0.43255844481762,0.32090998517679215,-0.4806467383610152,0.43314984230341025
6,14,0.02069806431342619,-0.5761893129750156,0.39257718130679375,-0.41972487705139805,0.4348574535426618,-0.4285927716628113,0.4865983440732696
7,0,0.04281944603764897,0.27950927228884775,-0.22365005625207196,0.35475278835642465,-0.03926375219035714,0.26465050996225664,-0.13165454024285123
7,1,0.0329144174194105,0.21619706906900515,-0.1780924459152941,0.27555011398240736,-0.008476342038984789,0.19402455106443173,-0.09793735444594866
7,2,0.053330817683825034,0.16439934263563222,-0.11898515604599844,0.21341840324639672,0.010179024186608515,0.13875664050607944,-0.08241129266114648
7,3,0.038145330850969036,0.12187708581995113,-0.0787832470486017,0.16276106732446843,0.022400649875470503,0.10683188623254945,-0.06570078252505204
7,4,0.048000575031280586,0.0780672892809758,-0.04310062602593985,0.1160532969573112,0.034027096081119035,0.0614990095045778,-0.03729839128833971
7,5,0.02547048036241153,0.027371633240077277,-0.01749488110373155,0.06021968632274594,0.041652976173050076,0.016849707886959324,-0.012147068802471794
7,6,0.028879113201702892,-0.009827036591443116,0.017765833239200862,0.018928636769283715,0.059580968023027654,-0.017674017589778344,0.009707911813419746
7,7,0.009026315476476659,-0.05889262470015741,0.04952213850697647,-0.04005054460649781,0.06322396441231838,-0.06528222602448387,0.03838513469011049
7,8,0.0017465896646559895,-0.10006131312431293,0.07331641356518695,-0.07839758850293099,0.07814255676374249,-0.09915400847858691,0.06874662790295667
7,9,-0.0042506263303196895,-0.13532772544012786,0.10195718756033562,-0.11321929763488149,0.08305077149328306,-0.12736940872794675,0.08758576561593406
7,10,8.992387772393693e-05,-0.18409443980459714,0.1373029057865826,-0.15944875904833747,0.10009299625009624,-0.17122218771391867,0.12287205941850712
7,11,0.008887148546986702,-0.2520089033448536,0.16553520571229655,-0.21902066198569578,0.154679131483858,-0.22661272406536828,0.18593371984178617
7,12,0.012649566021731428,-0.30813267889479967,0.21598893583695913,-0.26761398891505794,0.1781091493467051,-0.2739940391997707,0.2243681170522031
7,13,0.08022256474264686,-0.4756655162074463,0.34668197831124037,-0.4173575192147947,0.2594618556788362,-0.41521462305210594,0.35342607149482613
7,14,0.03616102563183066,-0.5643954033384957,0.38045554048479324,-0.4438656281592852,0.3270684378601068,-0.46894701932648786,0.4465105067782996
8,0,0.0008532545464657193,0.3403663855931911,-0.2920168138914867,0.4161654387756324,-0.07607925803340078,0.30054998569486024,-0.176886907850544
8,1,0.02670588047278999,0.2651730288213299,-0.19552182793008163,0.3136750872614545,-0.04722428068976311,0.23242090155527986,-0.1515999314572167
8,2,0.024009053602506297,0.20076320086200428,-0.14074378035971072,0.2404879000796168,-0.02446364232351542,0.1694148553451696,-0.11552321966260473
8,3,0.026832036367448322,0.14493834339386283,-0.09519062703120068,0.17989431306844597,-0.0021493657808739916,0.12555664694506632,-0.08484940597318769
8,4,0.015812346457933037,0.11112124322201057,-0.06796363954032762,0.1339656122059719,0.0001745654318515291,0.08621958680666852,-0.07505696245344404
8,5,0.0072139194304757775,0.061784874596896584,-0.030527897821356037,0.08086789326019626,0.008696056747180561,0.04469389815086825,-0.04009469484102631
8,6,0.0025993067188395005,0.020367958483280935,-0.0032752334102934834,0.04198452224949404,0.04635478650563573,0.004075727048149617,-0.010809795036734843
8,7,-0.006177931870116443,-0.025954299267498107,0.028551150352867254,-0.012935323569682817,0.027453421113000708,-0.040045006447378136,0.009706686817544982
8,8,0.01138029262182172,-0.07241389484833854,0.07352729386503437,-0.06944349633763655,0.04612882977063573,-0.0806949763055184,0.024442042413163955
8,9,-0.0159105000121203,-0.09981451968642302,0.06124441465663284,-0.08855008811651034,0.05744722380655703,-0.09853341910393286,0.049123341730806576
8,10,-0.0023608700071108026,-0.15268810996250692,0.10909570036774305,-0.12989951189726465,0.08663557206234349,-0.14418616995295339,0.09466527959433195
8,11,-0.0018473923197065715,-0.1972674182933932,0.14609889648875546,-0.17925817860438772,0.10772747752709357,-0.1871208618137912,0.1284948046620505
8,12,0.023402926049928545,-0.26620401709792585,0.18525935597420282,-0.23323761704890514,0.14741919098658104,-0.24418417222691252,0.18770579917359467
8,13,0.03789339747075974,-0.35955652292229956,0.24090722245249888,-0.3072593650815173,0.18709723987229263,-0.3072795373777427,0.30593583964510146
8,14,0.03755079622313469,-0.451005968500482,0.36399236437949084,-0.40618128284978094,0.2931084812325272,-0.4152167250547383,0.412997064084461
9,0,0.001981296177484736,0.3766024920731542,-0.301652239887933,0.43360997185212746,-0.12682686037686852,0.31197386084450457,-0.24343001617683682
9,1,0.03232492596904517,0.32066223693287743,-0.22953092804258854,0.36409174987700954,-0.09193258176079028,0.26704276484326456,-0.20038619894091553
9,2,0.015669216401357974,0.2450466841435788,-0.16669574989346506,0.2785842991494988,-0.05004545822865891,0.2103636905225416,-0.15234653722316435
9,3,0.0132047106453674,0.18834854936228915,-0.11929961596618308,0.21192024569803253,-0.03423653825868313,0.15649100249292572,-0.1253534085728141
9,4,0.0022489625746951038,0.14543413364431493,-0.09180576126200074,0.15873645985375195,-0.03287027962312759,0.11083967359183813,-0.11160120963837347
9,5,-0.002475408868354135,0.10127148672880615,-0.050098156365053916,0.10943886039152577,-0.01146349917024932,0.07140385615644021,-0.08248349506077231
9,6,-0.019368628328537495,0.08346834174644178,-0.028140987562291365,0.06677612989483399,-0.019799895810309113,0.0436911390798902,-0.06330160975670832
9,7,-0.022490259081831453,0.006421102874753313,0.006346040066284199,0.0036840942851700848,-0.005544416853536013,-0.022818044139740434,-0.026744703141844756
9,8,-0.014756565393602898,-0.025163932008934412,0.0355376973743692,-0.022715415593833804,0.021012257906019315,-0.04287847617371932,-0.006646244741032376
9,9,-0.026019557694274383,-0.044150022025131616,0.060076818480118345,-0.0655656877513096,0.02265289110234768,-0.0669437958971359,0.021154805747261297
9,10,-0.018892941855567367,-0.11807476018351966,0.0852408928398574,-0.11210830144977511,0.053645350085220256,-0.1231859080193947,0.06885635154013663
9,11,-0.005807638960616881,-0.16934225867192118,0.12678533814879295,-0.14947019268193049,0.10498845798127153,-0.15976888895448443,0.11832777844906067
9,12,-0.0030512694629074534,-0.2294376316854046,0.14987514262297547,-0.20729463163002604,0.1078934814331095,-0.21670575147957716,0.1591413887141526
9,13,0.012281340961955808,-0.30108770958420944,0.21669545124999715,-0.2645055520731158,0.1583344706792736,-0.2638936934441071,0.22407985396096866
9,14,0.023762958297933966,-0.45591765449268046,0.307212171651954,-0.3700944182930797,0.2472845908227824,-0.41096144476863783,0.3582452467591668
10,0,-0.018394957223305433,0.39429190001134945,-0.3048216188350326,0.431480944042486,-0.1695433147122935,0.3105584942988947,-0.25916193139490756
10,1,-0.016110822708159354,0.37296285983058897,-0.278349823630942,0.41302253493052077,-0.13148932481023193,0.30525165319003295,-0.2501845845197605
10,2,-0.013034953811735485,0.2976683209550466,-0.20045547703674635,0.31234112302558137,-0.11653837320582378,0.23452186813659762,-0.20988669807764776
10,3,-0.011585190363804667,0.2187865155829617,-0.15220017601853686,0.22999384803510667,-0.07865870823923411,0.16691976958713448,-0.16191958420272906
10,4,-0.0051259554954086635,0.17798201909602904,-0.11377538820556089,0.1822719015306174,-0.0691419149211245,0.13231839106384144,-0.13719219664505145
10,5,-0.02359830036377337,0.1353304264183939,-0.08447435567229042,0.1303236351089122,-0.06434609488310981,0.09232365631328432,-0.1172247525352404
10,6,-0.03184600304352661,0.08685404473942725,-0.050167230414833015,0.08486169886528583,-0.045570695660509995,0.05141729025779349,-0.0838090510761695
10,7,-0.03696590115336659,0.05186004340890292,-0.027524192338473558,0.0446456163995138,-0.03968090468424661,0.016846092552372887,-0.06474734143274018
10,8,-0.0340877103371402,0.013853720772544357,0.0006377964070469242,0.009693817600837063,-0.021369669945020535,-0.013610192409947453,-0.04129790247454568
10,9,-0.0108389041641268,-0.027899761178570785,0.036673103680770106,-0.02978553870167629,-0.004282347666052493,-0.05035192777199261,-0.006847412850460726
10,10,-0.010550621097329379,-0.08195847774448727,0.06996801571481233,-0.07324758281870464,0.021978147422009642,-0.08600826957893169,0.031642026497598306
10,11,-0.01856367650039534,-0.13888103939087185,0.09598234734509299,-0.13284041243698497,0.050776535214766154,-0.13575363686162328,0.08868964647540661
10,12,-0.010271908897362474,-0.1855442538402875,0.13804229688686454,-0.17388971477571982,0.0693828404130495,-0.18371997971035686,0.1196787901320832
10,13,0.025686673799647914,-0.24963842836155228,0.16346985934819122,-0.2268519216599219,0.11301967644789304,-0.24933741157740524,0.176059024232445
10,14,0.014925451735229583,-0.3713316356605459,0.2543984856587114,-0.30970280716683896,0.15776835470148937,-0.3144327169607597,0.28432648974850117
11,0,-0.010622024024991274,0.4356982917103217,-0.3382402860370789,0.4680555335359852,-0.21258539777283914,0.340004016766628,-0.3366110738944749
11,1,-0.014572022414718897,0.41173701535127816,-0.31883219380517186,0.43685739033759297,-0.1832699827959858,0.30566015490515763,-0.30221303603753596
11,2,-0.02176635374908434,0.3702641352117565,-0.2886649768579994,0.40997320756881395,-0.16861332619321104,0.31234956853461565,-0.21865398036066253
11,3,-0.03700957019721801,0.2753233731747913,-0.1873280087095488,0.27332545584640683,-0.15124926821086637,0.21083674880430928,-0.20228558594318502
11,4,-0.029250527794653317,0.22265969176248118,-0.13958148513750632,0.2188565631368281,-0.11230260957164101,0.17216674109322955,-0.1749284646630361
11,5,-0.013197219074356928,0.154066002342015,-0.08187446392007519,0.13582446426074618,-0.10468592875612054,0.1083159170001484,-0.1414704716219206
11,6,-0.025443479674392856,0.11937808025861804,-0.06881075664965416,0.1098086363636771,-0.08308320972084682,0.08042953506527067,-0.10981036504707707
11,7,-0.03808547801092545,0.08884923792262316,-0.04046602904860375,0.07550128414306849,-0.07790140200773954,0.04402671458858593,-0.09740688113404268
11,8,-0.03940524897089534,0.04627166436087906,-0.015433970021290527,0.034252186876152384,-0.053255627323820276,0.01286322700043015,-0.06584616758745594
11,9,-0.03171304418275013,-0.0005162411698646124,0.017923434568279613,-0.004276481170956982,-0.025176587761593986,-0.021283584663447996,-0.028363671875987706
11,10,-0.028697910870272073,-0.04973924150614797,0.04989860152346196,-0.05732808115019965,-0.01617742244960436,-0.0672604084278375,0.011412693166886565
11,11,0.002000450845469778,-0.10854190761632701,0.10382132537620349,-0.1211275997024899,0.009865273468463723,-0.11503006939095287,0.04067266511036028
11,12,0.005957809976082892,-0.1598736233942794,0.11514656954203732,-0.15529328782899304,0.0466245621061047,-0.16017542511454674,0.10169293248820883
11,13,-0.001762027844317977,-0.22236087381587594,0.13620026309294847,-0.20761762171515166,0.08417483496584376,-0.21910908909738397,0.15855516539383505
11,14,0.000527937680794902,-0.3098153194273866,0.2210594753849959,-0.28078185481178536,0.140436167159348,-0.2861936186222591,0.2386329988894263
12,0,0.006564902078546552,0.4836602054533987,-0.3649838989092484,0.46360352090484175,-0.33579944687300856,0.31988205495565847,-0.44044154459413876
12,1,-0.00656726279588186,0.41709115244159867,-0.30591262158005966,0.39865246971118784,-0.3219280444612761,0.318423798233782,-0.3655953229996498
12,2,-0.07214120578210745,0.41048991116854777,-0.31526547396070026,0.42207632540867596,-0.21334438962050836,0.31766479888048393,-0.311263244897858
12,3,-0.057559902063274146,0.33569742423160337,-0.23511609386434285,0.32593470825811166,-0.19867661140033213,0.259091739975403,-0.259726981752092
12,4,-0.05648643189863148,0.2729920553018615,-0.1904998030909868,0.26084405460620136,-0.17223196416787406,0.2036134276645281,-0.21953867376884295
12,5,-0.05318357003836172,0.24377842503563046,-0.13451977170215354,0.2053282345192771,-0.15536241291992006,0.17641532100913157,-0.18893845884623575
12,6,-0.04073590495382828,0.15380747422346555,-0.09102313271495004,0.13793354477448067,-0.11307977994003972,0.10170068560134041,-0.14645573767556758
12,7,-0.024782939894148995,0.13286400375315247,-0.07221666819357322,0.1107319312920962,-0.1013926881102648,0.08305751593877249,-0.13037642640068067
12,8,-0.04239352975268406,0.07727362676375976,-0.04195467796568938,0.06430215880981803,-0.08135750452396719,0.03897133081744192,-0.0854596238565651
12,9,-0.025171063437675993,0.05009145743823557,-0.020510939026998784,0.032220364564721694,-0.058864631085735426,0.01057051650044319,-0.07157132322441108
12,10,-0.03758958491975811,-0.00039273879416134867,0.01786737812112411,-0.012022241310160126,-0.04619795911462948,-0.030140006330625455,-0.031887987894973345
12,11,-0.02877550089158839,-0.06579792485646226,0.056657565455589046,-0.0780046201405177,-0.02662768521718918,-0.08573389086286123,0.019719879508238565
12,12,0.007866663007557744,-0.1051627355217575,0.07605253912661594,-0.10531808422417706,0.006501915259502125,-0.1306159330251389,0.05203887200157999
12,13,-0.00255431516652374,-0.19093593627902777,0.13390850225982662,-0.1804998881298044,0.031864423788022976,-0.1867921099867024,0.13424246634240752
12,14,0.029950931524164167,-0.286626842766441,0.2090336333915501,-0.26186268285388786,0.11335704223205763,-0.2525687176913787,0.21555910032994077
13,0,-0.07785426187724889,0.5147532616653336,-0.3754595923631772,0.4730694149970617,-0.35915098354244207,0.3836822464791699,-0.46198591283452883
13,1,-0.08421253455021441,0.48680409317248496,-0.33408360385044666,0.4537485474065221,-0.35933975972354854,0.34514922338808113,-0.43580829942992666
13,2,-0.032019476039585576,0.4373535589934707,-0.32922123042707957,0.45114808282047025,-0.3432519493884245,0.34944351018553116,-0.399220096037012
13,3,-0.09027327350485505,0.4025655742004977,-0.3025756969910884,0.4069594503759636,-0.25125324282838174,0.3141122560277457,-0.3170347102103746
13,4,-0.06710591940508248,0.332407449960788,-0.22959496744587543,0.3233544131087627,-0.21766239179839034,0.25740538620369086,-0.2590724285449131
13,5,-0.0644255371874141,0.2825047769353811,-0.1919645844190069,0.2625500069642417,-0.20474731697632342,0.21935195559734497,-0.2467218250600792
13,6,-0.04669942606061772,0.21354241776326005,-0.1328555519638107,0.20582930025802987,-0.15945247705568982,0.1607881687390983,-0.19463218868470483
13,7,-0.04537069772419129,0.16759882353294805,-0.08730104981190635,0.15028262132474318,-0.12390854568492184,0.11928068554326127,-0.16056270417969445
13,8,-0.046090301927934604,0.10957490580853636,-0.05518968903984401,0.09125362313864567,-0.1244047202910943,0.06643734240337298,-0.11469744868920528
13,9,-0.039624893891344354,0.07194817671831617,-0.031239264662195215,0.05936925265291927,-0.09337651955114888,0.0388886205617759,-0.09265391955580896
13,10,-0.041450040419216364,0.028720207977994502,-0.0040447176509801445,0.01064568619284268,-0.08597404614691118,0.0006669608198162776,-0.058771054748960674
13,11,-0.01389694358242857,-0.01230598635821927,0.01737282435792922,-0.012822670897857352,-0.054370474420924554,-0.035653750633652774,-0.03184315157205402
13,12,-0.023514458756244486,-0.061266319995135564,0.06263368357161873,-0.06591759150176348,-0.05486143421977969,-0.07420942858489889,0.012568201436720482
13,13,0.006247518254734664,-0.11497172808869445,0.07745554429705295,-0.12707712540931668,0.02284025889061026,-0.14193549699980626,0.05347319676167131
13,14,-0.005602177155665496,-0.2193693372343323,0.17630004971913926,-0.20675507995394535,0.05856195005549538,-0.21596397199876527,0.13550846714336234
14,0,-0.06239430856780285,0.5862154253322318,-0.4274995294593098,0.5742728885133149,-0.3389430916750776,0.4580370025638036,-0.5224895407023181
14,1,-0.07068337640235495,0.48203391921920496,-0.34140833241571356,0.42842764334839634,-0.37709760362852257,0.33789975225418944,-0.4241476212745066
14,2,-0.07655699103941443,0.4595710011915702,-0.37544184704298544,0.43126781454970586,-0.3730134234389148,0.3374489241459821,-0.43210242249981873
14,3,-0.10705232019947263,0.4421460935251903,-0.3182896765712745,0.40317494417201716,-0.37587700398454743,0.3303108416249861,-0.41926062482895315
14,4,-0.10433840345974484,0.418274631682163,-0.2767329225731139,0.3868108131504025,-0.39891612500057133,0.29420144812786214,-0.39597454434464036
14,5,-0.09980083268593347,0.3507465055019834,-0.26003223431424555,0.36498163141133994,-0.2578013126927607,0.2827260209690424,-0.27623616580122445
14,6,-0.06277278728098463,0.26473692046456426,-0.16766241670095608,0.2396650354326872,-0.2169886847258174,0.19300329390840096,-0.23903133543960658
14,7,-0.07026213429451504,0.21440918791408425,-0.13514232009658272,0.18522725600756382,-0.18674708431942552,0.14749125291291454,-0.20492761102421578
14,8,-0.034077032867893396,0.15212961132741196,-0.07089384188841788,0.11487034884529708,-0.16258498803054877,0.09457684940088713,-0.175860056952652
14,9,-0.05790580526446173,0.11077145789301272,-0.06940388051738457,0.08114204534081658,-0.12851478136020822,0.05584437757523252,-0.13246630437687196
14,10,-0.031843328154565274,0.08281519181575979,-0.05195685075855735,0.055843404443190435,-0.11477190485292621,0.01684724705072023,-0.11521873753420753
14,11,-0.05325790142460965,0.03799401258901884,-0.045312289075480267,0.013247960176714675,-0.10340231116921446,0.0060367698417707295,-0.0859101931607911
14,12,-0.037373436125124664,-0.05064413656273373,0.03459941582062201,-0.07414588017657782,-0.043466252433944204,-0.09190085952875866,-0.02015723459670264
14,13,-0.026523841371267,-0.0949495470881603,0.08020546927532218,-0.10074354014717637,-0.05616882786783303,-0.10417885781091044,0.024639035971154653
14,14,-0.017125513833316793,-0.17429069121873728,0.14354764437976167,-0.17714381249804614,0.010924959521998226,-0.18289429125155407,0.08346793233467427
