epoch,Area,GDP,Inflation,Life.expect,Military,Pop.growth,Unemployment
init,0.7739560485559633,0.4388784397520523,0.8585979199113825,0.6973680290593639,0.09417734788764953,0.9756223516367559,0.761139701990353
0,1.7516920451619309,0.25790997330285054,-2.206566631029032,0.16931460765877734,-2.504965114808681,4.797785462480411,-1.6461517818105644
1,-0.9642798302712314,0.4020121113653706,-0.6379941185836597,1.00972856502126,0.46067825648663213,0.033260478438329646,0.9127141344096101
2,-0.812251304505721,0.18336045077471774,-0.611371950706292,0.5866319274169385,0.03588154052803697,0.060879783337136055,0.4507462970416038
3,-0.6014148822217537,0.34109245723247755,-0.7160805528529681,0.6474546788377082,0.08266527089428995,0.2849771886931646,0.16048619414794046
4,-0.4967274800996578,0.4027635097494414,-0.6937479567681049,0.6057951138434823,0.018646135931839343,0.36151980724543903,-0.002275822453599945
5,-0.4252364665858744,0.4299233082973582,-0.6523941973100228,0.5759264183961839,-0.014046062906347002,0.3896686251650583,-0.07520972287977118
6,-0.37718454976377225,0.4449536941086673,-0.6191553976973059,0.5565123116296429,-0.03575378245229886,0.4052341972304037,-0.11571681303875941
7,-0.3424520073226244,0.45485882967583185,-0.5933309335734288,0.5433119359027099,-0.05206595140437957,0.41581049287374616,-0.14200489012572953
8,-0.31605987478794406,0.46199483744505815,-0.5729157354479057,0.5338936412427208,-0.06506208416423853,0.4236787670596869,-0.16065042770873314
9,-0.29529831754316166,0.46739475922019064,-0.5564315319041883,0.5268966247710197,-0.07575323222992464,0.4298103817963305,-0.17462413437895935
10,-0.2785381981506741,0.4716127278209105,-0.5428660754561492,0.5215234620810693,-0.08473273021923412,0.4347287692203852,-0.18550131982606247
11,-0.2647295058741217,0.474985101672564,-0.5315187562963231,0.5172833520553894,-0.0923906825978406,0.43875713457713916,-0.1942104553566996
12,-0.2531611635441606,0.47773179612810285,-0.5218931365800794,0.5138607303378226,-0.09900146128274054,0.4421112619813072,-0.20133958599219146
13,-0.24333332257431445,0.4800036596836298,-0.513628940186111,0.511044905639952,-0.10476641796175579,0.44494238003717884,-0.2072810160076932
14,-0.23488405621353167,0.48190774856420937,-0.5064589232431296,0.5086905598825684,-0.10983770343406184,0.4473600775473036,-0.21230706427396634
15,-0.22754482630898304,0.48352205684315996,-0.5001809407614481,0.5066946026433485,-0.11433283070832488,0.4494457946153217,-0.21661284631156658
16,-0.22111222504714173,0.48490463308586973,-0.49463941122627286,0.5049820832854642,-0.1183441547259385,0.4512612915895524,-0.2203418600579726
17,-0.21542940666654745,0.4860994708002264,-0.48971272543286487,0.5034973236028389,-0.12194531980861896,0.45285420891862177,-0.2236019925546726
18,-0.2103735278651434,0.4871404408961888,-0.4853045059188218,0.502198168166582,-0.12519578817618962,0.45426184054182617,-0.22647590730322617
19,-0.20584704049093938,0.4880539867316984,-0.48133741844223854,0.5010521564190401,-0.12814410066907997,0.4555137625743904,-0.22902799424140188
20,-0.20177152444916413,0.48886101202753246,-0.4777487111167587,0.5000339133105325,-0.1308302722130571,0.45663370430014094,-0.23130914263320257
21,-0.1980832367480654,0.48957822856502925,-0.4744869460974538,0.49912333245921386,-0.13328758149661682,0.4576409044418373,-0.23336009375953484
22,-0.19472984484442082,0.4902191343523185,-0.47150956923706844,0.4983042866944001,-0.13554392760444417,0.4585511101299756,-0.23521384321042949
23,-0.19166799282781025,0.49079473419325753,-0.4687810782335501,0.4975636968987782,-0.1376228716168463,0.4593773232101003,-0.23689739278710745
24,-0.18886146326931222,0.4913140776600919,-0.4662716246636517,0.4968908489072041,-0.13954444552581569,0.4601303649584827,-0.23843304841082247
25,-0.1862797716591148,0.49178466567707596,-0.4639559349176548,0.4962768851188972,-0.1413257869788765,0.4608193083811784,-0.23983939546199626
26,-0.1838970793966173,0.49221276126607916,-0.4618124685058276,0.4957144211187182,-0.1429816420782659,0.4614518126835811,-0.241132041236826
27,-0.1816913443561018,0.492603629510259,-0.4598227551267218,0.4951972530470438,-0.144524767134846,0.4620343845963516,-0.24232418681724086
28,-0.1796436507146084,0.49296172463887844,-0.45797086782281965,0.4947201317312666,-0.14596625226868384,0.46257258441219157,-0.2434270723229646
29,-0.177737675504923,0.493290837187298,-0.45624300078171864,0.4942785865408287,-0.14731578400750767,0.46307118980464174,-0.24445032703571062
30,-0.17595926049390875,0.4935942107146576,-0.4546271283605921,0.4938687867008371,-0.1485818598660065,0.46353432710576187,-0.24540224725235654
31,-0.1742960659513489,0.49387463509573554,-0.4531127277057308,0.49348743112514004,-0.14977196482735436,0.46396557728115007,-0.24629001866336142
32,-0.17273728863937984,0.4941345216310839,-0.4516905515719376,0.493131660178138,-0.15089271737569665,0.4643680620691503,-0.24711989574048174
33,-0.171273430571909,0.49437596393176825,-0.4503524410713268,0.49279898445350356,-0.15194999102478948,0.46474451445035236,-0.2478973475112686
34,-0.16989610821375145,0.49460078758983933,-0.4490911704103893,0.49248722687222696,-0.15294901599940183,0.4650973366490734,-0.24862717683385727
35,-0.16859789411932855,0.494810590945263,-0.44790031742647013,0.49219447529014543,-0.1538944647431195,0.4654286481468782,-0.24931361861785278
36,-0.16737218476667642,0.49500677873638205,-0.446774155064424,0.49191904346079296,-0.15479052417038727,0.4657403256435678,-0.24996042119628167
37,-0.16621308967705353,0.4951905900261807,-0.4457075599513102,0.4916594386883169,-0.1556409569951548,0.46603403648669095,-0.2505709141216632
38,-0.1651153379329177,0.4953631214965671,-0.44469593501100785,0.49141433487305713,-0.15644915401177084,0.4663112667729366,-0.2511480649531711
39,-0.16407419899638578,0.49552534697315653,-0.4437351436693727,0.4911825499315072,-0.15721817884512543,0.4665733450794391,-0.25169452706245465
40,-0.16308541534403304,0.4956781338658688,-0.4428214536764465,0.49096302678586906,-0.15795080640363235,0.46682146259226615,-0.252212680070391
41,-0.16214514491433332,0.49582225707310357,-0.44195148894668673,0.49075481728294856,-0.1586495560433605,0.4670566902500905,-0.2527046642049563
42,-0.16124991174256675,0.49595841078979264,-0.4411221881146511,0.4905570685298476,-0.1593167202715251,0.46727999340349097,-0.2531724096188545
43,-0.16039656345805758,0.49608721857513133,-0.44033076873966476,0.49036901123372045,-0.15995438967280048,0.46749224439723186,-0.25361766150780884
44,-0.159582234557819,0.49620924196899074,-0.4395746962820647,0.4901899497113605,-0.1605644746249798,0.467694233408711,-0.25404200171399655
45,-0.15880431456244515,0.4963249878928939,-0.43885165712582996,0.49001925329650853,-0.16114872427557622,0.4678866778163895,-0.2544468673746548
46,-0.1580604203146323,0.4964349150289811,-0.43815953504557204,0.48985634892222135,-0.1617087431735358,0.4680702303242211,-0.2548335670762837
47,-0.1573483718058753,0.49653943933628286,-0.43749639061599777,0.48970071469522214,-0.1622460058867988,0.4682454860294563,-0.25520329489475924
48,-0.15666617101874183,0.49663893883607896,-0.4368604431437629,0.48955187431099967,-0.1627618698842588,0.4684129885897813,-0.25555714263687856
49,-0.1560119833554014,0.49673375777580386,-0.4362500547687415,0.48940939218418195,-0.16325758691755377,0.4685732356201279,-0.2558961105462239
50,-0.1553841212914539,0.4968242102627504,-0.43566371643704027,0.48927286918963947,-0.16373431310236342,0.4687266834284779,-0.25622111669325565
51,-0.15478102995048496,0.49691058344396194,-0.43510003549382426,0.48914193892686075,-0.1641931178691183,0.4688737511826936,-0.25653300523431793
52,-0.15420127434144063,0.49699314029646374,-0.4345577246820199,0.4890162644341563,-0.1646349919281526,0.46901482458612087,-0.2568325536952187
53,-0.15364352803970438,0.49707212208191115,-0.43403559236462846,0.48889553529078544,-0.1650608543734746,0.4691502591278595,-0.2571204794110614
54,-0.15310656312510756,0.49714775051138943,-0.43353253381487666,0.488779465054639,-0.16547155903178942,0.4692803829637286,-0.2573974452340926
55,-0.1525892412171877,0.4972202296591599,-0.433047523440678,0.4886677889910341,-0.16586790014859581,0.46940549947572036,-0.2576640646047381
56,-0.15209050547075403,0.49728974765837336,-0.4325796078286109,0.4885602620547727,-0.16625061749064515,0.4695258895508204,-0.25792090606713114
57,-0.15160937341399106,0.4973564782069368,-0.4321278995084488,0.4884566570931321,-0.16662040093340835,0.46964181361427265,-0.25816849729879077
58,-0.1511449305275327,0.49742058190765787,-0.431691571352699,0.48835676324208716,-0.16697789459312604,0.46975351344745664,-0.2584073287143144
59,-0.15069632447668377,0.49748220746337785,-0.4312698515370074,0.4882603844919611,-0.16732370055528045,0.46986121381641127,-0.2586378566946672
60,-0.15026275992065083,0.49754149274491866,-0.43086201899701954,0.48816733840199034,-0.16765838224469673,0.4699651239335091,-0.2588605064866425
61,-0.14984349383261153,0.4975985657472268,-0.4304673993255889,0.4880774549460803,-0.16798246747678988,0.4700654387717986,-0.25907567481110555
62,-0.14943783127297675,0.4976535454470203,-0.4300853610613662,0.4879905754743987,-0.1682964512245755,0.4701623402489751,-0.25928373221355894
63,-0.1490451215655091,0.4977065425734795,-0.4297153123259106,0.4879065517774686,-0.16860079813183765,0.47025599829575165,-0.25948502518622474
64,-0.14866475483224426,0.49775766030201285,-0.4293566977717537,0.4878252452411533,-0.16889594479918915,0.4703465718215311,-0.25967987808712445
65,-0.14829615884858013,0.49780699487983354,-0.42900899580839646,0.4877465260823996,-0.16918230186659497,0.47043420958866355,-0.2598685948784404
66,-0.14793879618457362,0.49785463619098264,-0.4286717160771666,0.4876702726568801,-0.16946025591317404,0.4705190510051846,-0.2600514607036935
67,-0.14759216160254024,0.49790066826746904,-0.4283443971492887,0.48759637083076446,-0.16973017119270006,0.4706012268447325,-0.26022874332089563
68,-0.14725577968456383,0.497945169752384,-0.4280266044244883,0.4875247134097969,-0.1699923912211318,0.4706808599012935,-0.26040069440678254
69,-0.14692920266658555,0.4979882143201312,-0.4277179282100556,0.4874551996196746,-0.1702472402306735,0.4707580655855329,-0.26056755074544713
70,-0.14661200845840336,0.49802987105829866,-0.4274179819625468,0.4873877346324266,-0.1704950245032687,0.47083295246867646,-0.26072953531314685
71,-0.14630379883124314,0.4980702048151678,-0.4271264006762947,0.4873222291341151,-0.17073603359502182,0.47090562277922365,-0.26088685826970665
72,-0.14600419775659915,0.4981092765163823,-0.42684283940462364,0.4872585989297102,-0.17097054146181132,0.47097617285718224,-0.26103971786576224
73,-0.14571284988182825,0.4981471434539048,-0.426566971901204,0.4871967645814645,-0.1711988074952657,0.4710446935699838,-0.2611883012740591
74,-0.1454294191295511,0.4981838595500247,-0.4262984893703126,0.48713665107751847,-0.17142107747731647,0.4711112706937862,-0.2613327853521156
75,-0.14515358740929435,0.4982194755988791,-0.4260370993159513,0.4870781875278297,-0.1716375844606939,0.47117598526346516,-0.261473337342769
76,-0.14488505343102678,0.49825403948767333,-0.425782524480827,0.48702130688483375,-0.1718485495819783,0.4712389138942433,-0.2616101155184265
77,-0.14462353161131616,0.4982875963995487,-0.4255345018671128,0.48696594568652035,-0.17205418281315452,0.4713001290775926,-0.26174326977422363
78,-0.14436875106378608,0.4983201889998397,-0.4252927818317324,0.48691204381985465,-0.17225468365702656,0.47135969945377126,-0.26187294217475554
79,-0.14412045466639387,0.49835185760727085,-0.42505712724963735,0.4868595443026876,-0.17245024179132068,0.4714176900631113,-0.2619992674585635
80,-0.1438783981988006,0.4983826403514907,-0.4248273127391902,0.4868083930824937,-0.17264103766583908,0.4714741625779598,-0.2621223735041333
81,-0.14364234954376728,0.4984125733181841,-0.4246031239443453,0.48675853885043735,-0.17282724305660677,0.47152917551698265,-0.2622423817607885
82,-0.14341208794710497,0.49844169068288746,-0.4243843568688254,0.48670993286942527,-0.17300902158057907,0.47158278444337015,-0.2623594076475235
83,-0.1431874033312334,0.49847002483450864,-0.42417081725795774,0.4866625288149305,-0.1731865291741463,0.4716350421483353,-0.26247356092252355
84,-0.14296809565787452,0.4984976064894625,-0.42396232002423484,0.48661628262749856,-0.17335991453836938,0.4716859988211569,-0.2625849460258533
85,-0.14275397433582857,0.49852446479723306,-0.4237586887130358,0.48657115237594273,-0.1735293195536132,0.47173570220689953,-0.26269366239756164
86,-0.14254485767015823,0.49855062743810463,-0.4235597550052728,0.4865270981303382,-0.1736948796660028,0.4717841977528404,-0.26279980477323084
87,-0.14234057234944258,0.49857612071372165,-0.4233653582540183,0.48648408184400677,-0.17385672424791,0.4718315287445289,-0.2629034634588169
88,-0.14214095296806994,0.49860096963108413,-0.4231753450524349,0.4864420672437545,-0.17401497693448342,0.47187773643232434,-0.2630047245864518
89,-0.14194584158080673,0.49862519798052185,-0.4229895688305739,0.48640101972770133,-0.17416975593805797,0.4719228601491776,-0.26310367035272875
90,-0.1417550872871304,0.4986488284081399,-0.4228078894788102,0.4863609062700935,-0.17432117434212066,0.4719669374203536,-0.2632003792408543
91,-0.14156854584303083,0.49867188248319094,-0.42263017299589045,0.4863216953325486,-0.17446934037636705,0.4720100040657289,-0.2632949262279248
92,-0.14138607929818778,0.49869438076077177,-0.4224562911597342,0.4862833567812345,-0.1746143576742513,0.47205209429524186,-0.26338738297847797
93,-0.1412075556566114,0.49871634284022665,-0.4222861212192922,0.4862458618095202,-0.1747563255143156,0.4720932407980224,-0.2634778180253681
94,-0.1410328485589937,0.4987377874195851,-0.42211954560590703,0.486209182865685,-0.17489533904647814,0.47213347482568496,-0.26356629693892075
95,-0.14086183698517046,0.49875873234634965,-0.42195645166275164,0.486173293585302,-0.17503148950436154,0.47217282627022206,-0.2636528824852448
96,-0.14069440497522298,0.49877919466491066,-0.4217967313910394,0.4861381687279473,-0.17516486440465606,0.4722113237369027,-0.26373763477450396
97,-0.14053044136787263,0.498799190660846,-0.42164028121180336,0.4861037841179172,-0.17529554773443132,0.4722489946125445,-0.26382061139988133
98,-0.14036983955493076,0.49881873590234055,-0.421487001742145,0.4860701165886579,-0.1754236201272376,0.4722858651294957,-0.2639018675679129
99,-0.14021249725066623,0.49883784527894076,-0.42133679758493525,0.4860371439306401,-0.1755491590287722,0.47232196042564184,-0.2639814562208072
100,-0.14005831627504478,0.49885653303784083,-0.4211895771310352,0.48600484484243317,-0.17567223885282368,0.47235730460071507,-0.26405942815132116
101,-0.1399072023498763,0.49887481281787927,-0.42104525237317453,0.4859731988847499,-0.17579293112815428,0.472391920769175,-0.26413583211071456
102,-0.13975906490698317,0.49889269768141453,-0.4209037387306949,0.48594218643725484,-0.1759113046369277,0.47242583110989717,-0.2642107149102656
103,-0.13961381690757063,0.4989102001442299,-0.4207649548844256,0.4859117886579445,-0.17602742554524492,0.47245905691289347,-0.26428412151678926
104,-0.13947137467204385,0.4989273322036081,-0.4206288226210143,0.4858819874449214,-0.17614135752630816,0.4724916186232676,-0.2643560951425693
105,-0.13933165771957354,0.4989441053647035,-0.4204952666860873,0.48585276540039923,-0.176253161876693,0.4725235358825944,-0.2644266773300808
106,-0.13919458861676565,0.4989605306653314,-0.42036421464566076,0.48582410579678953,-0.17636289762617574,0.47255482756789796,-0.2644959080318517
107,-0.13906009283483803,0.49897661869928395,-0.42023559675526756,0.48579599254473,-0.17647062164152724,0.47258551182838804,-0.26456382568578557
108,-0.13892809861475106,0.4989923796382713,-0.4201093458363032,0.48576841016292577,-0.17657638872465767,0.4726156061201035,-0.2646304672862432
109,-0.13879853683978116,0.4990078232525838,-0.4199853971591298,0.4857413437496851,-0.17668025170546645,0.4726451272386013,-0.26469586845116005
110,-0.13867134091506228,0.4990229589305575,-0.4198636883325121,0.48571477895604004,-0.1767822615297285,0.4726740913498167,-0.2647600634854548
111,-0.13854644665365493,0.4990377956969278,-0.4197441591989884,0.48568870196034897,-0.17688246734232305,0.47270251401921404,-0.2648230854409642
112,-0.13842379216873368,0.4990523422301385,-0.4196267517358085,0.48566309944428737,-0.17698091656609044,0.4727304102393362,-0.2648849661731267
113,-0.13830331777151414,0.49906660687867777,-0.4195114099610965,0.48563795857013836,-0.17707765497658223,0.4727577944558552,-0.26494573639461666
114,-0.1381849658745654,0.49908059767650503,-0.41939807984491817,0.48561326695930235,-0.1771727267729526,0.47278468059221734,-0.26500542572612057
115,-0.13806868090017982,0.49909432235762263,-0.4192867092249594,0.4855890126719499,-0.1772661746452205,0.47281108207297023,-0.2650640627444291
116,-0.13795440919349414,0.49910778836985314,-0.4191772477265354,0.48556518418774713,-0.17735803983811826,0.47283701184585425,-0.2651216750280116
117,-0.13784209894007726,0.499121002887864,-0.4190696466866774,0.4855417703875888,-0.17744836221172627,0.4728624824027319,-0.265178289200223
118,-0.13773170008771932,0.4991339728254951,-0.41896385908205364,0.4855187605362773,-0.17753718029908158,0.4728875057994277,-0.2652339309702878
119,-0.13762316427217333,0.4991467048474274,-0.4188598394605011,0.48549614426609194,-0.17762453136093445,0.4729120936745431,-0.2652886251721911
120,-0.1375164447466203,0.49915920538023284,-0.4187575438759603,0.4854739115611952,-0.17771045143781672,0.47293625726730704,-0.26534239580160185
121,-0.13741149631463961,0.4991714806228461,-0.4186569298266155,0.4854520527428256,-0.17779497539957426,0.47296000743452044,-0.26539526605094255
122,-0.1373082752664846,0.49918353655649117,-0.4185579561960587,0.4854305584552335,-0.17787813699250676,0.47298335466664737,-0.26544725834271377
123,-0.13720673931847538,0.49919537895409494,-0.4184605831973061,0.485409419652314,-0.17795996888424823,0.4730063091031007,-0.26549839436117334
124,-0.13710684755533023,0.49920701338922063,-0.41836477231950747,0.4853886275848992,-0.17804050270651411,0.47302888054677233,-0.26554869508246504
125,-0.1370085603752731,0.4992184452445465,-0.4182704862771974,0.4853681737886715,-0.17811976909583135,0.4730510784778473,-0.26559818080328285
126,-0.13691183943776108,0.499229679719919,-0.41817768896194935,0.48534805007266163,-0.1781977977323628,0.4730729120669457,-0.26564687116815594
127,-0.13681664761368814,0.4992407218400022,-0.4180863453963003,0.4853282485083004,-0.17827461737692799,0.47309439018762867,-0.265694785195428
128,-0.13672294893792816,0.49925157646154983,-0.4179964216898228,0.4853087614189926,-0.17835025590631837,0.4731155214283029,-0.26574194130200574
129,-0.13663070856409185,0.4992622482803188,-0.4179078849972278,0.4852895813701833,-0.17842474034699685,0.47313631410356005,-0.2657883573269421
130,-0.13653989272137626,0.4992727418376466,-0.4178207034783903,0.48527070115989196,-0.1784980969072678,0.4731567762649793,-0.26583405055392023
131,-0.13645046867339564,0.49928306152670987,-0.4177348462601966,0.4852521138096861,-0.1785703510079984,0.47317691571142406,-0.26587903773269395
132,-0.13636240467888905,0.49929321159848283,-0.41765028340011395,0.48523381255607284,-0.17864152731196567,0.4731967399988588,-0.2659233350995445
133,-0.13627566995420395,0.49930319616741153,-0.4175669858513965,0.4852157908422852,-0.17871164975190112,0.47321625644971377,-0.2659669583968032
134,-0.13619023463746485,0.49931301921682036,-0.4174849254298397,0.485198042310442,-0.17878074155730003,0.4732354721618198,-0.2660099228914897
135,-0.1361060697543374,0.49932268460406487,-0.4174040747820043,0.48518056079406235,-0.17884882528005794,0.47325439401693725,-0.2660522433931149
136,-0.1360231471853075,0.4993321960654437,-0.41732440735483417,0.48516334031091507,-0.178915922818994,0.47327302868889914,-0.2660939342706868
137,-0.13594143963439687,0.499341557220885,-0.4172458973665991,0.48514637505618746,-0.17898205544331747,0.4732913826513901,-0.26613500946896584
138,-0.1358609205992417,0.49935077157841684,-0.4171685197790923,0.4851296593959545,-0.17904724381508916,0.4733094621853796,-0.26617548252400536
139,-0.13578156434246666,0.499359842538435,-0.4170922502710228,0.4851131878609352,-0.17911150801072845,0.4733272733862265,-0.26621536657801315
140,-0.1357033458642883,0.4993687733977764,-0.41701706521254217,0.4850969551405218,-0.17917486754161344,0.47334482217047125,-0.2662546743935699
141,-0.13562624087628752,0.4993775673536113,-0.41694294164084905,0.485080956077064,-0.17923734137381642,0.47336211428233466,-0.2662934183672367
142,-0.13555022577629283,0.4993862275071612,-0.4168698572368197,0.485065185660402,-0.1792989479470194,0.4733791552999338,-0.26633161054258037
143,-0.13547527762431993,0.4993947568672521,-0.41679779030261377,0.48504963902262993,-0.17935970519264702,0.4733959506412318,-0.26636926262264754
144,-0.13540137411951658,0.4994031583537127,-0.4167267197402088,0.4850343114330818,-0.17941963055125512,0.47341250556973463,-0.2664063859819132
145,-0.13532849357806356,0.4994114348006236,-0.41665662503081785,0.4850191982935281,-0.17947874098921107,0.4734288251999466,-0.26644299167772917
146,-0.13525661491198612,0.4994195889594261,-0.416587486215149,0.48500429513357274,-0.17953705301469783,0.4734449145025965,-0.26647909046129903
147,-0.13518571760883225,0.4994276235018979,-0.41651928387446757,0.4849895976062408,-0.17959458269307463,0.4734607783096452,-0.2665146927881976
148,-0.13511578171217725,0.49943554102299903,-0.4164519991124205,0.48497510148374684,-0.1796513456616244,0.4734764213190869,-0.2665498088284632
149,-0.13504678780291476,0.4994433440436014,-0.41638561353759074,0.4849608026534377,-0.17970735714371472,0.4734918480995517,-0.2665844484762752
150,-0.13497871698129818,0.4994510350130999,-0.4163201092467444,0.48494669711389865,-0.17976263196240122,0.47350706309472035,-0.2666186213592452
151,-0.1349115508496974,0.49945861631191624,-0.41625546880874276,0.48493278097121734,-0.17981718455349802,0.47352207062756,-0.26665233684733186
152,-0.13484527149603792,0.4994660902538971,-0.41619167524908407,0.4849190504353971,-0.1798710289781394,0.4735368749043883,-0.2666856040614015
153,-0.1347798614778908,0.49947345908861496,-0.4161287120350495,0.48490550181691233,-0.17992417893485516,0.47355148001877534,-0.26671843188145006
154,-0.1347153038071842,0.49948072500357377,-0.4160665630614256,0.48489213152340127,-0.1799766477711831,0.4735658899552908,-0.26675082895450103
155,-0.13465158193550783,0.4994878901263249,-0.416005212636776,0.484878936056487,-0.180028448494837,0.47358010859310085,-0.26678280370219504
156,-0.13458867973998453,0.49949495652649617,-0.41594464547023957,0.4848659120087245,-0.18007959378445182,0.473594139709426,-0.26681436432808486
157,-0.1345265815096823,0.4995019262177425,-0.4158848466588297,0.4848530560606635,-0.18013009599992327,0.4736079869828624,-0.26684551882464774
158,-0.13446527193254432,0.4995088011596151,-0.4158258016752149,0.48484036497802635,-0.1801799671923602,0.473621653996575,-0.2668762749800303
159,-0.13440473608281275,0.4995155832593598,-0.4157674963559578,0.48482783560899334,-0.18022921911366682,0.47363514424136777,-0.26690664038453665
160,-0.1343449594089258,0.4995222743736411,-0.4157099168901927,0.48481546488159066,-0.18027786322576939,0.4736484611186357,-0.26693662243686883
161,-0.13428592772186645,0.499528876310201,-0.4156530498087246,0.484803249801178,-0.1803259107095047,0.473661607943205,-0.2669662283501354
162,-0.13422762718394401,0.4995353908294526,-0.4155968819735285,0.48479118744802935,-0.18037337247318308,0.4736745879460653,-0.2669954651576326
163,-0.13417004429798954,0.4995418196460125,-0.4155414005676353,0.4847792749750051,-0.18042025916084,0.4736874042770002,-0.2670243397184131
164,-0.13411316589694725,0.4995481644301736,-0.4154865930853842,0.48476750960530923,-0.1804665811601908,0.47370006000711784,-0.2670528587226472
165,-0.13405697913384587,0.49955442680932166,-0.41543244732302975,0.4847558886303307,-0.18051234861029825,0.47371255813128926,-0.2670810286967889
166,-0.13400147147213262,0.4995606083692981,-0.41537895136968583,0.4847444094075623,-0.1805575714089683,0.47372490157049635,-0.2671088560085521
167,-0.1339466306763558,0.4995667106557125,-0.41532609359859435,0.48473306935859645,-0.18060225921988196,0.47373709317409257,-0.2671363468717079
168,-0.13389244480318063,0.4995727351752043,-0.4152738626587036,0.48472186596719286,-0.18064642147947652,0.4737491357219824,-0.2671635073507076
169,-0.13383890219272507,0.4995786833966581,-0.4152222474665451,0.4847107967774157,-0.1806900674035855,0.473761031926722,-0.26719034336514075
170,-0.13378599146020193,0.4995845567523742,-0.4151712371983959,0.4846998593918378,-0.18073320599384685,0.47377278443554266,-0.26721686069403455
171,-0.133733701487855,0.4995903566391955,-0.4151208212827141,0.48468905146980806,-0.18077584604388905,0.4737843958323037,-0.2672430649800008
172,-0.1336820214171771,0.49959608441959397,-0.4150709893928384,0.4846783707257806,-0.18081799614530475,0.4737958686393745,-0.26726896173323716
173,-0.1336309406413986,0.49960174142271674,-0.4150217314399374,0.48466781492770244,-0.1808596646934184,0.4738072053194504,-0.2672945563353883
174,-0.13358044879823566,0.4996073289453938,-0.4149730375662047,0.48465738189545693,-0.18090085989285923,0.47381840827730526,-0.26731985404327185
175,-0.1335305357628876,0.4996128482531121,-0.41492489813828226,0.48464706949936215,-0.18094158976294392,0.4738294798614812,-0.2673448599924779
176,-0.1334811916412736,0.49961830058095147,-0.4148773037409108,0.4846368756587202,-0.18098186214287884,0.473840422365921,-0.26736957920084214
177,-0.13343240676349907,0.49962368713448957,-0.41483024517079187,0.4846267983404173,-0.18102168469678748,0.47385123803154355,-0.26739401657180106
178,-0.13338417167754293,0.4996290090906737,-0.4147837134306575,0.48461683555757046,-0.18106106491857096,0.47386192904776553,-0.2674181768976339
179,-0.1333364771431569,0.4996342675986624,-0.41473769972353663,0.4846069853682212,-0.18110001013660718,0.47387249755396965,-0.2674420648625944
180,-0.1332893141259684,0.49963946378063784,-0.4146921954472138,0.48459724587407227,-0.18113852751829537,0.4738829456409249,-0.26746568504593715
181,-0.13324267379177954,0.49964459873258965,-0.41464719218886886,0.48458761521926774,-0.1811766240744516,0.4738932753521574,-0.26748904192484246
182,-0.13319654750105486,0.4996496735250719,-0.41460268171989356,0.4845780915892131,-0.18121430666356106,0.47390348868527604,-0.26751213987724526
183,-0.13315092680358948,0.4996546892039334,-0.4145586559908776,0.48456867320943453,-0.1812515819958926,0.4739135875932526,-0.2675349831845688
184,-0.13310580343335215,0.49965964679102415,-0.41451510712675727,0.48455935834447666,-0.18128845663748092,0.4739235739856611,-0.2675575760343702
185,-0.1330611693034952,0.49966454728487686,-0.41447202742212086,0.48455014529683527,-0.18132493701398025,0.47393344972987456,-0.2675799225228978
186,-0.13301701650152678,0.4996693916613663,-0.4144294093366647,0.4845410324059255,-0.18136102941439622,0.47394321665222294,-0.26760202665756655
187,-0.13297333728463748,0.4996741808743448,-0.41438724549079536,0.4845320180470834,-0.18139673999469827,0.4739528765391134,-0.26762389235935313
188,-0.1329301240751768,0.49967891585625945,-0.41434552866137053,0.48452310063059983,-0.18143207478131906,0.47396243113811415,-0.2676455234651134
189,-0.1328873694562737,0.4996835975187456,-0.41430425177757524,0.4845142786007855,-0.18146703967454306,0.47397188215900293,-0.2676669237298261
190,-0.13284506616759556,0.49968822675320274,-0.41426340791692795,0.4845055504350654,-0.18150164045179024,0.4739812312747814,-0.2676880968287652
191,-0.13280320710124027,0.4996928044313504,-0.41422299030141096,0.4844969146431022,-0.18153588277079674,0.4739904801226582,-0.2677090463596036
192,-0.13276178529775792,0.4996973314057674,-0.4141829922937219,0.4844883697659474,-0.18156977217269848,0.4739996303049998,-0.26772977584445007
193,-0.1327207939422956,0.49970180851041146,-0.4141434073936418,0.4844799143752197,-0.18160331408501884,0.47400868339025076,-0.26775028873182233
194,-0.132680226360862,0.49970623656112356,-0.41410422923451334,0.48447154707230805,-0.1816365138245654,0.47401764091382675,-0.2677705883985596
195,-0.13264007601670713,0.49971061635611536,-0.41406545157982927,0.4844632664875999,-0.1816693766002385,0.47402650437897786,-0.26779067815167473
196,-0.1326003365068134,0.4997149486764411,-0.4140270683199232,0.48445507127973364,-0.1817019075157547,0.47403527525762557,-0.2678105612301496
197,-0.13256100155849315,0.49971923428645476,-0.4139890734687611,0.48444696013487415,-0.1817341115722882,0.47404395499117363,-0.2678302408066755
198,-0.13252206502609057,0.49972347393425265,-0.41395146116083137,0.4844389317660092,-0.18176599367103322,0.4740525449912946,-0.26784971998934026
199,-0.13248352088778168,0.499727668352101,-0.41391422564812563,0.48443098491226966,-0.18179755861568947,0.4740610466406913,-0.2678690018232639
200,-0.13244536324247227,0.4997318182568522,-0.41387736129721203,0.484423118338268,-0.18182881111487437,0.47406946129383537,-0.26788808929218605
201,-0.13240758630678756,0.49973592435034614,-0.41384086258639385,0.48441533083345817,-0.1818597557844636,0.47407779027768343,-0.2679069853200031
202,-0.13237018441215162,0.49973998731980057,-0.4138047241029543,0.484407621211514,-0.18189039714986335,0.47408603489237144,-0.2679256927722622
203,-0.1323331520019534,0.49974400783818795,-0.41376894054048025,0.4843999883097266,-0.18192073964821562,0.4740941964118883,-0.2679442144576087
204,-0.13229648362879642,0.49974798656460184,-0.4137335066962658,0.4843924309884195,-0.1819507876305393,0.4741022760847292,-0.2679625531291917
205,-0.13226017395182896,0.49975192414461134,-0.4136984174687915,0.48438494813038085,-0.18198054536380964,0.47411027513452936,-0.26798071148602803
206,-0.13222421773415227,0.49975582121060586,-0.4136636678552761,0.48437753864031285,-0.1820100170329777,0.47411819476067957,-0.2679986921743262
207,-0.13218860984030384,0.4997596783821279,-0.4136292529492994,0.484370201444297,-0.18203920674293142,0.47412603613892207,-0.2680164977887708
208,-0.13215334523381364,0.4997634962661969,-0.4135951679384934,0.48436293548927467,-0.1820681185204011,0.4741338004219314,-0.2680341308737711
209,-0.13211841897483084,0.49976727545762306,-0.4135614081023001,0.4843557397425429,-0.18209675631581068,0.4741414887398754,-0.26805159392467276
210,-0.13208382621781797,0.49977101653931216,-0.41352796880979187,0.4843486131912658,-0.18212512400507627,0.4741491022009623,-0.26806888938893436
211,-0.13204956220931116,0.4997747200825598,-0.41349484551755467,0.4843415548419979,-0.18215322539135495,0.4741566418919707,-0.2680860196672704
212,-0.13201562228574384,0.4997783866473398,-0.4134620337676307,0.48433456372022266,-0.18218106420674343,0.4741641088787644,-0.2681029871147625
213,-0.1319820018713318,0.4997820167825807,-0.4134295291855186,0.48432763886990393,-0.18220864411392998,0.47417150420679294,-0.26811979404193803
214,-0.1319486964760177,0.4997856110264376,-0.4133973274782298,0.4843207793530499,-0.18223596870780068,0.4741788289015769,-0.2681364427158186
215,-0.13191570169347303,0.4997891699065534,-0.41336542443239843,0.48431398424928923,-0.18226304151700057,0.4741860839691812,-0.26815293536093915
216,-0.1318830131991559,0.49979269394031306,-0.41333381591244533,0.48430725265545854,-0.1822898660054526,0.47419327039667303,-0.2681692741603393
217,-0.1318506267484224,0.49979618363509204,-0.41330249785878936,0.48430058368520373,-0.18231644557383456,0.47420038915256774,-0.26818546125652526
218,-0.13181853817468986,0.499799639488496,-0.4132714662861113,0.48429397646858896,-0.1823427835610156,0.4742074411872625,-0.268201498752407
219,-0.13178674338765112,0.49980306198859337,-0.41324071728166223,0.48428743015171877,-0.1823688832454546,0.47421442743345776,-0.2682173887122082
220,-0.1317552383715371,0.49980645161414383,-0.4132102470036205,0.48428094389637066,-0.1823947478465597,0.47422134880656674,-0.26823313316235187
221,-0.13172401918342688,0.4998098088348163,-0.41318005167949184,0.4842745168796365,-0.18242038052601173,0.47422820620511347,-0.26824873409232214
222,-0.13169308195160329,0.49981313411140543,-0.41315012760455133,0.48426814829357445,-0.18244578438905254,0.4742350005111205,-0.268264193455501
223,-0.13166242287395324,0.49981642789603764,-0.41312047114033035,0.48426183734487,-0.1824709624857385,0.4742417325904855,-0.26827951316998466
224,-0.13163203821641084,0.4998196906323742,-0.4130910787131405,0.48425558325450674,-0.18249591781216093,0.47424840329334794,-0.26829469511937576
225,-0.1316019243114414,0.49982292275580836,-0.4130619468126394,0.4842493852574457,-0.18252065331163433,0.47425501345444526,-0.2683097411535555
226,-0.13157207755656733,0.49982612469365595,-0.4130330719904328,0.4842432426023129,-0.18254517187585328,0.47426156389346014,-0.2683246530894351
227,-0.13154249441293134,0.4998292968653409,-0.4130044508587146,0.4842371545510961,-0.18256947634601908,0.4742680554153583,-0.2683394327116867
228,-0.13151317140389887,0.49983243968257696,-0.4129760800889417,0.48423112037884825,-0.18259356951393682,0.4742744888107161,-0.26835408177345554
229,-0.1314841051136964,0.49983555354954307,-0.41294795641054394,0.48422513937340034,-0.18261745412308447,0.4742808648560414,-0.2683686019970526
230,-0.13145529218608562,0.49983863886305435,-0.41292007660966756,0.4842192108350809,-0.18264113286965375,0.4742871843140841,-0.2683829950746299
231,-0.13142672932307223,0.49984169601272965,-0.41289243752795124,0.48421333407644285,-0.18266460840356455,0.4742934479341399,-0.2683972626688375
232,-0.131398413283648,0.4998447253811515,-0.412865036061333,0.4842075084219974,-0.18268788332945324,0.47429965645234495,-0.26841140641346345
233,-0.13137034088256533,0.4998477273440262,-0.41283786915888937,0.4842017332079561,-0.18271096020763591,0.4743058105919632,-0.2684254279140579
234,-0.13134250898914354,0.49985070227033485,-0.4128109338217023,0.48419600778197774,-0.182733841555047,0.4743119110636668,-0.2684393287485398
235,-0.13131491452610522,0.4998536505224844,-0.41278422710175633,0.48419033150292284,-0.18275652984615381,0.47431795856580805,-0.26845311046778936
236,-0.13128755446844256,0.49985657245645265,-0.41275774610086285,0.4841847037406139,-0.18277902751384892,0.47432395378468584,-0.26846677459622414
237,-0.1312604258423124,0.49985946842192935,-0.41273148796961234,0.48417912387560297,-0.18280133695031903,0.4743298973948035,-0.2684803226323614
238,-0.13123352572395922,0.49986233876245456,-0.41270544990635144,0.4841735912989435,-0.18282346050789333,0.47433579005912113,-0.2684937560493657
239,-0.1312068512386651,0.4998651838155526,-0.4126796291561883,0.48416810541196864,-0.18284540049986972,0.47434163242930183,-0.2685070762955828
240,-0.1311803995597259,0.4998680039128637,-0.41265402301001963,0.4841626656260758,-0.18286715920132102,0.47434742514595085,-0.26852028479506024
241,-0.1311541679074533,0.49987079938026935,-0.41262862880358436,0.48415727136251574,-0.18288873884988122,0.4743531688388486,-0.26853338294805434
242,-0.13112815354820131,0.49987357053801845,-0.4126034439165389,0.48415192205218704,-0.1829101416465122,0.4743588641271785,-0.2685463721315254
243,-0.13110235379341717,0.49987631770084723,-0.4125784657715565,0.4841466171354361,-0.1829313697562525,0.4743645116197489,-0.2685592536996195
244,-0.13107676599871523,0.49987904117809745,-0.412553691833448,0.4841413560618617,-0.18295242530894648,0.4743701119152088,-0.2685720289841403
245,-0.13105138756297394,0.49988174127383045,-0.41252911960830424,0.48413613829012503,-0.18297331039995707,0.47437566560225924,-0.26858469929500617
246,-0.13102621592745467,0.4998844182869399,-0.41250474664265924,0.4841309632877632,-0.1829940270908604,0.4743811732598588,-0.2685972659206992
247,-0.13100124857494216,0.49988707251126047,-0.4124805705226738,0.4841258305310088,-0.18301457741012422,0.4743866354574241,-0.2686097301287016
248,-0.13097648302890547,0.49988970423567425,-0.41245658887333886,0.48412073950461226,-0.18303496335376954,0.4743920527550254,-0.2686220931659214
249,-0.13095191685267973,0.4998923137442144,-0.41243279935769794,0.48411568970167024,-0.1830551868860171,0.474397425703577,-0.2686343562591085
250,-0.13092754764866696,0.49989490131616593,-0.41240919967608713,0.4841106806234566,-0.1830752499399181,0.4744027548450248,-0.26864652061526006
251,-0.13090337305755662,0.4998974672261648,-0.41238578756539557,0.484105711779259,-0.1830951544179698,0.47440804071252635,-0.26865858742201715
252,-0.1308793907575641,0.49990001174429366,-0.41236256079834127,0.4841007826862174,-0.18311490219271676,0.47441328383062925,-0.2686705578480502
253,-0.1308555984636878,0.49990253513617555,-0.41233951718276524,0.48409589286916876,-0.18313449510733834,0.47441848471544334,-0.2686824330434374
254,-0.13083199392698383,0.4999050376630653,-0.41231665456094146,0.4840910418604934,-0.18315393497622154,0.4744236438748102,-0.2686942141400316
255,-0.13080857493385742,0.4999075195819396,-0.41229397080890406,0.4840862291999665,-0.18317322358552143,0.4744287618084675,-0.2687059022518213
256,-0.13078533930537126,0.49990998114558244,-0.4122714638357894,0.4840814544346122,-0.18319236269370778,0.4744338390082105,-0.2687174984752805
257,-0.1307622848965698,0.4999124226026716,-0.41224913158319343,0.4840767171185615,-0.1832113540320996,0.47443887595804785,-0.26872900388971227
258,-0.13073940959581962,0.4999148441978611,-0.41222697202454456,0.48407201681291295,-0.18323019930538698,0.4744438731343569,-0.2687404195575835
259,-0.1307167113241647,0.49991724617186073,-0.41220498316449106,0.4840673530855981,-0.18324890019214116,0.47444883100603175,-0.2687517465248514
260,-0.13069418803469698,0.4999196287615167,-0.4121831630383012,0.4840627255112482,-0.18326745834531266,0.47445375003462986,-0.2687629858212835
261,-0.13067183771194119,0.49992199219988914,-0.4121615097112794,0.4840581336710648,-0.18328587539271837,0.4744586306745154,-0.2687741384607694
262,-0.13064965837125378,0.4999243367163243,-0.4121400212781935,0.48405357715269404,-0.18330415293751742,0.47446347337299843,-0.2687852054416256
263,-0.13062764805823582,0.49992666253653145,-0.4121186958627163,0.48404905555010247,-0.18332229255867621,0.47446827857047164,-0.26879618774689307
264,-0.13060580484815887,0.4999289698826525,-0.41209753161687956,0.48404456846345684,-0.18334029581142305,0.47447304670054213,-0.26880708634462885
265,-0.13058412684540424,0.4999312589733328,-0.4120765267205405,0.48404011549900616,-0.18335816422769258,0.47447777819016346,-0.26881790218819046
266,-0.13056261218291482,0.4999335300237893,-0.41205567938085974,0.48403569626896586,-0.1833758993165602,0.4744824734597609,-0.2688286362165131
267,-0.13054125902165922,0.4999357832458772,-0.41203498783179127,0.484031310391406,-0.18339350256466702,0.4744871329233568,-0.2688392893543819
268,-0.13052006555010776,0.4999380188481558,-0.41201445033358364,0.484026957490141,-0.1834109754366349,0.47449175698869134,-0.26884986251269777
269,-0.1304990299837205,0.4999402370359511,-0.41199406517229314,0.48402263719462185,-0.18342831937547266,0.4744963460573416,-0.2688603565887361
270,-0.13047815056444637,0.4999424380114195,-0.41197383065930654,0.4840183491398307,-0.18344553580297357,0.474500900524837,-0.2688707724664012
271,-0.13045742556023368,0.49994462197360756,-0.4119537451308746,0.4840140929661787,-0.18346262612010342,0.4745054207807733,-0.2688811110164744
272,-0.13043685326455126,0.49994678911851154,-0.41193380694765674,0.4840098683194045,-0.1834795917073806,0.47450990720892233,-0.26889137309685635
273,-0.13041643199592018,0.49994893963913595,-0.4119140144942746,0.48400567485047735,-0.1834964339252479,0.4745143601873419,-0.2689015595528046
274,-0.1303961600974556,0.49995107372554987,-0.41189436617887615,0.4840015122154994,-0.18351315411443592,0.47451878008848003,-0.26891167121716536
275,-0.13037603593641903,0.4999531915649428,-0.41187486043270854,0.4839973800756128,-0.18352975359631896,0.47452316727927984,-0.2689217089106011
276,-0.13035605790378005,0.49995529334167804,-0.41185549570970115,0.48399327809690684,-0.18354623367326278,0.4745275221212802,-0.2689316734418117
277,-0.13033622441378745,0.4999573792373473,-0.4118362704860568,0.48398920595032874,-0.18356259562896565,0.47453184497071466,-0.26894156560775206
278,-0.1303165339035499,0.4999594494308207,-0.41181718325985234,0.4839851633115948,-0.18357884072879113,0.4745361361786087,-0.2689513861938443
279,-0.13029698483262536,0.49996150409829887,-0.41179823255064724,0.48398114986110524,-0.18359497022009447,0.47454039609087456,-0.2689611359741862
280,-0.1302775756826197,0.49996354341336147,-0.41177941689910125,0.4839771652838591,-0.18361098533254167,0.47454462504840367,-0.2689708157117536
281,-0.13025830495679347,0.4999655675470157,-0.4117607348665995,0.4839732092693727,-0.18362688727842208,0.4745488233871573,-0.26898042615860035
282,-0.1302391711796776,0.4999675766677448,-0.4117421850348861,0.4839692815115978,-0.18364267725295427,0.47455299143825574,-0.268989968056053
283,-0.13022017289669652,0.49996957094155337,-0.4117237660057054,0.48396538170884373,-0.1836583564345853,0.47455712952806456,-0.2689994421348999
284,-0.1302013086737998,0.49997155053201253,-0.4117054764004502,0.48396150956369977,-0.18367392598528387,0.4745612379782806,-0.26900884911557993
285,-0.13018257709710157,0.49997351560030484,-0.41168731485981813,0.483957664782959,-0.18368938705082752,0.4745653171060136,-0.26901818970836333
286,-0.13016397677252717,0.4999754663052679,-0.4116692800434754,0.4839538470775452,-0.18370474076108337,0.4745693672238691,-0.269027464613532
287,-0.1301455063254674,0.4999774028034359,-0.4116513706297258,0.48395005616243936,-0.1837199882302834,0.474573388640027,-0.26903667452155283
288,-0.13012716440044023,0.49997932524908084,-0.4116335853151893,0.48394629175660975,-0.18373513055729415,0.47457738165832036,-0.26904582011325034
289,-0.1301089496607589,0.4999812337942548,-0.4116159228144852,0.48394255358294164,-0.1837501688258806,0.4745813465783108,-0.2690549020599737
290,-0.13009086078820764,0.4999831285888286,-0.41159838185992287,0.48393884136816945,-0.18376510410496444,0.4745852836953647,-0.2690639210237614
291,-0.13007289648272352,0.4999850097805308,-0.4115809612011974,0.48393515484281063,-0.18377993744887763,0.4745891933007245,-0.26907287765750176
292,-0.13005505546208526,0.4999868775149855,-0.41156365960509417,0.48393149374109984,-0.18379466989761017,0.47459307568158204,-0.26908177260509086
293,-0.13003733646160803,0.49998873193575005,-0.41154647585519655,0.4839278578009253,-0.18380930247705346,0.47459693112114776,-0.26909060650158595
294,-0.13001973823384488,0.49999057318435136,-0.4115294087516017,0.4839242467637664,-0.18382383619923817,0.47460075989871964,-0.269099379973358
295,-0.1300022595482938,0.4999924014003215,-0.41151245711064055,0.48392066037463205,-0.18383827206256756,0.4746045622897505,-0.2691080936382385
296,-0.1299848991911113,0.49999421672123306,-0.4114956197646052,0.4839170983820009,-0.18385261105204614,0.4746083385659139,-0.26911674810566477
297,-0.1299676559648315,0.4999960192827328,-0.4114788955614797,0.4839135605377625,-0.18386685413950354,0.47461208899516893,-0.2691253439768225
298,-0.12995052868809026,0.49999780921857534,-0.41146228336467805,0.48391004659715914,-0.18388100228381418,0.474615813841823,-0.2691338818447843
299,-0.12993351619535629,0.4999995866606566,-0.4114457820527865,0.48390655631873064,-0.1838950564311125,0.4746195133665941,-0.26914236229464666
300,-0.12991661733666618,0.5000013517390449,-0.4114293905193112,0.4839030894642578,-0.18390901751500355,0.47462318782667173,-0.2691507859036631
301,-0.12989983097736585,0.5000031045820129,-0.4114131076724311,0.48389964579870864,-0.18392288645676982,0.4746268374757755,-0.26915915324137546
302,-0.12988315599785621,0.5000048453160688,-0.4113969324347553,0.4838962250901852,-0.18393666416557417,0.4746304625642145,-0.2691674648697419
303,-0.12986659129334452,0.5000065740659859,-0.41138086374308547,0.48389282710987186,-0.18395035153865794,0.4746340633389435,-0.2691757213432635
304,-0.12985013577360052,0.5000082909548326,-0.4113649005481836,0.4838894516319836,-0.18396394946153619,0.47463764004361947,-0.26918392320910617
305,-0.12983378836271708,0.5000099961040008,-0.4113490418145422,0.4838860984337164,-0.18397745880818825,0.4746411929186563,-0.26919207100722303
306,-0.12981754799887604,0.5000116896332357,-0.41133328652016177,0.48388276729519847,-0.18399088044124523,0.4746447222012784,-0.2692001652704719
307,-0.129801413634118,0.5000133716606618,-0.41131763365633084,0.48387945799944154,-0.18400421521217353,0.47464822812557345,-0.26920820652473176
308,-0.1297853842341174,0.5000150423028114,-0.41130208222741055,0.48387617033229424,-0.18401746396145469,0.474651710922544,-0.2692161952890164
309,-0.12976945877796123,0.5000167016746503,-0.41128663125062354,0.48387290408239564,-0.1840306275187623,0.4746551708201585,-0.2692241320755868
310,-0.12975363625793232,0.5000183498896051,-0.4112712797558471,0.48386965904112994,-0.184043706703135,0.4746586080434003,-0.26923201739005964
311,-0.12973791567929702,0.5000199870595884,-0.4112560267854102,0.4838664350025825,-0.18405670232314608,0.4746620228143163,-0.269239851731515
312,-0.1297222960600967,0.5000216132950233,-0.4112408713938941,0.48386323176349516,-0.18406961517707052,0.47466541535206586,-0.2692476355926023
313,-0.12970677643094328,0.5000232287048687,-0.4112258126479375,0.4838600491232249,-0.18408244605304824,0.4746687858729663,-0.26925536945964257
314,-0.12969135583481883,0.5000248333966437,-0.41121084962604443,0.48385688688370104,-0.1840951957292443,0.47467213459053903,-0.26926305381273025
315,-0.12967603332687888,0.5000264274764509,-0.41119598141839664,0.48385374484938437,-0.18410786497400636,0.47467546171555497,-0.26927068912583263
316,-0.1296608079742593,0.5000280110489992,-0.411181207126669,0.48385062282722685,-0.18412045454601897,0.47467876745607834,-0.2692782758668868
317,-0.12964567885588738,0.5000295842176271,-0.41116652586384883,0.48384752062663194,-0.184132965194455,0.4746820520175102,-0.26928581449789574
318,-0.12963064506229566,0.5000311470843251,-0.41115193675405787,0.4838444380594163,-0.18414539765912433,0.47468531560263044,-0.26929330547502184
319,-0.1296157056954403,0.5000326997497567,-0.411137438932379,0.4838413749397709,-0.1841577526706195,0.47468855841164015,-0.26930074924867875
320,-0.12960085986852182,0.500034242313282,-0.41112303154468466,0.48383833108422436,-0.18417003095045875,0.47469178064220163,-0.269308146263622
321,-0.12958610670580983,0.5000357748729756,-0.41110871374746916,0.4838353063116059,-0.18418223321122673,0.4746949824894793,-0.2693154969590376
322,-0.12957144534247086,0.5000372975256496,-0.4110944847076841,0.48383230044300946,-0.18419436015671203,0.4746981641461785,-0.26932280176862833
323,-0.12955687492439952,0.5000388103668733,-0.41108034360257734,0.4838293133017589,-0.18420641248204278,0.47470132580258406,-0.2693300611207
324,-0.12954239460805247,0.5000403134909926,-0.4110662896195337,0.4838263447133725,-0.1842183908738193,0.47470446764659874,-0.2693372754382441
325,-0.12952800356028585,0.5000418069911499,-0.41105232195591923,0.48382339450553014,-0.1842302960102444,0.47470758986377953,-0.2693444451390207
326,-0.12951370095819537,0.5000432909593029,-0.4110384398189299,0.4838204625080387,-0.18424212856125147,0.47471069263737486,-0.2693515706356389
327,-0.12949948598895977,0.5000447654862434,-0.41102464242543996,0.4838175485528001,-0.18425388918863014,0.4747137761483599,-0.2693586523356358
328,-0.12948535784968626,0.5000462306616165,-0.41101092900185504,0.4838146524737788,-0.1842655785461495,0.4747168405754719,-0.2693656906415544
329,-0.12947131574726026,0.5000476865739371,-0.4109972987839679,0.4838117741069705,-0.18427719727967948,0.47471988609524474,-0.2693726859510197
330,-0.12945735889819612,0.5000491333106085,-0.4109837510168166,0.4838089132903713,-0.18428874602730946,0.47472291288204216,-0.2693796386568137
331,-0.1294434865284921,0.5000505709579408,-0.41097028495454485,0.48380606986394686,-0.1843002254194656,0.47472592110809225,-0.2693865491469489
332,-0.12942969787348715,0.5000519996011651,-0.410956899860265,0.48380324366960276,-0.18431163607902493,0.4747289109435186,-0.26939341780474024
333,-0.12941599217772012,0.500053419324453,-0.41094359500592387,0.4838004345511554,-0.18432297862142827,0.4747318825563733,-0.2694002450088765
334,-0.12940236869479224,0.5000548302109322,-0.4109303696721712,0.48379764235430284,-0.18433425365479106,0.474734836112668,-0.26940703113348924
335,-0.1293888266872314,0.5000562323427019,-0.4109172231482291,0.483794866926597,-0.18434546178001177,0.4747377717764047,-0.2694137765482215
336,-0.1293753654263591,0.5000576258008491,-0.410904154731765,0.4837921081174154,-0.18435660359087852,0.47474068970960626,-0.2694204816182951
337,-0.12936198419216013,0.5000590106654641,-0.41089116372876705,0.4837893657779339,-0.1843676796741745,0.47474359007234607,-0.269427146704576
338,-0.12934868227315358,0.5000603870156566,-0.4108782494534208,0.48378663976110076,-0.18437869060978027,0.4747464730227775,-0.2694337721636397
339,-0.12933545896626722,0.5000617549295692,-0.41086541122798886,0.4837839299216098,-0.1843896369707755,0.4747493387171618,-0.26944035834783386
340,-0.12932231357671375,0.5000631144843924,-0.4108526483826923,0.48378123611587376,-0.184400519323538,0.4747521873098973,-0.26944690560534207
341,-0.1293092454178687,0.5000644657563803,-0.41083996025559383,0.4837785582020006,-0.18441133822784153,0.47475501895354644,-0.26945341428024394
342,-0.12929625381115126,0.5000658088208627,-0.4108273461924837,0.48377589603976706,-0.18442209423695177,0.4747578337988634,-0.26945988471257626
343,-0.12928333808590672,0.5000671437522614,-0.4108148055467671,0.48377324949059536,-0.18443278789772094,0.47476063199482,-0.26946631723839176
344,-0.1292704975792911,0.5000684706241016,-0.4108023376793537,0.48377061841752805,-0.18444341975067985,0.4747634136886334,-0.2694727121898174
345,-0.1292577316361577,0.5000697895090266,-0.41078994195854945,0.48376800268520537,-0.18445399033012944,0.4747661790257904,-0.2694790698951114
346,-0.12924503960894573,0.5000711004788109,-0.41077761775994936,0.4837654021598411,-0.18446450016423013,0.47476892815007277,-0.26948539067871974
347,-0.129232420857571,0.5000724036043727,-0.41076536446633277,0.483762816709201,-0.18447494977508974,0.4747716612035838,-0.26949167486133113
348,-0.12921987474931815,0.5000736989557868,-0.4107531814675607,0.4837602462025791,-0.18448533967884992,0.474774378326771,-0.2694979227599311
349,-0.129207400658735,0.5000749866022973,-0.4107410681604744,0.4837576905107762,-0.18449567038577142,0.47477707965845084,-0.26950413468785556
350,-0.12919499796752867,0.5000762666123296,-0.4107290239487958,0.48375514950607834,-0.18450594240031706,0.47477976533583255,-0.26951031095484285
351,-0.12918266606446316,0.5000775390535028,-0.41071704824302924,0.4837526230622356,-0.1845161562212343,0.47478243549454063,-0.2695164518670856
352,-0.12917040434525928,0.5000788039926406,-0.4107051404603659,0.48375011105444066,-0.18452631234163594,0.4747850902686383,-0.26952255772728123
353,-0.12915821221249604,0.500080061495784,-0.4106933000245892,0.4837476133593088,-0.18453641124907902,0.4747877297906494,-0.2695286288346815
354,-0.1291460890755131,0.5000813116282022,-0.41068152636598154,0.4837451298548571,-0.18454645342564338,0.4747903541915808,-0.2695346654851413
355,-0.1291340343503161,0.500082554454404,-0.4106698189212334,0.48374266042048564,-0.18455643934800814,0.4747929636009441,-0.2695406679711673
356,-0.12912204745948233,0.5000837900381484,-0.4106581771333526,0.4837402049369565,-0.18456636948752697,0.47479555814677643,-0.26954663658196465
357,-0.129110127832069,0.5000850184424561,-0.4106466004515774,0.48373776328637597,-0.18457624431030253,0.47479813795566167,-0.2695525716034833
358,-0.12909827490352224,0.5000862397296205,-0.41063508833128815,0.48373533535217467,-0.18458606427725915,0.47480070315275086,-0.2695584733184643
359,-0.12908648811558804,0.5000874539612163,-0.41062364023392284,0.4837329210190893,-0.18459582984421466,0.47480325386178257,-0.2695643420064839
360,-0.12907476691622494,0.5000886611981115,-0.410612255626893,0.48373052017314494,-0.18460554146195096,0.47480579020510294,-0.26957017794399857
361,-0.12906311075951737,0.5000898615004766,-0.4106009339835007,0.4837281327016363,-0.18461519957628306,0.4748083123036844,-0.2695759814043876
362,-0.12905151910559143,0.5000910549277963,-0.4105896747828578,0.4837257584931104,-0.18462480462812791,0.4748108202771458,-0.2695817526579966
363,-0.12903999142053107,0.5000922415388759,-0.4105784775098059,0.4837233974373494,-0.18463435705357079,0.4748133142437711,-0.2695874919721785
364,-0.1290285271762966,0.5000934213918543,-0.41056734165483766,0.4837210494253531,-0.18464385728393173,0.4748157943205275,-0.26959319961133554
365,-0.12901712585064354,0.5000945945442116,-0.41055626671401946,0.4837187143493228,-0.18465330574583036,0.47481826062308397,-0.26959887583695974
366,-0.12900578692704381,0.5000957610527792,-0.41054525218891585,0.4837163921026446,-0.18466270286124983,0.47482071326582903,-0.26960452090767273
367,-0.12899450989460748,0.500096920973748,-0.4105342975865144,0.4837140825798726,-0.1846720490475992,0.47482315236188927,-0.2696101350792653
368,-0.12898329424800617,0.5000980743626782,-0.410523402419152,0.4837117856767132,-0.1846813447177759,0.4748255780231452,-0.26961571860473543
369,-0.12897213948739744,0.5000992212745079,-0.410512566204443,0.48370950129001006,-0.18469059028022608,0.4748279903602494,-0.26962127173432643
370,-0.12896104511835066,0.5001003617635615,-0.41050178846520746,0.48370722931772786,-0.18469978613900442,0.4748303894826433,-0.2696267947155652
371,-0.12895001065177408,0.5001014958835589,-0.4104910687294016,0.4837049696589374,-0.18470893269383326,0.4748327754985735,-0.269632287793298
372,-0.12893903560384268,0.5001026236876225,-0.4104804065300488,0.4837027222138006,-0.1847180303401602,0.4748351485151078,-0.26963775120972727
373,-0.12892811949592756,0.5001037452282877,-0.4104698014051711,0.48370048688355627,-0.1847270794692155,0.4748375086381515,-0.2696431852044465
374,-0.1289172618545266,0.5001048605575082,-0.4104592528977237,0.4836982635705047,-0.1847360804680676,0.4748398559724628,-0.269648590014476
375,-0.1289064622111958,0.5001059697266668,-0.41044876055552826,0.48369605217799416,-0.18474503371967874,0.4748421906216688,-0.26965396587429713
376,-0.12889572010248185,0.500107072786581,-0.41043832393120894,0.48369385261040654,-0.18475393960295922,0.47484451268828026,-0.2696593130158855
377,-0.12888503506985613,0.5001081697875119,-0.41042794258212834,0.48369166477314357,-0.18476279849282068,0.4748468222737069,-0.2696646316687459
378,-0.12887440665964917,0.5001092607791717,-0.41041761607032545,0.4836894885726139,-0.18477161076022877,0.4748491194782721,-0.26966992205994356
379,-0.12886383442298666,0.5001103458107311,-0.41040734396245343,0.48368732391621877,-0.18478037677225498,0.4748514044012269,-0.26967518441413724
380,-0.12885331791572624,0.5001114249308264,-0.41039712582971954,0.48368517071233946,-0.18478909689212766,0.4748536771407649,-0.2696804189536109
381,-0.12884285669839507,0.5001124981875664,-0.41038696124782525,0.48368302887032405,-0.1847977714792818,0.4748559377940362,-0.26968562589830497
382,-0.128832450336129,0.5001135656285401,-0.41037684979690764,0.4836808983004753,-0.18480640088940903,0.47485818645716105,-0.2696908054658475
383,-0.12882209839861203,0.5001146273008245,-0.41036679106148133,0.4836787789140372,-0.18481498547450578,0.47486042322524324,-0.26969595787158346
384,-0.1288118004600172,0.5001156832509894,-0.4103567846303815,0.48367667062318326,-0.18482352558292126,0.47486264819238416,-0.2697010833286059
385,-0.12880155609894803,0.5001167335251061,-0.41034683009670864,0.4836745733410046,-0.1848320215594045,0.4748648614516952,-0.2697061820477842
386,-0.12879136489838125,0.5001177781687529,-0.4103369270577726,0.4836724869814975,-0.18484047374515114,0.4748670630953114,-0.26971125423779374
387,-0.1287812264456099,0.5001188172270218,-0.4103270751150383,0.48367041145955164,-0.18484888247784834,0.474869253214404,-0.2697163001051443
388,-0.12877114033218814,0.5001198507445264,-0.41031727387407346,0.483668346690939,-0.18485724809172044,0.4748714318991926,-0.2697213198542077
389,-0.128761106153876,0.5001208787654053,-0.41030752294449374,0.48366629259230165,-0.18486557091757289,0.47487359923895794,-0.26972631368724526
390,-0.12875112351058537,0.5001219013333317,-0.410297821939913,0.4836642490811414,-0.18487385128283623,0.4748757553220543,-0.2697312818044357
391,-0.12874119200632708,0.5001229184915167,-0.4102881704778914,0.4836622160758085,-0.1848820895116083,0.47487790023592075,-0.2697362244039014
392,-0.12873131124915835,0.5001239302827172,-0.41027856817988506,0.48366019349549033,-0.18489028592469725,0.47488003406709345,-0.26974114168173474
393,-0.12872148085113136,0.5001249367492417,-0.41026901467119675,0.4836581812602016,-0.18489844083966292,0.47488215690121754,-0.26974603383202406
394,-0.12871170042824243,0.5001259379329555,-0.41025950958092744,0.4836561792907723,-0.18490655457085756,0.474884268823058,-0.2697509010468793
395,-0.128701969600382,0.500126933875286,-0.41025005254192715,0.4836541875088387,-0.1849146274294668,0.474886369916511,-0.2697557435164569
396,-0.1286922879912853,0.5001279246172297,-0.4102406431907495,0.48365220583683305,-0.18492265972354896,0.4748884602646157,-0.269760561428985
397,-0.12868265522848418,0.5001289101993571,-0.41023128116760366,0.48365023419797265,-0.18493065175807438,0.4748905399495643,-0.2697653549707875
398,-0.12867307094325905,0.5001298906618187,-0.41022196611630934,0.4836482725162503,-0.18493860383496413,0.47489260905271324,-0.26977012432630815
399,-0.128663534770592,0.5001308660443493,-0.4102126976842509,0.48364632071642494,-0.1849465162531277,0.4748946676545934,-0.2697748696781342
400,-0.12865404634912028,0.5001318363862748,-0.41020347552233355,0.48364437872401156,-0.18495438930850083,0.4748967158349213,-0.2697795912070194
401,-0.12864460532109087,0.5001328017265156,-0.41019429928493895,0.48364244646527205,-0.18496222329408238,0.4748987536726087,-0.26978428909190755
402,-0.1286352113323155,0.5001337621035946,-0.41018516862988263,0.48364052386720546,-0.18497001849997027,0.47490078124577273,-0.26978896350995485
403,-0.12862586403212622,0.500134717555639,-0.4101760832183709,0.4836386108575388,-0.18497777521339764,0.4749027986317464,-0.2697936146365521
404,-0.12861656307333186,0.500135668120388,-0.4101670427149594,0.48363670736471914,-0.18498549371876813,0.4749048059070878,-0.26979824264534635
405,-0.12860730811217497,0.5001366138351964,-0.4101580467875114,0.4836348133179028,-0.18499317429769038,0.4749068031475899,-0.2698028477082631
406,-0.1285980988082897,0.5001375547370391,-0.4101490951071574,0.4836329286469481,-0.18500081722901252,0.4749087904282911,-0.26980742999552726
407,-0.12858893482465994,0.5001384908625177,-0.4101401873482552,0.4836310532824059,-0.1850084227888559,0.4749107678234828,-0.2698119896756842
408,-0.12857981582757802,0.500139422247863,-0.41013132318835005,0.4836291871555115,-0.18501599125064827,0.47491273540671985,-0.2698165269156202
409,-0.12857074148660458,0.5001403489289418,-0.41012250230813546,0.48362733019817555,-0.18502352288515647,0.4749146932508297,-0.2698210418805833
410,-0.1285617114745283,0.500141270941259,-0.41011372439141613,0.4836254823429768,-0.18503101796051885,0.4749166414279205,-0.2698255347342025
411,-0.12855272546732696,0.5001421883199648,-0.41010498912506865,0.48362364352315296,-0.18503847674227705,0.47491858000939124,-0.26983000563850884
412,-0.12854378314412834,0.5001431010998574,-0.4100962961990054,0.48362181367259355,-0.18504589949340738,0.4749205090659392,-0.2698344547539533
413,-0.12853488418717207,0.5001440093153873,-0.41008764530613734,0.48361999272583106,-0.18505328647435146,0.47492242866756923,-0.2698388822394273
414,-0.12852602828177234,0.5001449130006627,-0.4100790361423376,0.48361818061803385,-0.18506063794304733,0.474924338883602,-0.2698432882522813
415,-0.12851721511628034,0.5001458121894534,-0.41007046840640654,0.4836163772849981,-0.18506795415495858,0.47492623978268256,-0.26984767294834267
416,-0.1285084443820481,0.5001467069151944,-0.4100619418000362,0.48361458266314045,-0.1850752353631048,0.47492813143278806,-0.269852036481935
417,-0.12849971577339228,0.5001475972109901,-0.41005345602777543,0.48361279668949,-0.18508248181809012,0.47493001390123657,-0.26985637900589593
418,-0.12849102898755863,0.50014848310962,-0.4100450107969966,0.4836110193016817,-0.18508969376813225,0.47493188725469426,-0.2698607006715948
419,-0.12848238372468693,0.5001493646435398,-0.410036605817861,0.48360925043794895,-0.18509687145909082,0.47493375155918416,-0.2698650016289503
420,-0.1284737796877768,0.5001502418448875,-0.4100282408032863,0.48360749003711573,-0.18510401513449518,0.4749356068800927,-0.26986928202644794
421,-0.1284652165826534,0.5001511147454871,-0.41001991546891353,0.4836057380385903,-0.18511112503557212,0.4749374532821783,-0.269873542011157
422,-0.12845669411793395,0.500151983376852,-0.41001162953307535,0.48360399438235785,-0.18511820140127283,0.4749392908295788,-0.26987778172874727
423,-0.12844821200499484,0.5001528477701881,-0.4100033827167636,0.483602259008974,-0.1851252444682997,0.4749411195858188,-0.2698820013235064
424,-0.12843976995793882,0.5001537079563987,-0.4099951747435985,0.4836005318595578,-0.1851322544711329,0.4749429396138165,-0.2698862009383549
425,-0.12843136769356314,0.5001545639660877,-0.40998700533979765,0.48359881287578466,-0.18513923164205634,0.4749447509758916,-0.2698903807148635
426,-0.12842300493132772,0.5001554158295634,-0.4099788742341456,0.4835971019998808,-0.18514617621118315,0.47494655373377215,-0.2698945407932686
427,-0.12841468139332382,0.5001562635768415,-0.4099707811579636,0.48359539917461614,-0.18515308840648104,0.4749483479486011,-0.26989868131248784
428,-0.1284063968042437,0.5001571072376494,-0.4099627258450803,0.4835937043432974,-0.1851599684537973,0.4749501336809438,-0.2699028024101359
429,-0.1283981508913496,0.5001579468414291,-0.4099547080318025,0.48359201744976293,-0.18516681657688336,0.474951910990795,-0.2699069042225393
430,-0.12838994338444448,0.5001587824173406,-0.40994672745688643,0.48359033843837596,-0.18517363299741915,0.47495367993758447,-0.2699109868847517
431,-0.12838177401584216,0.5001596139942656,-0.409938783861509,0.48358866725401817,-0.18518041793503692,0.474955440580185,-0.2699150505305685
432,-0.12837364252033812,0.50016044160081,-0.40993087698924047,0.48358700384208414,-0.18518717160734482,0.47495719297691785,-0.2699190952925421
433,-0.12836554863518107,0.5001612652653091,-0.4099230065860162,0.4835853481484753,-0.1851938942299502,0.47495893718555976,-0.26992312130199553
434,-0.12835749210004466,0.500162085015828,-0.40991517240010983,0.48358370011959384,-0.18520058601648257,0.4749606732633488,-0.2699271286890371
435,-0.12834947265699928,0.5001629008801679,-0.40990737418210654,0.48358205970233714,-0.1852072471786162,0.4749624012669913,-0.26993111758257426
436,-0.12834149005048479,0.5001637128858663,-0.40989961168487626,0.4835804268440921,-0.1852138779260922,0.4749641212526675,-0.2699350881103278
437,-0.1283335440272834,0.5001645210602018,-0.40989188466354787,0.4835788014927293,-0.18522047846674108,0.4749658332760374,-0.26993904039884437
438,-0.12832563433649252,0.5001653254301967,-0.40988419287548294,0.4835771835965975,-0.18522704900650397,0.47496753739224795,-0.26994297457351113
439,-0.1283177607294989,0.5001661260226206,-0.40987653608025076,0.48357557310451843,-0.18523358974945425,0.47496923365593763,-0.2699468907585687
440,-0.1283099229599523,0.5001669228639918,-0.40986891403960374,0.48357396996578106,-0.1852401008978187,0.4749709221212428,-0.269950789077124
441,-0.12830212078373962,0.5001677159805824,-0.40986132651745133,0.4835723741301367,-0.18524658265199834,0.4749726028418037,-0.2699546696511631
442,-0.12829435395895994,0.5001685053984194,-0.40985377327983735,0.483570785547793,-0.18525303521058864,0.47497427587076974,-0.26995853260156416
443,-0.1282866222458994,0.5001692911432876,-0.40984625409491443,0.48356920416940974,-0.1852594587704004,0.4749759412608052,-0.26996237804811035
444,-0.12827892540700628,0.5001700732407339,-0.4098387687329211,0.4835676299460929,-0.1852658535264794,0.4749775990640946,-0.26996620610950134
445,-0.128271263206867,0.5001708517160683,-0.40983131696615793,0.4835660628293898,-0.18527221967212604,0.47497924933234886,-0.26997001690336603
446,-0.12826363541218197,0.5001716265943681,-0.40982389856896584,0.4835645027712846,-0.18527855739891516,0.47498089211680977,-0.2699738105462746
447,-0.1282560417917419,0.5001723979004791,-0.409816513317701,0.48356294972419295,-0.1852848668967149,0.47498252746825576,-0.2699775871537506
448,-0.12824848211640472,0.5001731656590193,-0.4098091609907142,0.48356140364095707,-0.1852911483537059,0.47498415543700706,-0.2699813468402818
449,-0.12824095615907188,0.5001739298943819,-0.40980184136832815,0.4835598644748416,-0.18529740195640002,0.47498577607293074,-0.26998508971933294
450,-0.12823346369466637,0.5001746906307363,-0.40979455423281486,0.483558332179528,-0.18530362788965848,0.4749873894254462,-0.2699888159033564
451,-0.12822600450010982,0.5001754478920324,-0.4097872993683753,0.4835568067091106,-0.18530982633671061,0.47498899554352936,-0.2699925255038036
452,-0.1282185783543005,0.5001762017020015,-0.40978007656111737,0.48355528801809206,-0.18531599747917124,0.47499059447571845,-0.26999621863113615
453,-0.12821118503809142,0.5001769520841599,-0.40977288559903474,0.48355377606137795,-0.1853221414970589,0.4749921862701184,-0.26999989539483693
454,-0.12820382433426897,0.5001776990618103,-0.4097657262719867,0.48355227079427326,-0.185328258568813,0.4749937709744062,-0.2700035559034204
455,-0.1281964960275313,0.5001784426580457,-0.40975859837167744,0.48355077217247755,-0.18533434887131134,0.47499534863583476,-0.27000720026444447
456,-0.12818919990446756,0.5001791828957509,-0.40975150169163543,0.48354928015208076,-0.18534041257988712,0.4749969193012386,-0.2700108285845196
457,-0.12818193575353723,0.5001799197976043,-0.40974443602719424,0.48354779468955894,-0.18534644986834545,0.4749984830170376,-0.2700144409693196
458,-0.12817470336504966,0.5001806533860812,-0.4097374011754718,0.4835463157417695,-0.18535246090898055,0.4750000398292422,-0.27001803752359294
459,-0.12816750253114367,0.5001813836834555,-0.4097303969353523,0.4835448432659479,-0.18535844587259154,0.47500158978345774,-0.2700216183511712
460,-0.12816033304576796,0.500182110711802,-0.4097234231074661,0.4835433772197031,-0.18536440492849898,0.4750031329248887,-0.2700251835549806
461,-0.12815319470466113,0.5001828344929989,-0.4097164794941712,0.48354191756101333,-0.1853703382445608,0.47500466929834334,-0.2700287332370507
462,-0.1281460873053327,0.5001835550487299,-0.4097095658995344,0.4835404642482221,-0.18537624598718783,0.4750061989482376,-0.27003226749852494
463,-0.12813901064704344,0.500184272400486,-0.4097026821293128,0.4835390172400345,-0.1853821283213596,0.47500772191860036,-0.27003578643966963
464,-0.12813196453078704,0.5001849865695674,-0.4096958279909356,0.4835375764955131,-0.18538798541063986,0.4750092382530765,-0.270039290159884
465,-0.1281249487592709,0.5001856975770871,-0.4096890032934866,0.48353614197407424,-0.18539381741719102,0.4750107479949318,-0.27004277875770893
466,-0.12811796313689816,0.5001864054439716,-0.4096822078476862,0.483534713635484,-0.18539962450178993,0.4750122511870566,-0.27004625233083684
467,-0.12811100746974935,0.5001871101909631,-0.40967544146587354,0.4835332914398545,-0.18540540682384218,0.4750137478719702,-0.27004971097612057
468,-0.12810408156556433,0.5001878118386216,-0.40966870396198973,0.4835318753476405,-0.18541116454139697,0.4750152380918248,-0.27005315478958175
469,-0.12809718523372482,0.5001885104073273,-0.4096619951515606,0.48353046531963534,-0.18541689781116116,0.4750167218884095,-0.27005658386642084
470,-0.12809031828523673,0.5001892059172822,-0.40965531485167966,0.4835290613169671,-0.1854226067885138,0.47501819930315387,-0.27005999830102484
471,-0.128083480532713,0.5001898983885121,-0.4096486628809919,0.4835276633010962,-0.18542829162751995,0.47501967037713216,-0.2700633981869769
472,-0.12807667179035653,0.5001905878408686,-0.409642039059677,0.4835262712338102,-0.1854339524809449,0.47502113515106714,-0.2700667836170641
473,-0.12806989187394333,0.5001912742940309,-0.40963544320943357,0.4835248850772219,-0.18543958950026734,0.4750225936653333,-0.27007015468328616
474,-0.12806314060080584,0.5001919577675076,-0.40962887515346297,0.4835235047937646,-0.18544520283569316,0.47502404595996156,-0.270073511476864
475,-0.1280564177898167,0.5001926382806382,-0.4096223347164527,0.48352213034618957,-0.18545079263616895,0.4750254920746415,-0.2700768540882474
476,-0.12804972326137234,0.5001933158525964,-0.40961582172456223,0.48352076169756236,-0.1854563590493947,0.47502693204872626,-0.27008018260712396
477,-0.12804305683737732,0.5001939905023897,-0.4096093360054067,0.4835193988112595,-0.1854619022218371,0.47502836592123576,-0.27008349712242613
478,-0.1280364183412281,0.5001946622488634,-0.4096028773880414,0.4835180416509651,-0.18546742229874272,0.47502979373085985,-0.27008679772234007
479,-0.12802980759779767,0.5001953311107004,-0.4095964457029481,0.48351669018066845,-0.18547291942414998,0.4750312155159624,-0.27009008449431293
480,-0.1280232244334204,0.5001959971064239,-0.40959004078201877,0.4835153443646595,-0.1854783937409023,0.4750326313145836,-0.2700933575250606
481,-0.12801666867587644,0.5001966602543994,-0.40958366245854183,0.48351400416752666,-0.18548384539066007,0.47503404116444514,-0.27009661690057524
482,-0.12801014015437662,0.5001973205728361,-0.4095773105671875,0.4835126695541534,-0.18548927451391298,0.47503544510295165,-0.2700998627061335
483,-0.1280036386995482,0.5001979780797873,-0.4095709849439928,0.4835113404897154,-0.18549468124999222,0.4750368431671955,-0.27010309502630303
484,-0.1279971641434197,0.5001986327931546,-0.40956468542634855,0.4835100169396769,-0.18550006573708233,0.47503823539395906,-0.2701063139449502
485,-0.12799071631940662,0.5001992847306871,-0.40955841185298497,0.4835086988697885,-0.1855054281122329,0.4750396218197184,-0.2701095195452479
486,-0.12798429506229717,0.5001999339099845,-0.4095521640639578,0.48350738624608386,-0.1855107685113702,0.4750410024806466,-0.2701127119096818
487,-0.12797790020823807,0.5002005803484975,-0.4095459419006345,0.48350607903487675,-0.18551608706930878,0.4750423774126164,-0.2701158911200579
488,-0.12797153159472074,0.5002012240635312,-0.4095397452056814,0.4835047772027579,-0.1855213839197627,0.4750437466512038,-0.2701190572575092
489,-0.12796518906056747,0.5002018650722441,-0.40953357382305033,0.4835034807165929,-0.18552665919535677,0.47504511023169105,-0.2701222104025034
490,-0.1279588724459178,0.500202503391652,-0.40952742759796484,0.48350218954351837,-0.18553191302763763,0.47504646818906887,-0.2701253506348489
491,-0.12795258159221512,0.5002031390386281,-0.40952130637690837,0.4835009036509404,-0.18553714554708475,0.4750478205580408,-0.2701284780337014
492,-0.12794631634219347,0.5002037720299052,-0.4095152100076103,0.4834996230065304,-0.1855423568831211,0.4750491673730252,-0.2701315926775715
493,-0.12794007653986422,0.5002044023820759,-0.40950913833903435,0.48349834757822396,-0.18554754716412378,0.4750505086681584,-0.2701346946443306
494,-0.12793386203050344,0.5002050301115958,-0.40950309122136525,0.4834970773342168,-0.18555271651743482,0.4750518444772979,-0.2701377840112172
495,-0.1279276726606388,0.500205655234784,-0.4094970685059972,0.48349581224296273,-0.18555786506937144,0.4750531748340244,-0.27014086085484423
496,-0.1279215082780371,0.5002062777678243,-0.4094910700455211,0.48349455227317123,-0.18556299294523623,0.4750544997716456,-0.270143925251204
497,-0.12791536873169185,0.5002068977267672,-0.40948509569371266,0.4834932973938043,-0.1855681002693274,0.4750558193231984,-0.2701469772756759
498,-0.12790925387181093,0.5002075151275309,-0.4094791453055209,0.4834920475740747,-0.185573187164949,0.47505713352145174,-0.27015001700303143
499,-0.1279031635498041,0.5002081299859023,-0.4094732187370558,0.4834908027834427,-0.18557825375442047,0.4750584423989091,-0.2701530445074409
500,-0.12789709761827145,0.5002087423175394,-0.40946731584557716,0.4834895629916135,-0.18558330015908692,0.47505974598781187,-0.27015605986247954
501,-0.12789105593099107,0.5002093521379716,-0.40946143648948313,0.4834883281685359,-0.18558832649932827,0.47506104432014123,-0.2701590631411331
502,-0.12788503834290757,0.5002099594626018,-0.40945558052829834,0.48348709828439845,-0.18559333289456936,0.47506233742762116,-0.27016205441580377
503,-0.12787904471012054,0.5002105643067073,-0.4094497478226637,0.4834858733096282,-0.18559831946328897,0.47506362534172086,-0.27016503375831635
504,-0.1278730748898728,0.5002111666854401,-0.4094439382343239,0.48348465321488765,-0.18560328632302953,0.47506490809365737,-0.27016800123992396
505,-0.12786712874053924,0.5002117666138305,-0.4094381516261185,0.4834834379710721,-0.185608233590406,0.4750661857143981,-0.2701709569313132
506,-0.12786120612161544,0.5002123641067859,-0.409432387861969,0.48348222754930875,-0.1856131613811153,0.47506745823466323,-0.2701739009026098
507,-0.12785530689370703,0.5002129591790937,-0.4094266468068696,0.48348102192095305,-0.18561806980994505,0.4750687256849287,-0.2701768332233853
508,-0.1278494309185183,0.5002135518454218,-0.4094209283268764,0.48347982105758647,-0.18562295899078268,0.4750699880954278,-0.27017975396266114
509,-0.12784357805884158,0.5002141421203202,-0.4094152322890964,0.4834786249310154,-0.18562782903662425,0.4750712454961538,-0.2701826631889147
510,-0.12783774817854654,0.5002147300182209,-0.40940955856167766,0.483477433513268,-0.18563268005958317,0.47507249791686307,-0.2701855609700847
511,-0.12783194114256988,0.5002153155534417,-0.4094039070137993,0.4834762467765919,-0.18563751217089858,0.475073745387076,-0.2701884473735763
512,-0.1278261568169043,0.5002158987401839,-0.40939827751566144,0.4834750646934527,-0.18564232548094414,0.47507498793608083,-0.27019132246626654
513,-0.12782039506858878,0.5002164795925369,-0.4093926699384744,0.48347388723653134,-0.18564712009923612,0.47507622559293505,-0.2701941863145088
514,-0.12781465576569817,0.5002170581244771,-0.40938708415444997,0.4834727143787225,-0.1856518961344419,0.475077458386468,-0.27019703898413916
515,-0.12780893877733313,0.5002176343498694,-0.40938152003679124,0.48347154609313203,-0.18565665369438852,0.47507868634528266,-0.27019988054048066
516,-0.12780324397361015,0.5002182082824687,-0.4093759774596828,0.483470382353075,-0.18566139288606998,0.47507990949775863,-0.270202711048348
517,-0.12779757122565166,0.500218779935921,-0.4093704562982817,0.4834692231320738,-0.18566611381565581,0.4750811278720538,-0.270205530572053
518,-0.12779192040557658,0.5002193493237641,-0.4093649564287078,0.483468068403856,-0.18567081658849913,0.4750823414961063,-0.27020833917540954
519,-0.12778629138649034,0.5002199164594292,-0.40935947772803455,0.4834669181423525,-0.18567550130914395,0.475083550397637,-0.27021113692173776
520,-0.1277806840424757,0.500220481356241,-0.40935402007428,0.4834657723216956,-0.1856801680813334,0.47508475460415184,-0.27021392387386955
521,-0.12777509824858313,0.5002210440274197,-0.40934858334639723,0.4834646309162168,-0.18568481700801723,0.4750859541429432,-0.2702167000941527
522,-0.12776953388082163,0.5002216044860825,-0.409343167424266,0.4834634939004452,-0.18568944819135938,0.4750871490410926,-0.27021946564445615
523,-0.12776399081614956,0.5002221627452427,-0.4093377721886839,0.48346236124910524,-0.1856940617327453,0.47508833932547245,-0.2702222205861735
524,-0.12775846893246567,0.500222718817812,-0.4093323975213569,0.4834612329371151,-0.18569865773278957,0.47508952502274826,-0.2702249649802289
525,-0.1277529681085998,0.5002232727166018,-0.40932704330489145,0.483460108939585,-0.1857032362913433,0.47509070615938015,-0.2702276988870806
526,-0.12774748822430454,0.5002238244543232,-0.40932170942278573,0.4834589892318149,-0.18570779750750085,0.47509188276162573,-0.2702304223667258
527,-0.12774202916024605,0.5002243740435887,-0.40931639575942075,0.483457873789293,-0.18571234147960763,0.47509305485554065,-0.2702331354787046
528,-0.12773659079799538,0.5002249214969129,-0.40931110220005296,0.483456762587694,-0.18571686830526682,0.47509422246698196,-0.270235838282105
529,-0.12773117302002024,0.5002254668267132,-0.409305828630805,0.4834556556028771,-0.18572137808134628,0.47509538562160936,-0.27023853083556687
530,-0.1277257757096762,0.5002260100453116,-0.409300574938658,0.48345455281088445,-0.1857258709039857,0.47509654434488696,-0.270241213197286
531,-0.12772039875119862,0.5002265511649351,-0.4092953410114437,0.48345345418793956,-0.1857303468686033,0.47509769866208545,-0.2702438854250184
532,-0.12771504202969416,0.5002270901977156,-0.4092901267378358,0.4834523597104449,-0.18573480606990242,0.4750988485982834,-0.2702465475760847
533,-0.12770970543113255,0.5002276271556924,-0.4092849320073426,0.48345126935498095,-0.18573924860187863,0.47509999417836984,-0.2702491997073739
534,-0.12770438884233873,0.5002281620508121,-0.4092797567102994,0.48345018309830445,-0.185743674557826,0.4751011354270454,-0.2702518418753476
535,-0.12769909215098463,0.5002286948949305,-0.40927460073786026,0.48344910091734644,-0.18574808403034374,0.4751022723688246,-0.27025447413604425
536,-0.1276938152455814,0.5002292256998121,-0.4092694639819904,0.4834480227892107,-0.18575247711134243,0.47510340502803716,-0.27025709654508234
537,-0.12768855801547155,0.500229754477132,-0.40926434633545916,0.48344694869117205,-0.18575685389205085,0.47510453342882997,-0.2702597091576653
538,-0.12768332035082128,0.500230281238476,-0.40925924769183186,0.483445878600675,-0.18576121446302202,0.4751056575951687,-0.27026231202858464
539,-0.1276781021426126,0.5002308059953422,-0.40925416794546293,0.4834448124953322,-0.18576555891413946,0.4751067775508398,-0.270264905212224
540,-0.12767290328263603,0.5002313287591417,-0.4092491069914886,0.4834437503529228,-0.18576988733462316,0.47510789331945164,-0.27026748876256307
541,-0.12766772366348292,0.500231849541199,-0.4092440647258192,0.4834426921513907,-0.1857741998130362,0.4751090049244367,-0.2702700627331813
542,-0.12766256317853839,0.5002323683527532,-0.40923904104513276,0.4834416378688431,-0.18577849643729022,0.4751101123890527,-0.27027262717726164
543,-0.12765742172197356,0.5002328852049578,-0.40923403584686735,0.4834405874835493,-0.1857827772946521,0.4751112157363847,-0.2702751821475937
544,-0.1276522991887385,0.5002334001088837,-0.40922904902921403,0.4834395409739388,-0.18578704247174904,0.4751123149893464,-0.2702777276965783
545,-0.12764719547455525,0.5002339130755173,-0.4092240804911109,0.4834384983186,-0.18579129205457492,0.4751134101706817,-0.27028026387623
546,-0.12764211047591045,0.5002344241157637,-0.40921913013223493,0.48343745949627853,-0.1857955261284961,0.47511450130296695,-0.27028279073818123
547,-0.12763704409004867,0.5002349332404454,-0.409214197852996,0.48343642448587637,-0.1857997447782568,0.4751155884086114,-0.27028530833368636
548,-0.12763199621496518,0.5002354404603045,-0.40920928355453057,0.4834353932664502,-0.18580394808798512,0.47511667150985915,-0.27028781671362384
549,-0.1276269667493993,0.5002359457860036,-0.4092043871386939,0.48343436581720944,-0.18580813614119832,0.4751177506287911,-0.2702903159285009
550,-0.12762195559282757,0.500236449228125,-0.4091995085080548,0.4834333421175154,-0.18581230902080859,0.475118825787326,-0.27029280602845573
551,-0.12761696264545702,0.5002369507971728,-0.40919464756588825,0.48343232214687937,-0.18581646680912833,0.4751198970072224,-0.27029528706326195
552,-0.12761198780821859,0.5002374505035726,-0.4091898042161693,0.4834313058849626,-0.18582060958787572,0.4751209643100793,-0.2702977590823313
553,-0.12760703098276058,0.5002379483576737,-0.4091849783635672,0.4834302933115731,-0.18582473743818015,0.47512202771733836,-0.2703002221347169
554,-0.1276020920714422,0.5002384443697485,-0.4091801699134385,0.4834292844066656,-0.18582885044058708,0.4751230872502851,-0.2703026762691172
555,-0.1275971709773271,0.5002389385499935,-0.4091753787718208,0.4834282791503396,-0.18583294867506386,0.47512414293005,-0.2703051215338778
556,-0.1275922676041768,0.5002394309085307,-0.40917060484542733,0.4834272775228386,-0.18583703222100453,0.4751251947776105,-0.27030755797699624
557,-0.12758738185644497,0.5002399214554072,-0.4091658480416403,0.4834262795045481,-0.1858411011572349,0.4751262428137918,-0.27030998564612424
558,-0.12758251363927084,0.5002404102005966,-0.409161108268505,0.4834252850759951,-0.18584515556201803,0.47512728705926843,-0.2703124045885706
559,-0.12757766285847302,0.5002408971539991,-0.4091563854347242,0.48342429421784616,-0.1858491955130588,0.47512832753456613,-0.2703148148513049
560,-0.12757282942054368,0.500241382325443,-0.4091516794496521,0.4834233069109065,-0.1858532210875091,0.4751293642600626,-0.2703172164809601
561,-0.12756801323264227,0.5002418657246851,-0.4091469902232883,0.48342232313611877,-0.1858572323619727,0.47513039725598855,-0.2703196095238357
562,-0.12756321420258993,0.5002423473614102,-0.40914231766627235,0.4834213428745616,-0.18586122941251024,0.47513142654243,-0.27032199402590096
563,-0.12755843223886312,0.5002428272452336,-0.4091376616898779,0.4834203661074485,-0.1858652123146437,0.47513245213932875,-0.2703243700327974
564,-0.1275536672505882,0.5002433053857005,-0.4091330222060072,0.48341939281612695,-0.18586918114336143,0.4751334740664839,-0.2703267375898421
565,-0.12754891914753558,0.500243781792287,-0.4091283991271856,0.4834184229820769,-0.18587313597312277,0.47513449234355337,-0.27032909674203004
566,-0.12754418784011395,0.500244256474401,-0.40912379236655616,0.4834174565869091,-0.18587707687786298,0.47513550699005463,-0.27033144753403743
567,-0.12753947323936465,0.5002447294413819,-0.4091192018378733,0.4834164936123653,-0.1858810039309972,0.4751365180253667,-0.27033379001022456
568,-0.1275347752569561,0.5002452007025021,-0.40911462745549887,0.48341553404031573,-0.1858849172054256,0.4751375254687307,-0.2703361242146383
569,-0.12753009380517852,0.5002456702669674,-0.40911006913439574,0.4834145778527587,-0.18588881677353772,0.4751385293392511,-0.27033845019101543
570,-0.12752542879693804,0.5002461381439175,-0.409105526790123,0.48341362503181917,-0.18589270270721675,0.4751395296558976,-0.27034076798278417
571,-0.12752078014575166,0.5002466043424271,-0.4091010003388305,0.4834126755597481,-0.18589657507784438,0.4751405264375056,-0.2703430776330683
572,-0.12751614776574177,0.5002470688715047,-0.4090964896972539,0.48341172941892063,-0.18590043395630468,0.47514151970277774,-0.27034537918468876
573,-0.12751153157163075,0.5002475317400958,-0.4090919947827094,0.48341078659183545,-0.18590427941298862,0.47514250947028475,-0.2703476726801669
574,-0.1275069314787359,0.5002479929570816,-0.40908751551308903,0.4834098470611137,-0.18590811151779849,0.47514349575846726,-0.2703499581617269
575,-0.1275023474029643,0.50024845253128,-0.40908305180685495,0.48340891080949766,-0.185911930340152,0.47514447858563635,-0.2703522356712986
576,-0.1274977792608074,0.5002489104714466,-0.40907860358303544,0.48340797781985,-0.1859157359489863,0.47514545796997465,-0.2703545052505196
577,-0.12749322696933643,0.5002493667862747,-0.4090741707612188,0.48340704807515295,-0.18591952841276255,0.47514643392953765,-0.2703567669407379
578,-0.127488690446197,0.500249821484396,-0.40906975326155,0.4834061215585062,-0.18592330779946978,0.4751474064822551,-0.2703590207830147
579,-0.12748416960960404,0.5002502745743814,-0.4090653510047245,0.48340519825312744,-0.1859270741766287,0.47514837564593215,-0.27036126681812694
580,-0.12747966437833724,0.5002507260647415,-0.40906096391198443,0.4834042781423496,-0.1859308276112963,0.47514934143824916,-0.27036350508656926
581,-0.1274751746717361,0.5002511759639264,-0.4090565919051136,0.4834033612096213,-0.18593456817006937,0.4751503038767645,-0.270365735628557
582,-0.12747070040969488,0.5002516242803281,-0.40905223490643255,0.48340244743850536,-0.1859382959190885,0.47515126297891447,-0.27036795848402806
583,-0.12746624151265806,0.500252071022278,-0.4090478928387943,0.4834015368126774,-0.1859420109240422,0.4751522187620152,-0.27037017369264577
584,-0.12746179790161566,0.5002525161980506,-0.40904356562557964,0.4834006293159253,-0.18594571325017048,0.47515317124326256,-0.270372381293801
585,-0.12745736949809836,0.5002529598158615,-0.40903925319069284,0.48339972493214856,-0.1859494029622689,0.4751541204397344,-0.27037458132661435
586,-0.12745295622417308,0.5002534018838701,-0.40903495545855706,0.4833988236453567,-0.18595308012469228,0.47515506636839067,-0.27037677382993897
587,-0.12744855800243826,0.5002538424101778,-0.40903067235411,0.4833979254396683,-0.1859567448013584,0.47515600904607497,-0.27037895884236235
588,-0.1274441747560195,0.5002542814028305,-0.4090264038027989,0.48339703029931086,-0.18596039705575165,0.4751569484895154,-0.27038113640220873
589,-0.12743980640856484,0.5002547188698179,-0.4090221497305775,0.48339613820861893,-0.18596403695092678,0.47515788471532544,-0.2703833065475416
590,-0.12743545288424055,0.5002551548190743,-0.40901791006390054,0.4833952491520339,-0.18596766454951263,0.4751588177400047,-0.27038546931616536
591,-0.12743111410772673,0.5002555892584792,-0.4090136847297201,0.48339436311410255,-0.18597127991371548,0.47515974757994084,-0.2703876247456279
592,-0.1274267900042128,0.5002560221958581,-0.40900947365548157,0.48339348007947663,-0.18597488310532276,0.4751606742514091,-0.27038977287322297
593,-0.12742248049939334,0.5002564536389816,-0.4090052767691187,0.48339260003291173,-0.18597847418570657,0.47516159777057454,-0.2703919137359917
594,-0.12741818551946374,0.5002568835955675,-0.4090010939990505,0.48339172295926663,-0.1859820532158272,0.4751625181534923,-0.27039404737072553
595,-0.12741390499111616,0.5002573120732805,-0.4089969252741765,0.48339084884350175,-0.18598562025623638,0.4751634354161089,-0.2703961738139674
596,-0.12740963884153514,0.5002577390797325,-0.40899277052387306,0.48338997767067937,-0.1859891753670809,0.47516434957426285,-0.27039829310201496
597,-0.12740538699839365,0.5002581646224836,-0.40898862967798894,0.48338910942596147,-0.18599271860810582,0.4751652606436853,-0.27040040527092124
598,-0.12740114938984887,0.5002585887090419,-0.4089845026668417,0.4833882440946104,-0.18599625003865808,0.47516616864000194,-0.27040251035649804
599,-0.12739692594453822,0.5002590113468646,-0.4089803894212142,0.48338738166198686,-0.1859997697176896,0.4751670735787326,-0.2704046083943173
600,-0.12739271659157525,0.5002594325433579,-0.4089762898723496,0.48338652211354916,-0.18600327770376057,0.4751679754752932,-0.2704066994197128
601,-0.12738852126054603,0.5002598523058776,-0.40897220395194883,0.4833856654348533,-0.1860067740550428,0.4751688743449964,-0.27040878346778296
602,-0.1273843398815046,0.5002602706417292,-0.4089681315921656,0.48338481161155133,-0.1860102588293227,0.47516977020305157,-0.27041086057339214
603,-0.12738017238496965,0.50026068755817,-0.40896407272560353,0.48338396062939054,-0.18601373208400496,0.475170663064567,-0.27041293077117295
604,-0.12737601870192036,0.5002611030624065,-0.4089600272853122,0.48338311247421356,-0.18601719387611515,0.4751715529445501,-0.2704149940955279
605,-0.1273718787637928,0.5002615171615978,-0.40895599520478304,0.4833822671319562,-0.18602064426230303,0.47517243985790786,-0.2704170505806315
606,-0.1273677525024759,0.5002619298628544,-0.40895197641794634,0.48338142458864786,-0.18602408329884582,0.47517332381944843,-0.2704191002604318
607,-0.127363639850308,0.5002623411732382,-0.4089479708591671,0.48338058483040997,-0.1860275110416511,0.4751742048438813,-0.27042114316865307
608,-0.12735954074007286,0.5002627510997646,-0.4089439784632419,0.4833797478434559,-0.18603092754625977,0.47517508294581867,-0.27042317933879656
609,-0.1273554551049962,0.5002631596494016,-0.4089399991653953,0.48337891361408974,-0.18603433286784912,0.4751759581397756,-0.2704252088041435
610,-0.1273513828787423,0.5002635668290704,-0.40893603290127567,0.48337808212870564,-0.18603772706123597,0.47517683044017167,-0.27042723159775567
611,-0.12734732399540963,0.5002639726456459,-0.4089320796069524,0.4833772533737873,-0.1860411101808795,0.475177699861331,-0.2704292477524784
612,-0.12734327838952827,0.5002643771059574,-0.4089281392189124,0.4833764273359068,-0.18604448228088377,0.4751785664174833,-0.2704312573009416
613,-0.12733924599605556,0.5002647802167883,-0.40892421167405674,0.48337560400172425,-0.18604784341500136,0.4751794301227649,-0.2704332602755615
614,-0.12733522675037304,0.5002651819848769,-0.4089202969096969,0.4833747833579868,-0.18605119363663566,0.47518029099121933,-0.27043525670854274
615,-0.12733122058828322,0.5002655824169172,-0.408916394863552,0.48337396539152844,-0.1860545329988439,0.47518114903679787,-0.27043724663187985
616,-0.12732722744600564,0.5002659815195581,-0.4089125054737447,0.4833731500892684,-0.1860578615543397,0.47518200427336027,-0.2704392300773593
617,-0.12732324726017372,0.5002663792994055,-0.4089086286787987,0.4833723374382115,-0.18606117935549646,0.475182856714676,-0.27044120707656066
618,-0.12731927996783146,0.5002667757630205,-0.40890476441763507,0.4833715274254464,-0.1860644864543492,0.4751837063744249,-0.2704431776608587
619,-0.12731532550643,0.5002671709169219,-0.4089009126295694,0.4833707200381463,-0.1860677829025982,0.47518455326619735,-0.27044514186142493
620,-0.12731138381382448,0.5002675647675845,-0.4088970732543084,0.4833699152635664,-0.18607106875161128,0.4751853974034954,-0.2704470997092292
621,-0.12730745482827066,0.5002679573214409,-0.40889324623194634,0.483369113089045,-0.18607434405242618,0.4751862387997336,-0.2704490512350415
622,-0.12730353848842182,0.500268348584882,-0.4088894315029627,0.48336831350200177,-0.1860776088557536,0.4751870774682391,-0.27045099646943316
623,-0.12729963473332542,0.5002687385642567,-0.4088856290082187,0.4833675164899375,-0.1860808632119799,0.47518791342225347,-0.27045293544277876
624,-0.12729574350241998,0.5002691272658717,-0.4088818386889543,0.48336672204043335,-0.18608410717116908,0.47518874667493244,-0.2704548681852579
625,-0.12729186473553206,0.5002695146959929,-0.40887806048678493,0.4833659301411499,-0.18608734078306619,0.4751895772393467,-0.27045679472685635
626,-0.12728799837287297,0.5002699008608453,-0.40887429434369893,0.48336514077982745,-0.18609056409709926,0.47519040512848304,-0.2704587150973678
627,-0.1272841443550359,0.5002702857666134,-0.40887054020205416,0.4833643539442843,-0.18609377716238198,0.4751912303552442,-0.2704606293263953
628,-0.1272803026229927,0.5002706694194411,-0.4088667980045755,0.4833635696224166,-0.18609698002771632,0.47519205293245076,-0.2704625374433529
629,-0.127276473118091,0.500271051825433,-0.4088630676943517,0.48336278780219794,-0.18610017274159477,0.47519287287284095,-0.2704644394774674
630,-0.12727265578205132,0.5002714329906539,-0.4088593492148322,0.48336200847167826,-0.18610335535220301,0.47519369018907126,-0.2704663354577791
631,-0.1272688505569637,0.5002718129211293,-0.40885564250982476,0.48336123161898387,-0.18610652790742233,0.47519450489371756,-0.2704682254131441
632,-0.12726505738528512,0.5002721916228458,-0.4088519475234926,0.48336045723231613,-0.1861096904548317,0.4751953169992753,-0.27047010937223537
633,-0.1272612762098367,0.500272569101751,-0.4088482642003512,0.48335968529995155,-0.18611284304171058,0.47519612651816057,-0.2704719873635438
634,-0.12725750697380037,0.5002729453637552,-0.40884459248526583,0.48335891581024004,-0.18611598571504115,0.47519693346271025,-0.2704738594153809
635,-0.12725374962071642,0.5002733204147295,-0.40884093232344865,0.4833581487516058,-0.18611911852151028,0.47519773784518315,-0.27047572555587845
636,-0.12725000409448062,0.5002736942605079,-0.40883728366045613,0.4833573841125462,-0.18612224150751244,0.47519853967776016,-0.27047758581299136
637,-0.12724627033934138,0.5002740669068872,-0.4088336464421863,0.48335662188163053,-0.18612535471915156,0.4751993389725453,-0.27047944021449855
638,-0.12724254829989678,0.500274438359627,-0.40883002061487594,0.4833558620475003,-0.1861284582022434,0.4752001357415661,-0.2704812887880041
639,-0.12723883792109217,0.50027480862445,-0.40882640612509824,0.4833551045988683,-0.1861315520023181,0.47520092999677405,-0.2704831315609391
640,-0.1272351391482173,0.500275177707042,-0.40882280291976,0.483354349524518,-0.1861346361646217,0.47520172175004544,-0.270484968560563
641,-0.12723145192690374,0.5002755456130531,-0.40881921094609863,0.4833535968133031,-0.186137710734119,0.4752025110131818,-0.27048679981396384
642,-0.12722777620312187,0.5002759123480972,-0.4088156301516803,0.483352846454147,-0.18614077575549562,0.4752032977979109,-0.2704886253480613
643,-0.12722411192317865,0.5002762779177528,-0.4088120604843973,0.48335209843604227,-0.18614383127315992,0.4752040821158866,-0.27049044518960663
644,-0.1272204590337148,0.5002766423275631,-0.4088085018924644,0.48335135274804986,-0.18614687733124544,0.47520486397869,-0.2704922593651852
645,-0.12721681748170222,0.5002770055830358,-0.4088049543244181,0.4833506093792992,-0.18614991397361272,0.4752056433978297,-0.2704940679012162
646,-0.12721318721444155,0.5002773676896446,-0.4088014177291128,0.48334986831898674,-0.1861529412438517,0.4752064203847424,-0.2704958708239556
647,-0.12720956817955956,0.5002777286528278,-0.40879789205571887,0.48334912955637593,-0.1861559591852836,0.475207194950794,-0.27049766815949633
648,-0.12720596032500645,0.5002780884779897,-0.40879437725372014,0.4833483930807971,-0.18615896784096314,0.47520796710727925,-0.2704994599337696
649,-0.12720236359905351,0.5002784471705005,-0.40879087327291164,0.4833476588816464,-0.1861619672536803,0.47520873686542314,-0.2705012461725469
650,-0.1271987779502909,0.5002788047356974,-0.40878738006339654,0.4833469269483852,-0.18616495746596276,0.4752095042363808,-0.27050302690144024
651,-0.12719520332762455,0.500279161178883,-0.40878389757558525,0.4833461972705402,-0.18616793852007768,0.4752102692312382,-0.2705048021459043
652,-0.12719163968027458,0.5002795165053281,-0.40878042576019136,0.4833454698377022,-0.1861709104580337,0.4752110318610133,-0.27050657193123684
653,-0.12718808695777212,0.5002798707202689,-0.40877696456823015,0.48334474463952615,-0.18617387332158283,0.4752117921366554,-0.27050833628258053
654,-0.12718454510995733,0.5002802238289102,-0.40877351395101635,0.4833440216657304,-0.1861768271522227,0.47521255006904656,-0.27051009522492386
655,-0.127181014086977,0.5002805758364242,-0.4087700738601615,0.4833433009060961,-0.18617977199119815,0.475213305669002,-0.2705118487831021
656,-0.12717749383928212,0.5002809267479503,-0.40876664424757264,0.4833425823504672,-0.1861827078795033,0.4752140589472706,-0.2705135969817987
657,-0.12717398431762586,0.5002812765685967,-0.40876322506544843,0.48334186598874956,-0.1861856348578834,0.47521480991453485,-0.2705153398455471
658,-0.12717048547306073,0.5002816253034396,-0.40875981626627844,0.48334115181091086,-0.18618855296683687,0.47521555858141223,-0.27051707739873077
659,-0.1271669972569367,0.5002819729575236,-0.4087564178028401,0.48334043980697927,-0.18619146224661717,0.4752163049584551,-0.2705188096655846
660,-0.12716351962089886,0.5002823195358623,-0.40875302962819665,0.48333972996704394,-0.1861943627372343,0.4752170490561514,-0.2705205366701964
661,-0.12716005251688525,0.5002826650434387,-0.40874965169569544,0.48333902228125397,-0.1861972544784571,0.4752177908849253,-0.2705222584365081
662,-0.12715659589712444,0.5002830094852044,-0.40874628395896523,0.48333831673981864,-0.18620013750981476,0.47521853045513707,-0.2705239749883164
663,-0.12715314971413355,0.500283352866081,-0.4087429263719142,0.483337613333006,-0.1862030118705986,0.47521926777708473,-0.27052568634927415
664,-0.127149713920716,0.50028369519096,-0.40873957888872814,0.48333691205114293,-0.18620587759986415,0.4752200028610032,-0.2705273925428913
665,-0.1271462884699593,0.500284036464702,-0.408736241463868,0.48333621288461487,-0.18620873473643273,0.4752207357170654,-0.27052909359253596
666,-0.12714287331523308,0.5002843766921385,-0.4087329140520681,0.48333551582386514,-0.186211583318893,0.4752214663553831,-0.27053078952143583
667,-0.12713946841018667,0.5002847158780718,-0.4087295966083339,0.4833348208593945,-0.1862144233856031,0.47522219478600664,-0.2705324803526785
668,-0.12713607370874738,0.5002850540272743,-0.4087262890879402,0.48333412798176073,-0.18621725497469202,0.47522292101892566,-0.27053416610921366
669,-0.12713268916511825,0.5002853911444892,-0.4087229914464287,0.48333343718157806,-0.18622007812406166,0.47522364506407005,-0.2705358468138528
670,-0.12712931473377567,0.5002857272344319,-0.4087197036396064,0.48333274844951757,-0.18622289287138813,0.47522436693130954,-0.2705375224892713
671,-0.12712595036946805,0.5002860623017877,-0.4087164256235433,0.48333206177630517,-0.1862256992541238,0.47522508663045465,-0.270539193158009
672,-0.12712259602721315,0.5002863963512144,-0.4087131573545709,0.48333137715272295,-0.1862284973094986,0.4752258041712573,-0.2705408588424709
673,-0.12711925166229637,0.5002867293873405,-0.4087098987892801,0.48333069456960753,-0.18623128707452197,0.47522651956341094,-0.270542519564929
674,-0.1271159172302687,0.500287061414768,-0.408706649884519,0.48333001401785,-0.1862340685859843,0.475227232816551,-0.2705441753475223
675,-0.12711259268694472,0.5002873924380703,-0.40870341059739124,0.4833293354883963,-0.18623684188045872,0.4752279439402554,-0.2705458262122589
676,-0.12710927798840083,0.5002877224617929,-0.40870018088525395,0.4833286589722449,-0.18623960699430228,0.47522865294404526,-0.27054747218101594
677,-0.12710597309097305,0.5002880514904545,-0.40869696070571593,0.48332798446044867,-0.18624236396365834,0.47522935983738446,-0.2705491132755411
678,-0.1271026779512552,0.5002883795285465,-0.40869375001663605,0.4833273119441128,-0.18624511282445735,0.47523006462968087,-0.27055074951745317
679,-0.1270993925260972,0.500288706580533,-0.40869054877612104,0.4833266414143954,-0.18624785361241877,0.4752307673302868,-0.2705523809282437
680,-0.12709611677260285,0.5002890326508515,-0.4086873569425241,0.48332597286250645,-0.18625058636305256,0.4752314679484987,-0.27055400752927744
681,-0.12709285064812825,0.5002893577439129,-0.40868417447444255,0.483325306279708,-0.1862533111116608,0.47523216649355854,-0.27055562934179317
682,-0.12708959411027976,0.5002896818641019,-0.40868100133071655,0.48332464165731315,-0.18625602789333903,0.47523286297465334,-0.270557246386905
683,-0.1270863471169121,0.500290005015777,-0.40867783747042674,0.48332397898668644,-0.18625873674297797,0.4752335574009159,-0.27055885868560287
684,-0.127083109626127,0.5002903272032706,-0.40867468285289316,0.4833233182592428,-0.1862614376952648,0.4752342497814255,-0.270560466258754
685,-0.1270798815962708,0.5002906484308897,-0.40867153743767287,0.4833226594664476,-0.1862641307846848,0.47523494012520756,-0.2705620691271029
686,-0.12707666298593295,0.5002909687029146,-0.40866840118455894,0.4833220025998156,-0.18626681604552278,0.475235628441235,-0.27056366731127385
687,-0.12707345375394433,0.5002912880236012,-0.4086652740535782,0.4833213476509117,-0.1862694935118645,0.4752363147384278,-0.2705652608317694
688,-0.1270702538593753,0.5002916063971803,-0.4086621560049895,0.4833206946113498,-0.18627216321759799,0.4752369990256538,-0.27056684970897404
689,-0.12706706326153414,0.5002919238278568,-0.4086590469992824,0.4833200434727928,-0.18627482519641533,0.47523768131172883,-0.27056843396315255
690,-0.12706388191996498,0.5002922403198113,-0.40865594699717495,0.48331939422695147,-0.18627747948181378,0.47523836160541744,-0.27057001361445226
691,-0.1270607097944465,0.5002925558772,-0.4086528559596128,0.4833187468655853,-0.18628012610709724,0.4752390399154332,-0.2705715886829038
692,-0.12705754684499018,0.5002928705041539,-0.408649773847767,0.4833181013805014,-0.18628276510537764,0.4752397162504386,-0.27057315918842173
