epoch,Area,GDP,Inflation,Life.expect,Military,Pop.growth,Unemployment
init,0.7739560485559633,0.4388784397520523,0.8585979199113825,0.6973680290593639,0.09417734788764953,0.9756223516367559,0.761139701990353
0,4.853260587894102,-0.28271051616727094,0.3790935395221726,-1.2772258856265517,-2.446842426250282,-0.44751103127692543,-2.7951651596482483
1,-0.6587746093549407,0.801003535262047,0.887129774163004,0.8682609482297655,1.525009502228396,-1.0800250322291745,1.2096814944548453
2,0.9758035756597835,-0.41202808020584286,0.5851970613623517,-1.0368304301182574,-0.5193009707342584,0.018456634717793113,-0.997094659828433
3,-0.39144743635915336,0.5022091460190045,-0.5840470543263792,0.342458385573688,-0.5548733409354388,0.3979059832291745,-0.5638683394618145
4,-0.6881794458567561,0.3793031751281963,-0.8099256780083722,0.7371692590964569,0.09828176401456218,0.3218064823781595,0.20353685980385852
5,-0.5997044859386564,0.39001720863783806,-0.7607015826431562,0.6695757211217003,0.05519925629976323,0.34136220230687075,0.09317151813222048
6,-0.5273586902730826,0.40781107756386786,-0.7218679317826029,0.6287711609590142,0.025305679961828163,0.36350516790661663,0.013324022427323728
7,-0.4723209816516432,0.42274397864246144,-0.6879711115937998,0.6009354124416584,0.002987521073407924,0.3800251549558844,-0.04027759245082832
8,-0.4297131037109279,0.43438196186126954,-0.6592973818380121,0.5810286773934352,-0.01457631529547419,0.39247341215689435,-0.07769562539813647
9,-0.39598350815947786,0.4434600313206445,-0.635256104851527,0.5662760497486152,-0.02894246667181108,0.4021703330451802,-0.10501809803188586
10,-0.3687195472197698,0.4506492664055769,-0.6150381985359621,0.5550191798769663,-0.04100573267277797,0.40994311478341083,-0.12574894272485732
11,-0.3462751268487944,0.4564410152092423,-0.5979066952905882,0.546216040170886,-0.05132529720952925,0.4163159724337665,-0.1419784610001866
12,-0.3275040473718121,0.46118252574629526,-0.5832596384140701,0.5391856199945516,-0.06027675960328242,0.42163562333448557,-0.15501214330722168
13,-0.311589502748742,0.46512024170142013,-0.5706225454867621,0.5334680373773654,-0.06812669389797732,0.42614109492071617,-0.165700960801839
14,-0.29793625756637165,0.46843180777803767,-0.5596249229942107,0.5287439329068475,-0.07507225421012217,0.4300031458638317,-0.17462085872756147
15,-0.28610151638726555,0.47124766799732976,-0.5499770404291915,0.5247860748523164,-0.08126387108374368,0.43334745336630226,-0.1821745502397024
16,-0.27574968597099536,0.47366538784981616,-0.5414508793963504,0.5214292790976606,-0.08681912667019351,0.4362688381161653,-0.18865166963456784
17,-0.26662212202395885,0.47575920747329736,-0.5338654630505767,0.5185511491670458,-0.0918317017085338,0.4388403374615647,-0.19426567692762406
18,-0.25851646296576747,0.4775865081277596,-0.5270758184282662,0.5160594212095856,-0.09637740198197334,0.441119198653474,-0.19917727441971805
19,-0.2512722267353113,0.47919226813643906,-0.5209647257561617,0.5138834565838968,-0.10051836530216057,0.4431509622450693,-0.20350971912933308
20,-0.24476058363678418,0.4806121905990405,-0.5154365417593113,0.5119684043857243,-0.1043060860317468,0.4449723208436382,-0.20735910901926785
21,-0.23887696841887351,0.4818749383556101,-0.5104125500419828,0.5102711210808252,-0.10778364315948398,0.44661316837128484,-0.21080146126626287
22,-0.23353565832727624,0.4830037579537058,-0.5058274345575932,0.5087572697350494,-0.11098737543441194,0.44809809950060897,-0.2138976892872292
23,-0.22866573583563,0.484017677966341,-0.5016265821714672,0.5073992256082448,-0.11394816262260343,0.44944752651393954,-0.2166971707725163
24,-0.22420804215359982,0.4849324057517366,-0.4977640011832544,0.5061745421962776,-0.11669241998523416,0.45067852423185584,-0.2192403506392511
25,-0.22011285009268472,0.4857610071964457,-0.49420070099760544,0.5050648128079865,-0.11924288000849008,0.4518054780008166,-0.2215606701075228
26,-0.21633806632255467,0.4865144280105566,-0.4909034199204184,0.5040548152733687,-0.12161921373796533,0.45284058667631943,-0.2236860169294081
27,-0.21284782811042524,0.48720189779363937,-0.4878436180028346,0.5031318620081593,-0.12383852948087479,0.4537942572728036,-0.22563982989095827
28,-0.20961139743132723,0.4878312463073527,-0.48499667339415525,0.5022853008625285,-0.12591577659019623,0.4546754176218645,-0.22744195004150417
29,-0.2066022816578538,0.4884091532624391,-0.48234123624868674,0.5015061279592373,-0.12786407497975957,0.4554917662523368,-0.22910928389238466
30,-0.20379752861645004,0.48894134723779686,-0.4798587055861327,0.5007866846040451,-0.12969498596162551,0.45624997369970255,-0.23065632530322283
31,-0.20117715707723438,0.48943276531120444,-0.4775328028415564,0.5001204179475918,-0.13141873631816497,0.4569558458803467,-0.23209556996339822
32,-0.19872369334939144,0.4898876820789469,-0.47534922200982066,0.4995016904476041,-0.13304440480699334,0.4576144575809738,-0.23343784738681037
33,-0.19642179167831594,0.4903098146308868,-0.47329534089059766,0.4989256270192738,-0.1345800782689092,0.45823026221826196,-0.2346925889438892
34,-0.19425792133075703,0.49070240849573177,-0.4713599813988751,0.4983879915359163,-0.13603298297646282,0.4588071826181473,-0.2358680458493268
35,-0.19222010712643836,0.49106830841874916,-0.46953320952591665,0.49788508636719886,-0.13740959569078692,0.45934868651045974,-0.23697146766795302
36,-0.1902977130900366,0.49141001697014397,-0.4678061675350361,0.4974136701347955,-0.13871573799279546,0.45985784963715126,-0.23800924942887958
37,-0.1884812611112772,0.49172974332884906,-0.4661709325132961,0.49697088997533906,-0.13995665675428853,0.4603374087633809,-0.2389870535982331
38,-0.18676227819566713,0.4920294440881863,-0.46462039658952825,0.49655422543314337,-0.14113709306586508,0.4607898064118827,-0.23990991177863077
39,-0.1851331671956492,0.4923108575469654,-0.46314816505558737,0.4961614417348013,-0.14226134150579717,0.4612172287773231,-0.24078230995593794
40,-0.1835870969276002,0.4925755326532546,-0.461748469354105,0.49579055067756894,-0.14333330129041463,0.4616216379931932,-0.24160826031314175
41,-0.1821179083745423,0.49282485353713745,-0.46041609246893606,0.4954397777317857,-0.1443565205720271,0.46200479970030006,-0.24239136201438913
42,-0.18072003429987818,0.49306006038767614,-0.4591463047090162,0.49510753424231485,-0.1453342349298107,0.4623683066890647,-0.24313485288358883
43,-0.17938843009286712,0.4932822672864249,-0.4579348082389483,0.4947923938355672,-0.1462694009208517,0.4627135992470622,-0.24384165352792528
44,-0.17811851406124982,0.4934924774964495,-0.4567776890004625,0.49449307231219736,-0.14716472541379572,0.4630419827305639,-0.24451440516240072
45,-0.17690611570261985,0.4936915966153492,-0.4556713749033234,0.4942084104422719,-0.14802269130943266,0.46335464278818334,-0.24515550215861634
46,-0.17574743074078017,0.4938804439282182,-0.45461259935416926,0.49393735918804893,-0.14884558015571311,0.4636526585914257,-0.2457671201555452
47,-0.17463898191942404,0.49405976223801007,-0.4535983693463301,0.4936789669658308,-0.14963549208496513,0.4639370143673891,-0.24635124042155312
48,-0.1735775847130929,0.4942302264034125,-0.4526259374600217,0.49343236862749307,-0.15039436343515758,0.4642086094802665,-0.2469096710373705
49,-0.17256031725230508,0.4943924507758159,-0.4516927772260686,0.4931967758979668,-0.15112398236233693,0.46446826726846974,-0.24744406537297978
50,-0.1715844938721211,0.4945469956954921,-0.45079656139183016,0.49297146904997763,-0.15182600270577382,0.46471674281141756,-0.24795593825273557
51,-0.17064764178600353,0.49469437318128606,-0.44993514269881146,0.49275578963394934,-0.15250195632922448,0.4649547297729515,-0.24844668013877458
52,-0.16974748046344115,0.49483505192685345,-0.4491065368402618,0.4925491341108526,-0.15315326412971988,0.46518286644588935,-0.24891756961006037
53,-0.1688819033534298,0.4949694616989085,-0.44830890731612016,0.49235094826027787,-0.15378124587835756,0.4654017411035286,-0.24936978437096677
54,-0.16804896164894467,0.49509799721835474,-0.44754055194372505,0.4921607222561757,-0.1543871290348158,0.46561189674830933,-0.2498044109873653
55,-0.1672468498319074,0.49522102159303316,-0.4467998908171803,0.4919779863193691,-0.1549720566580341,0.4658138353347581,-0.25022245351833383
56,-0.16647389277540145,0.49533886936066834,-0.4460854555373146,0.4918023068697728,-0.15553709451911982,0.4660080215328425,-0.2506248411867176
57,-0.16572853421125827,0.4954518491920943,-0.4453958795587218,0.4916332831127606,-0.15608323750858202,0.4661948860885886,-0.25101243521095573
58,-0.16500932639764315,0.495560246297688,-0.44472988952117615,0.4914705440037475,-0.1566114154180621,0.4663748288309696,-0.25138603490310846
59,-0.1643149208437295,0.4956643245739076,-0.4440862974504166,0.49131374554310847,-0.15712249816650734,0.4665482213674204,-0.2517463831232932
60,-0.16364405996764442,0.4957643285217287,-0.4434639937283715,0.4911625683603474,-0.1576173005319558,0.466715409504672,-0.2520941711683017
61,-0.1629955695801419,0.4958604849644465,-0.44286194074580276,0.49101671555214954,-0.15809658644253377,0.466876715426772,-0.25243004316162
62,-0.1623683521003702,0.49595300458863134,-0.4422791671613991,0.49087591074379466,-0.15856107287374202,0.4670324396580264,-0.25275460000311134
63,-0.1617613804220212,0.4960420833288791,-0.44171476270085447,0.4907398963475251,-0.15901143339345694,0.46718286283506133,-0.25306840292897725
64,-0.16117369235839224,0.49612790361432474,-0.4411678734376545,0.49060843199495735,-0.15944830139117447,0.46732824730915845,-0.2533719767260769
65,-0.16060438560371418,0.4962106354925727,-0.4406376975043649,0.4904812931236206,-0.15987227302376686,0.46746883859739563,-0.2536658126390861
66,-0.16005261315571734,0.49629043764473263,-0.44012348118933814,0.4903582697002597,-0.16028390990631372,0.4676048666988662,-0.25395037100415935
67,-0.1595175791509987,0.49636745830354034,-0.43962451537906594,0.4902391650657361,-0.1606837415733333,0.46773654729028513,-0.2542260836386147
68,-0.15899853507047293,0.49644183608507425,-0.43914013231102095,0.49012379488825064,-0.16107226773290845,0.4678640828135969,-0.2544933560125773
69,-0.15849477627716133,0.49651370074330553,-0.43866970260585836,0.49001198621323744,-0.16144996033372336,0.4679876634667204,-0.2547525692254174
70,-0.15800563885290161,0.49658317385562323,-0.4382126325513593,0.4899035765996875,-0.16181726546284889,0.4681074681072817,-0.2550040818071276
71,-0.15753049670434335,0.4966503694465083,-0.43776836161357324,0.48979841333387847,-0.1621746050902005,0.4682236650780648,-0.2552482313624474
72,-0.15706875891189875,0.4967153945557096,-0.43733636015331107,0.4896963527125511,-0.16252237867390565,0.4683364129619252,-0.25548533607350093
73,-0.15661986729821753,0.49677834975653357,-0.43691612732850515,0.48959725938848486,-0.16286096463932823,0.4684458612730585,-0.25571569607493805
74,-0.156183294195297,0.49683932962923594,-0.4365071891650408,0.4895010057722378,-0.16319072174318422,0.4685521510907553,-0.25593959471401007
75,-0.15575854039157838,0.4968984231939417,-0.43610909678049126,0.48940747148451186,-0.16351199033301242,0.4686554156411165,-0.256157299706646
76,-0.15534513324235152,0.4969557143070309,-0.4357214247468143,0.489316542854221,-0.16382509351123614,0.468755780831615,-0.2563690641993968
77,-0.15494262492852973,0.49701128202450523,-0.43534376957950105,0.489228112457879,-0.16413033821212913,0.46885336574287817,-0.25657512774606284
78,-0.15455059085039938,0.4970652009354662,-0.43497574834193514,0.4891420786963952,-0.16442801619918454,0.4689482830816084,-0.2567757172068849
79,-0.15416862814430718,0.4971175414685056,-0.43461699735485115,0.48905834540578613,-0.16471840498965723,0.46904063959815695,-0.2569710475773634
80,-0.1537963543114624,0.4971683701735182,-0.4342671710017764,0.48897682149867516,-0.16500176871240035,0.46913053647190994,-0.25716132275304127
81,-0.15343340594910201,0.4972177499811821,-0.43392594062223977,0.4888974206337811,-0.16527835890453713,0.469218069667327,-0.2573467362359449
82,-0.1530794375752251,0.4972657404421275,-0.4335929934853168,0.4888200609108788,-0.16554841525198924,0.4693033302631939,-0.25752747178780316
83,-0.1527341205389538,0.4973123979476037,-0.43326803183679613,0.4887446645889749,-0.16581216627841863,0.4693864047573972,-0.2577037040346636
84,-0.1523971420093386,0.49735777593328057,-0.4329507720138836,0.4886711578256628,-0.16606982998672168,0.4694673753493067,-0.25787559902706525
85,-0.1520682040361062,0.4974019250676531,-0.4326409436219267,0.488599470435826,-0.1663216144568403,0.4695463202016509,-0.25804331475953457
86,-0.15174702267645457,0.4974448934263783,-0.4323382887681533,0.4885295356680349,-0.16656771840331758,0.46962331368359467,-0.2582070016528016
87,-0.1514333271825462,0.49748672665374205,-0.43204256134787283,0.48846128999714156,-0.1668083316957212,0.4696984265965639,-0.25836680300182113
88,-0.1511268592448402,0.4975274681123418,-0.43175352637900083,0.4883946729317248,-0.1670436358447853,0.4697717263842235,-0.2585228553923915
89,-0.1508273722868398,0.4975671590219669,-0.4314709593811319,0.4883296268351549,-0.16727380445687282,0.46984327732788445,-0.2586752890889069
90,-0.15053463080723103,0.49760583858856783,-0.4311946457957251,0.4882660967591727,-0.16749900365913992,0.46991314072849827,-0.2588242283955483
91,-0.1502484097657422,0.4976435441241206,-0.43092438044426334,0.4882040302889708,-0.16771939249757842,0.46998137507629845,-0.2589697919930093
92,-0.14996849400937465,0.4976803111581242,-0.43065996702151393,0.48814337739886304,-0.16793512330993307,0.4700480362090482,-0.2591120932526691
93,-0.14969467773594577,0.49771617354139375,-0.43040121762127137,0.48808409031770555,-0.16814634207532103,0.4701131774597754,-0.25925124052995197
94,-0.14942676399214644,0.49775116354276333,-0.4301479522921786,0.48802612340331236,-0.16835318874223446,0.4701768497947947,-0.2593873374384637
95,-0.14916456420355287,0.49778531193924835,-0.42989999862142586,0.4879694330251692,-0.16855579753646596,0.47023910194275187,-0.2595204831063584
96,-0.14890789773424584,0.4978186481001754,-0.429657191344307,0.4879139774548157,-0.16875429725037674,0.47029998051536126,-0.2596507724162628
97,-0.1486565914738877,0.4978512000657403,-0.429419371977782,0.4878597167633157,-0.1689488115148102,0.47035953012044796,-0.25977829622997584
98,-0.14841047945028046,0.49788299462041735,-0.42918638847633994,0.4878066127252884,-0.1691394590548535,0.47041779346786206,-0.2599031415990577
99,-0.14816940246559224,0.4979140573616047,-0.4289580949085967,0.4877546287290147,-0.16932635393055498,0.4704748114687788,-0.2600253919623288
100,-0.1479332077545832,0.49794441276386103,-0.42873435115318476,0.4877037296921748,-0.16950960576361676,0.4705306233288602,-0.26014512733122097
101,-0.14770174866329625,0.4979740842390568,-0.42851502261260677,0.4876538819828116,-0.16968931995100842,0.4705852666357152,-0.2602624244638401
102,-0.1474748843467973,0.4980030941927378,-0.4282999799438276,0.4876050533451439,-0.16986559786637098,0.4706387774410585,-0.2603773570285359
103,-0.14725247948466294,0.4980314640769733,-0.42808909880447255,0.4875572128298863,-0.17003853705001826,0.4706911903379365,-0.26048999575770754
104,-0.14703440401301143,0.4980592144399431,-0.42788225961358994,0.48751033072876043,-0.1702082313882802,0.4707425385333648,-0.2606004085925179
105,-0.1468205328719671,0.49808636497248754,-0.42767934732601215,0.4874643785129054,-0.1703747712828793,0.47079285391668646,-0.26070866081913874
106,-0.14661074576753197,0.49811293455184186,-0.4274802512194193,0.4874193287749201,-0.1705382438109795,0.47084216712394433,-0.26081481519709654
107,-0.14640492694691515,0.49813894128274167,-0.4272848646932844,0.48737515517428986,-0.17069873287650114,0.470890507598532,-0.26091893208025013
108,-0.14620296498644192,0.49816440253608885,-0.42709308507893007,0.4873318323859681,-0.17085631935325232,0.4709379036483749,-0.26102106953088644
109,-0.1460047525912292,0.49818933498533574,-0.4269048134599881,0.4872893360519041,-0.17101108122038847,0.4709843824998642,-0.26112128342738905
110,-0.14581018640587284,0.49821375464074813,-0.4267199545026043,0.48724764273532073,-0.17116309369067448,0.47102997034876287,-0.26121962756589623
111,-0.14561916683544843,0.4982376768816864,-0.42653841629477723,0.48720672987756125,-0.17131242933199248,0.47107469240827365,-0.261316153756335
112,-0.1454315978761753,0.498261116487036,-0.42636011019426157,0.4871665757573402,-0.171459158182505,0.47111857295445303,-0.26141091191319343
113,-0.1452473869551424,0.4982840876639086,-0.4261849506845097,0.4871271594522417,-0.17160334785985726,0.4711616353691425,-0.26150395014136263
114,-0.14506644477853453,0.49830660407472926,-0.4260128552381606,0.4870884608023234,-0.17174506366477543,0.471203902180569,-0.2615953148173569
115,-0.14488868518783882,0.49832867886281024,-0.42584374418761717,0.4870504603756919,-0.17188436867939216,0.47124539510176355,-0.2616850506662023
116,-0.14471402502354583,0.4983503246765111,-0.42567754060228785,0.48701313943592545,-0.17202132386061098,0.47128613506693223,-0.26177320083425887
117,-0.1445423839958945,0.49837155369207253,-0.4255141701720966,0.48697647991123333,-0.17215598812879776,0.4713261422659043,-0.26185980695822403
118,-0.1443736845622397,0.4983923776352101,-0.4253535610968877,0.48694046436523863,-0.17228841845207093,0.47136543617677584,-0.26194490923055175
119,-0.14420785181065005,0.49841280780154246,-0.42519564398138493,0.4869050759692911,-0.1724186699264415,0.4714040355968576,-0.2620285464614997
120,-0.14404481334937083,0.4984328550759292,-0.42504035173537846,0.4868702984762147,-0.1725467958520409,0.4714419586720286,-0.2621107561380069
121,-0.1438844992018095,0.49845252995078076,-0.42488761947884135,0.48683611619540346,-0.17267284780565595,0.4714792229245889,-0.26219157447958913
122,-0.14372684170672506,0.49847184254340976,-0.4247373844516925,0.48680251396918833,-0.17279687570977884,0.471515845279702,-0.26227103649142525
123,-0.14357177542332336,0.4984908026124735,-0.4245895859279431,0.48676947715039626,-0.17291892789836538,0.4715518420905068,-0.26234917601480046
124,-0.14341923704097914,0.49850941957356837,-0.42444416513398064,0.4867369915810354,-0.17303905117948354,0.47158722916198004,-0.2624260257750555
125,-0.1432691652933241,0.49852770251402545,-0.42430106517075955,0.4867050435720381,-0.1731572908950216,0.47162202177361645,-0.262501617427187
126,-0.14312150087645686,0.49854566020694974,-0.4241602309396818,0.4866736198840034,-0.17327369097761583,0.4716562347009974,-0.2625759815992296
127,-0.14297618637104592,0.4985633011245541,-0.424021609071967,0.48664270770887996,-0.17338829400494887,0.4716898822363088,-0.2626491479335483
128,-0.14283316616811098,0.49858063345082465,-0.4238851478613182,0.4866122946525382,-0.1735011412515568,0.47172297820786957,-0.26272114512615313
129,-0.14269238639828297,0.49859766509355474,-0.4237507971997098,0.48658236871818006,-0.17361227273827887,0.4717555359987234,-0.2627920009641489
130,-0.14255379486435216,0.49861440369578963,-0.4236185085161258,0.48655291829054004,-0.1737217272794745,0.471787568564347,-0.2628617423614211
131,-0.14241734097692926,0.4986308566467073,-0.423488234718096,0.4865239321208352,-0.17382954252812233,0.47181908844952275,-0.2629303953926544
132,-0.1422829756930524,0.4986470310919742,-0.42335993013587686,0.48649539931242136,-0.1739357550189129,0.47185010780442144,-0.2629979853257737
133,-0.14215065145758415,0.4986629339436005,-0.42323355046914407,0.4864673093071181,-0.1740404002094378,0.4718806383999381,-0.2630645366528924
134,-0.1420203221472518,0.49867857188932446,-0.42310905273606186,0.48643965187216603,-0.1741435125195721,0.47191069164231986,-0.2631300731198484
135,-0.1418919430171929,0.49869395140155287,-0.4229863952246088,0.4864124170877823,-0.17424512536914263,0.47194027858712545,-0.26319461775439945
136,-0.1417654706498765,0.4987090787458785,-0.4228655374460417,0.48638559533528364,-0.17434527121396817,0.47196940995254877,-0.263258192893152
137,-0.1416408629062772,0.49872395998920077,-0.42274644009039347,0.486359177285746,-0.17444398158035251,0.47199809613214333,-0.2633208202072882
138,-0.14151807887918855,0.4987386010074694,-0.42262906498389585,0.4863331538891724,-0.17454128709810796,0.472026347206976,-0.26338252072715096
139,-0.14139707884856464,0.4987530074930711,-0.42251337504823655,0.48630751636414443,-0.17463721753218178,0.47205417295724106,-0.26344331486574796
140,-0.14127782423879096,0.4987671849618786,-0.4223993342615557,0.48628225618792886,-0.1747318018129531,0.47208158287336127,-0.26350322244123026
141,-0.1411602775777856,0.498781138759981,-0.42228690762109516,0.48625736508702083,-0.174825068065267,0.4721085861666029,-0.263562262698395
142,-0.14104440245784144,0.4987948740701084,-0.42217606110742323,0.4862328350280984,-0.17491704363626354,0.4721351917792286,-0.2636204543292628
143,-0.1409301634981229,0.49880839591777054,-0.4220667616501538,0.48620865820936643,-0.17500775512206324,0.47216140839421317,-0.2636778154927755
144,-0.14081752630873642,0.498821709177123,-0.4219589770950901,0.48618482705227495,-0.1750972283933607,0.47218724444454074,-0.26373436383365867
145,-0.1407064574562984,0.4988348185765742,-0.42185267617272404,0.486161334193588,-0.17518548861997968,0.47221270812210697,-0.2637901165004873
146,-0.14059692443092758,0.49884772870414607,-0.4217478284680245,0.4861381724777904,-0.17527256029443733,0.4722378073862442,-0.26384509016299734
147,-0.14048889561459504,0.49886044401260216,-0.42164440439145623,0.48611533494981174,-0.17535846725456536,0.4722625499718896,-0.26389930102867715
148,-0.14038234025076574,0.49887296882435395,-0.4215423751511702,0.4860928148480557,-0.17544323270523002,0.47228694339741045,-0.26395276485867314
149,-0.14027722841527143,0.49888530733615766,-0.4214417127263093,0.48607060559771764,-0.17552687923919405,0.4723109949721074,-0.26400549698304476
150,-0.1401735309883563,0.498897463623609,-0.42134238984138017,0.4860487008043765,-0.17560942885715908,0.47233471180340775,-0.2640575123153972
151,-0.14007121962784166,0.498909441645449,-0.4212443799416385,0.48602709424785023,-0.1756909029870256,0.47235810080376384,-0.26410882536692337
152,-0.139970266743357,0.4989212452476881,-0.4211476571694443,0.4860057798763,-0.17577132250240726,0.47238116869727387,-0.2641594502598801
153,-0.13987064547158856,0.49893287816755866,-0.4210521963415419,0.4859847518005717,-0.1758507077404308,0.4724039220260317,-0.2642094007405283
154,-0.1397723296524989,0.4989443440373033,-0.42095797292722154,0.48596400428876496,-0.17592907851885511,0.472426367156226,-0.26425869019155906
155,-0.13967529380647353,0.4989556463878059,-0.4208649630273246,0.48594353176101873,-0.17600645415253963,0.4724485102839941,-0.2643073316440307
156,-0.13957951311235223,0.49896678865207555,-0.4207731433540541,0.4859233287845012,-0.1760828534692895,0.4724703574410453,-0.2643553377888387
157,-0.13948496338630592,0.49897777416858813,-0.42068249121155454,0.48590339006859873,-0.1761582948251065,0.4724919145000626,-0.26440272098773904
158,-0.13939162106152075,0.4989886061844926,-0.4205929844772271,0.48588371046029083,-0.17623279611886972,0.47251318717989343,-0.2644494932839475
159,-0.1392994631686547,0.4989992878586891,-0.4205046015837476,0.48586428493970524,-0.17630637480647257,0.47253418105053946,-0.2644956664123299
160,-0.13920846731703135,0.49900982226478247,-0.42041732150175776,0.48584510861584485,-0.17637904791443765,0.4725549015379537,-0.26454125180920546
161,-0.13911861167653927,0.49902021239392175,-0.4203311237231991,0.4858261767224766,-0.1764508320530339,0.47257535392865313,-0.26458626062177787
162,-0.13902987496020694,0.49903046115752475,-0.42024598824526266,0.4858074846141779,-0.17652174342891486,0.47259554337415716,-0.2646307037172115
163,-0.13894223640742265,0.4990405713898974,-0.4201618955549284,0.48578902776253235,-0.17659179785729967,0.4726154748952563,-0.26467459169136726
164,-0.1388556757677728,0.49905054585075187,-0.4200788266140681,0.4857708017524682,-0.17666101077371646,0.47263515338612183,-0.26471793487721457
165,-0.13877017328547148,0.4990603872276252,-0.41999676284508863,0.48575280227873296,-0.1767293972453246,0.47265458361826024,-0.2647607433529317
166,-0.1386857096843571,0.4990700981382071,-0.4199156861170935,0.48573502514250005,-0.17679697198183503,0.47267377024432267,-0.2648030269497089
167,-0.13860226615343096,0.49907968113257706,-0.41983557873253935,0.48571746624809914,-0.17686374934604399,0.472692717801772,-0.26484479525926596
168,-0.13851982433291637,0.4990891386953584,-0.41975642341436925,0.4857001215998674,-0.17692974336399728,0.47271143071641597,-0.2648860576410975
169,-0.13843836630081524,0.4990984732477893,-0.41967820329359945,0.48568298729911447,-0.1769949677347986,0.47272991330581166,-0.2649268232294572
170,-0.138357874559943,0.4991076871497165,-0.419600901897345,0.485666059541198,-0.17705943584007772,0.4727481697825454,-0.2649671009400903
171,-0.13827833202542059,0.4991167827015162,-0.4195245031372644,0.48564933461270454,-0.17712316075313117,0.472766204257396,-0.2650068994767275
172,-0.13819972201260652,0.49912576214594156,-0.4194489912984051,0.4856328088887301,-0.1771861552477493,0.4727840207423835,-0.2650462273373475
173,-0.13812202822544928,0.49913462766990396,-0.41937435102843673,0.4856164788302591,-0.177248431806742,0.47280162315370894,-0.26508509282022047
174,-0.1380452347452447,0.49914338140618714,-0.41930056732725224,0.48560034098163424,-0.17731000263017463,0.47281901531459186,-0.2651235040297372
175,-0.1379693260197807,0.4991520254351005,-0.41922762553692783,0.48558439196811665,-0.1773708796433259,0.47283620095800466,-0.26516146888203884
176,-0.13789428685285485,0.49916056178607277,-0.4191555113320216,0.4855686284935303,-0.17743107450437892,0.47285318372931434,-0.26519899511044814
177,-0.1378201023941495,0.49916899243918617,-0.41908421071020197,0.4855530473379891,-0.17749059861185515,0.472869967188831,-0.2652360902707167
178,-0.13774675812945017,0.4991773193266581,-0.41901370998319043,0.48553764535570176,-0.17754946311180145,0.47288655481426745,-0.26527276174609044
179,-0.1376742398711939,0.49918554433426815,-0.4189439957680077,0.48552241947285196,-0.17760767890474005,0.4729029500031147,-0.26530901675220353
180,-0.13760253374933493,0.4991936693027371,-0.41887505497851085,0.48550736668555156,-0.17766525665239022,0.47291915607493695,-0.2653448623418074
181,-0.13753162620251502,0.499201696029054,-0.4188068748172098,0.48549248405786277,-0.17772220678416978,0.4729351762735867,-0.26538030540933905
182,-0.13746150396952617,0.49920962626775933,-0.4187394427673543,0.48547776871988735,-0.17777853950348668,0.4729510137693467,-0.26541535269533806
183,-0.13739215408105573,0.4992174617321837,-0.4186727465852784,0.4854632178659197,-0.17783426479382594,0.47296667166099815,-0.2654500107907149
184,-0.13732356385170208,0.499225204095642,-0.41860677429299487,0.48544882875266165,-0.17788939242464175,0.47298215297782054,-0.2654842861408801
185,-0.1372557208722504,0.4992328549925866,-0.4185415141710287,0.48543459869749667,-0.17794393195706099,0.4729974606815251,-0.2655181850497353
186,-0.13718861300220028,0.4992404160197237,-0.4184769547514819,0.4854205250768211,-0.17799789274940533,0.4730125976681238,-0.2655517136835353
187,-0.13712222836253318,0.49924788873708814,-0.41841308481132017,0.4854066053244295,-0.17805128396253864,0.4730275667697362,-0.2655848780746231
188,-0.13705655532871341,0.4992552746690844,-0.41834989336587275,0.48539283692995333,-0.17810411456504655,0.47304237075633865,-0.265617684125046
189,-0.13699158252391166,0.499262575305491,-0.41828736966253866,0.48537921743735046,-0.17815639333825295,0.47305701233745495,-0.2656501376100516
190,-0.1369272988124446,0.4992697921024327,-0.41822550317469187,0.4853657444434437,-0.17820812888108123,0.47307149416379324,-0.2656822441814761
191,-0.13686369329342127,0.4992769264833189,-0.4181642835957769,0.48535241559650455,-0.1782593296147646,0.47308581882882916,-0.2657140093710215
192,-0.13680075529458954,0.4992839798397522,-0.41810370083358794,0.48533922859488454,-0.1783100037874108,0.4730999888703394,-0.2657454385934302
193,-0.13673847436637476,0.49929095353240494,-0.4180437450047269,0.4853261811856882,-0.17836015947842745,0.4731140067718855,-0.2657765371495593
194,-0.1366768402761046,0.4992978488918715,-0.41798440642923096,0.4853132711634896,-0.17840980460281222,0.47312787496425046,-0.2658073102293582
195,-0.13661584300241136,0.4993046672194869,-0.4179256756253668,0.48530049636908756,-0.1784589469153124,0.47314159582683063,-0.2658377629147536
196,-0.13655547272980792,0.49931140978812355,-0.4178675433045822,0.4852878546883012,-0.17850759401445937,0.47315517168898363,-0.2658679001824451
197,-0.13649571984342956,0.49931807784295906,-0.41781000036661214,0.48527534405080236,-0.17855575334648136,0.47316860483133366,-0.26589772690661373
198,-0.1364365749239353,0.4993246726022226,-0.417753037894733,0.48526296242898437,-0.17860343220909974,0.47318189748703704,-0.2659272478615477
199,-0.13637802874256508,0.4993311952579142,-0.41769664715115845,0.485250707836865,-0.17865063775521195,0.4731950518430079,-0.26595646772418846
200,-0.1363200722563451,0.49933764697650407,-0.41764081957257465,0.4852385783290244,-0.17869737699646548,0.4732080700411063,-0.26598539107659785
201,-0.1362626966034377,0.49934402889960766,-0.41758554676580745,0.4852265719995739,-0.1787436568067263,0.47322095417929105,-0.2660140224083522
202,-0.13620589309863015,0.49935034214463975,-0.41753082050361784,0.4852146869811571,-0.17878948392544639,0.4732337063127354,-0.2660423661188631
203,-0.1361496532289571,0.49935658780544984,-0.41747663272062335,0.4852029214439809,-0.17883486496093223,0.4732463284549104,-0.2660704265196294
204,-0.13609396864945317,0.4993627669529365,-0.41742297550933677,0.48519127359487596,-0.17887980639351878,0.47325882257863516,-0.26609820783642196
205,-0.13603883117902998,0.49936888063564155,-0.4173698411163213,0.4851797416763833,-0.1789243145786513,0.47327119061709605,-0.26612571421140274
206,-0.13598423279647454,0.4993749298803285,-0.41731722193845894,0.48516832396587123,-0.17896839574987922,0.4732834344648336,-0.26615294970518305
207,-0.13593016563656374,0.49938091569254023,-0.4172651105193245,0.4851570187746759,-0.17901205602176415,0.47329555597870315,-0.2661799182988194
208,-0.135876621986292,0.49938683905714365,-0.41721349954566644,0.48514582444726834,-0.17905530139270442,0.4733075569788045,-0.26620662389575206
209,-0.13582359428120777,0.49939270093885335,-0.4171623818439864,0.4851347393604456,-0.17909813774768021,0.4733194392493858,-0.2662330703236876
210,-0.13577107510185482,0.4993985022827425,-0.41711175037721765,0.48512376192254486,-0.17914057086092125,0.4733312045397189,-0.26625926133642575
211,-0.13571905717031627,0.49940424401473776,-0.4170615982414973,0.48511289057268164,-0.17918260639849923,0.47334285456495195,-0.26628520061563515
212,-0.13566753334685588,0.49940992704209813,-0.4170119186630298,0.48510212378000905,-0.1792242499208477,0.4733543910069352,-0.2663108917725761
213,-0.13561649662665526,0.4994155522538809,-0.4169627049950387,0.4850914600429985,-0.17926550688521226,0.4733658155150241,-0.26633633834977644
214,-0.1355659401366429,0.4994211205213939,-0.4169139507148039,0.485080897888741,-0.1793063826480327,0.4733771297068581,-0.2663615438226581
215,-0.135515857132412,0.49942663269863335,-0.4168656494207807,0.48507043587226867,-0.17934688246725924,0.4733883351691186,-0.26638651160111865
216,-0.13546624099522472,0.4994320896227089,-0.4168177948297992,0.485060072575895,-0.1793870115046058,0.4733994334582643,-0.2664112450310676
217,-0.13541708522909934,0.49943749211425814,-0.41677038077434175,0.48504980660857405,-0.17942677482774078,0.4734104261012462,-0.26643574739592063
218,-0.13536838345797825,0.4994428409778463,-0.4167234011998941,0.4850396366052773,-0.17946617741241913,0.47342131459620246,-0.2664600219180515
219,-0.13532012942297397,0.49944813700235624,-0.41667685016236927,0.48502956122638813,-0.17950522414455636,0.47343210041313305,-0.26648407176020306
220,-0.13527231697969094,0.49945338096136677,-0.41663072182560185,0.4850195791571136,-0.1795439198222466,0.47344278499455683,-0.26650790002686076
221,-0.13522494009561992,0.49945857361352036,-0.4165850104589102,0.48500968910691117,-0.17958226915772652,0.47345336975614905,-0.26653150976558754
222,-0.13517799284760326,0.4994637157028792,-0.4165397104347242,0.4849998898089326,-0.17962027677928702,0.4734638560873619,-0.2665549039683222
223,-0.1351314694193692,0.4994688079592727,-0.4164948162262763,0.48499018001948263,-0.17965794723313366,0.4734742453520279,-0.2665780855726426
224,-0.13508536409913235,0.4994738510986341,-0.4164503224053562,0.48498055851749233,-0.17969528498519827,0.47348453888894665,-0.2666010574629945
225,-0.13503967127725838,0.49947884582332863,-0.41640622364012214,0.4849710241040064,-0.1797322944229026,0.47349473801245573,-0.26662382247188654
226,-0.13499438544399078,0.49948379282247046,-0.4163625146929734,0.4849615756016853,-0.1797689798568757,0.47350484401298526,-0.26664638338105523
227,-0.134949501187239,0.49948869277223323,-0.4163191904184771,0.4849522118543198,-0.17980534552262636,0.4735148581575989,-0.26666874292259546
228,-0.13490501319042422,0.49949354633615123,-0.41627624576135,0.48494293172635916,-0.1798413955821721,0.4735247816905191,-0.26669090378006427
229,-0.13486091623038202,0.4994983541654104,-0.41623367575449255,0.48493373410245194,-0.17987713412562598,0.4735346158336386,-0.2667128685895533
230,-0.13481720517532028,0.4995031168991345,-0.41619147551707514,0.4849246178869982,-0.1799125651727425,0.47354436178701814,-0.26673463994073326
231,-0.1347738749828303,0.4995078351646601,-0.4161496402526734,0.4849155820037147,-0.17994769267442381,0.47355402072937147,-0.2667562203778714
232,-0.13473092069794987,0.4995125095778075,-0.41610816524745187,0.48490662539521073,-0.1799825205141872,0.47356359381853685,-0.26677761240082154
233,-0.13468833745127576,0.4995171407431413,-0.4160670458683934,0.4848977470225752,-0.18001705250959543,0.47357308219193667,-0.2667988184659894
234,-0.13464612045712593,0.4995217292542252,-0.4160262775615756,0.4848889458649751,-0.18005129241365073,0.473582486967024,-0.2668198409872728
235,-0.13460426501174788,0.49952627569387065,-0.4159858558504899,0.4848802209192635,-0.1800852439161537,0.4735918092417194,-0.2668406823369751
236,-0.13456276649157353,0.4995307806343771,-0.415945776334404,0.48487157119959806,-0.18011891064502777,0.47360105009483405,-0.26686134484669943
237,-0.13452162035151807,0.49953524463776744,-0.4159060346867647,0.48486299573706976,-0.18015229616761075,0.4736102105864837,-0.2668818308082162
238,-0.13448082212332232,0.4995396682560168,-0.41586662665364255,0.48485449357934074,-0.18018540399191388,0.47361929175849093,-0.26690214247431054
239,-0.1344403674139364,0.4995440520312737,-0.41582754805221434,0.4848460637902911,-0.18021823756785021,0.4736282946347777,-0.2669222820596071
240,-0.1344002519039445,0.4995483964960788,-0.41578879476928293,0.484837705449676,-0.18025080028843202,0.47363722022174753,-0.2669422517413758
241,-0.13436047134602902,0.49955270217357417,-0.41575036275983585,0.4848294176527896,-0.1802830954909386,0.4736460695086575,-0.2669620536603147
242,-0.13432102156347253,0.49955696957770895,-0.4157122480456376,0.48482119951013863,-0.18031512645805617,0.4736548434679818,-0.26698168992131505
243,-0.13428189844869737,0.4995611992134404,-0.41567444671385806,0.48481305014712406,-0.1803468964189893,0.4736635430557657,-0.2670011625942066
244,-0.1342430979618412,0.4995653915769281,-0.41563695491573344,0.48480496870373074,-0.18037840855054557,0.47367216921196964,-0.26702047371448484
245,-0.13420461612936796,0.4995695471557234,-0.41559976886526073,0.4847969543342245,-0.1804096659781937,0.473680722860807,-0.2670396252840195
246,-0.13416644904271188,0.4995736664289559,-0.41556288483792375,0.48478900620685644,-0.18044067177709636,0.47368920491107075,-0.26705861927174623
247,-0.13412859285695589,0.4995777498675123,-0.41552629916945033,0.4847811235035761,-0.1804714289731181,0.4736976162564539,-0.2670774576143407
248,-0.13409104378954112,0.4995817979342124,-0.41549000825459864,0.4847733054197496,-0.18050194054380936,0.47370595777586083,-0.26709614221687716
249,-0.13405379811900842,0.49958581108398115,-0.4154540085459743,0.4847655511638857,-0.18053220941936624,0.473714230333712,-0.26711467495346936
250,-0.13401685218376955,0.4995897897640144,-0.415418296552874,0.48475785995736914,-0.18056223848356862,0.4737224347802405,-0.2671330576678975
251,-0.13398020238090855,0.4995937344139426,-0.415382868840158,0.48475023103419956,-0.1805920305746952,0.4737305719517813,-0.2671512921742197
252,-0.13394384516501143,0.4995976454659888,-0.41534772202714937,0.48474266364073665,-0.18062158848641713,0.4737386426710539,-0.26716938025736725
253,-0.13390777704702353,0.4996015233451233,-0.4153128527865583,0.48473515703545234,-0.18065091496867117,0.4737466477474381,-0.2671873236737281
254,-0.13387199459313465,0.4996053684692156,-0.4152782578434334,0.48472771048868796,-0.18068001272851153,0.4737545879772421,-0.26720512415171405
255,-0.13383649442368994,0.49960918124917947,-0.41524393397413567,0.4847203232824182,-0.1807088844309431,0.4737624641439656,-0.2672227833923163
256,-0.1338012732121268,0.49961296208911815,-0.41520987800533854,0.4847129947100198,-0.18073753269973383,0.4737702770185559,-0.26724030306964647
257,-0.13376632768393648,0.49961671138646363,-0.4151760868130495,0.4847057240760455,-0.18076596011820986,0.47377802735965757,-0.26725768483146534
258,-0.13373165461565023,0.4996204295321131,-0.41514255732165556,0.4846985106960054,-0.18079416923003105,0.47378571591385726,-0.26727493029969973
259,-0.13369725083384879,0.4996241169105623,-0.41510928650299034,0.48469135389615076,-0.1808221625399497,0.473793343415921,-0.2672920410709463
260,-0.13366311321419513,0.49962777390003565,-0.4150762713754226,0.48468425301326457,-0.18084994251455125,0.4738009105890278,-0.2673090187169643
261,-0.13362923868048895,0.49963140087261226,-0.41504350900296605,0.484677207394456,-0.18087751158297866,0.47380841814499586,-0.2673258647851563
262,-0.13359562420374396,0.4996349981943509,-0.4150109964944092,0.48467021639696134,-0.18090487213763978,0.4738158667845058,-0.26734258079903833
263,-0.13356226680128513,0.4996385662254099,-0.41497873100246496,0.4846632793879472,-0.18093202653489945,0.4738232571973161,-0.2673591682586992
264,-0.13352916353586747,0.49964210532016573,-0.4149467097229403,0.48465639574432,-0.18095897709575529,0.4738305900624759,-0.2673756286412486
265,-0.13349631151481448,0.4996456158273271,-0.41491492989392287,0.48464956485253935,-0.18098572610649857,0.47383786604853056,-0.2673919634012555
266,-0.133463707889176,0.4996490980900483,-0.41488338879498887,0.4846427861084353,-0.18101227581936102,0.4738450858137248,-0.2674081739711768
267,-0.13343134985290545,0.49965255244603873,-0.4148520837464258,0.4846360589170302,-0.18103862845314603,0.4738522500061995,-0.2674242617617753
268,-0.13339923464205536,0.49965597922766974,-0.41482101210847394,0.4846293826923651,-0.1810647861938469,0.4738593592641848,-0.2674402281625291
269,-0.13336735953399076,0.4996593787620793,-0.41479017128058493,0.48462275685732836,-0.18109075119525056,0.47386641421618825,-0.26745607454203146
270,-0.1333357218466205,0.49966275137127386,-0.4147595587006963,0.4846161808434904,-0.1811165255795288,0.4738734154811792,-0.2674718022483813
271,-0.13330431893764544,0.49966609737222967,-0.4147291718445226,0.4846096540909405,-0.18114211143781608,0.47388036366876923,-0.26748741260956627
272,-0.13327314820382344,0.4996694170769886,-0.4146990082248608,0.48460317604812736,-0.18116751083077465,0.4738872593793872,-0.2675029069338355
273,-0.13324220708025022,0.4996727107927536,-0.41466906539091286,0.48459674617170473,-0.1811927257891479,0.4738941032044521,-0.267518286510065
274,-0.1332114930396567,0.499675978821983,-0.41463934092762156,0.48459036392637816,-0.18121775831430095,0.473900895726541,-0.26753355260811523
275,-0.133181003591721,0.49967922146248006,-0.41460983245502164,0.4845840287847577,-0.18124261037874997,0.47390763751955306,-0.26754870647918044
276,-0.13315073628239601,0.4996824390074824,-0.4145805376276048,0.48457774022721134,-0.18126728392668026,0.4739143291488708,-0.26756374935613014
277,-0.13312068869325158,0.4996856317457485,-0.41455145413369787,0.4845714977417233,-0.1812917808744528,0.4739209711715173,-0.26757868245384314
278,-0.13309085844083043,0.499688799961643,-0.4145225796948562,0.4845653008237554,-0.18131610311110033,0.47392756413630965,-0.26759350696953516
279,-0.13306124317601858,0.49969194393522004,-0.4144939120652673,0.48455914897611024,-0.18134025249881264,0.4739341085840092,-0.26760822408307805
280,-0.13303184058342915,0.49969506394230323,-0.41446544903116994,0.48455304170879887,-0.18136423087341166,0.47394060504746915,-0.26762283495731304
281,-0.13300264838079917,0.499698160254565,-0.41443718841028376,0.48454697853891027,-0.18138804004481632,0.47394705405177806,-0.26763734073835654
282,-0.13297366431839955,0.4997012331396054,-0.4144091280512517,0.4845409589904838,-0.18141168179749795,0.4739534561144008,-0.2676517425559
283,-0.13294488617845762,0.49970428286102647,-0.41438126583309487,0.484534982594385,-0.18143515789092576,0.47395981174531604,-0.26766604152350293
284,-0.13291631177459148,0.49970730967850713,-0.41435359966467794,0.48452904888818354,-0.18145847006000337,0.4739661214471511,-0.26768023873887964
285,-0.1328879389512572,0.49971031384787523,-0.41432612748418574,0.48452315741603375,-0.18148162001549553,0.47397238571531386,-0.2676943352841804
286,-0.1328597655832065,0.49971329562117883,-0.41429884725861166,0.4845173077285578,-0.1815046094444468,0.4739786050381217,-0.26770833222626644
287,-0.1328317895749568,0.4997162552467548,-0.414271756983256,0.4845114993827312,-0.18152744001059135,0.47398477989692733,-0.2677222306169782
288,-0.13280400886027216,0.4997191929692974,-0.414244854681235,0.484505731941772,-0.1815501133547537,0.4739909107662433,-0.26773603149339936
289,-0.13277642140165452,0.4997221090299239,-0.4142181384030011,0.4845000049750294,-0.18157263109524202,0.47399699811386203,-0.26774973587811474
290,-0.13274902518984605,0.49972500366624023,-0.4141916062258707,0.4844943180578781,-0.18159499482823274,0.47400304240097485,-0.26776334477946223
291,-0.1327218182433418,0.4997278771124035,-0.4141652562535639,0.4844886707716124,-0.18161720612814763,0.47400904408228733,-0.2677768591917803
292,-0.13269479860791197,0.4997307295991851,-0.4141390866157522,0.48448306270334374,-0.18163926654802323,0.4740150036061333,-0.2677902800956504
293,-0.1326679643561345,0.4997335613540307,-0.4141130954676169,0.4844774934458999,-0.18166117761987263,0.4740209214145857,-0.26780360845813406
294,-0.1326413135869369,0.4997363726011201,-0.4140872809894149,0.48447196259772646,-0.18168294085503994,0.47402679794356545,-0.2678168452330042
295,-0.1326148444251476,0.49973916356142534,-0.4140616413860551,0.48446646976279023,-0.18170455774454777,0.47403263362294745,-0.2678299913609735
296,-0.1325885550210566,0.4997419344527679,-0.41403617488668115,0.4844610145504846,-0.18172602975943722,0.47403842887666614,-0.26784304776991685
297,-0.13256244354998467,0.49974468548987366,-0.4140108797442651,0.48445559657553705,-0.18174735835110195,0.474044184122816,-0.2678560153750893
298,-0.13253650821186125,0.4997474168844287,-0.4139857542352071,0.48445021545791855,-0.1817685449516147,0.47404989977375334,-0.2678688950793404
299,-0.13251074723081144,0.49975012884513176,-0.41396079665894414,0.4844448708227537,-0.1817895909740481,0.4740555762361932,-0.2678816877733232
300,-0.13248515885475062,0.49975282157774714,-0.4139360053375669,0.48443956230023494,-0.18181049781278813,0.47406121391130557,-0.2678943943356999
301,-0.1324597413549875,0.4997554952851552,-0.41391137861544386,0.4844342895255363,-0.1818312668438423,0.4740668131948097,-0.26790701563334246
302,-0.13243449302583518,0.49975815016740377,-0.41388691485885215,0.4844290521387304,-0.18185189942514157,0.47407237447706646,-0.26791955252153027
303,-0.13240941218422964,0.4997607864217561,-0.4138626124556165,0.484423849784706,-0.18187239689683604,0.4740778981431678,-0.2679320058441426
304,-0.13238449716935607,0.49976340424273935,-0.4138384698147562,0.48441868211308786,-0.18189276058158466,0.47408338457302596,-0.26794437643384844
305,-0.13235974634228237,0.49976600382219183,-0.41381448536613646,0.48441354877815807,-0.18191299178484024,0.4740888341414601,-0.2679566651122917
306,-0.1323351580856003,0.49976858534930896,-0.4137906575601292,0.48440844943877914,-0.1819330917951279,0.4740942472182813,-0.2679688726902732
307,-0.13231073080307285,0.49977114901068825,-0.4137669848672794,0.48440338375831776,-0.18195306188431867,0.4740996241683756,-0.2679809999679289
308,-0.1322864629192894,0.4997736949903746,-0.41374346577797694,0.4843983514045715,-0.18197290330789756,0.4741049653517853,-0.2679930477349045
309,-0.13226235287932692,0.49977622346990264,-0.4137200988021368,0.48439335204969564,-0.18199261730522678,0.47411027112379006,-0.2680050167705275
310,-0.13223839914841848,0.49977873462833955,-0.41369688246888414,0.48438838537013207,-0.1820122050998034,0.47411554183498444,-0.2680169078439742
311,-0.13221460021162745,0.4997812286423267,-0.41367381532624536,0.4843834510465394,-0.18203166789951272,0.4741207778313551,-0.26802872171443465
312,-0.1321909545735282,0.4997837056861205,-0.41365089594084603,0.4843785487637244,-0.18205100689687603,0.47412597945435586,-0.2680404591312749
313,-0.13216746075789326,0.49978616593163216,-0.41362812289761386,0.484373678210575,-0.1820702232692946,0.47413114704098236,-0.2680521208341944
314,-0.13214411730738612,0.4997886095484674,-0.4136054947994869,0.4843688390799945,-0.18208931817928817,0.47413628092384347,-0.2680637075533821
315,-0.1321209227832603,0.4997910367039643,-0.4135830102671293,0.484364031068837,-0.1821082927747295,0.47414138143123347,-0.2680752200096682
316,-0.13209787576506357,0.4997934475632316,-0.4135606679386497,0.48435925387784373,-0.1821271481890742,0.4741464488872006,-0.2680866589146744
317,-0.13207497485034833,0.49979584228918417,-0.4135384664693274,0.48435450721158146,-0.18214588554158614,0.47415148361161635,-0.2680980249709598
318,-0.1320522186543872,0.49979822104258187,-0.4135164045313417,0.4843497907783808,-0.18216450593755948,0.47415648592024195,-0.2681093188721644
319,-0.1320296058098944,0.499800583982062,-0.4134944808135081,0.4843451042902777,-0.18218301046853524,0.4741614561247943,-0.26812054130315105
320,-0.1320071349667514,0.4998029312641751,-0.41347269402101816,0.484340447462953,-0.18220140021251474,0.47416639453301057,-0.26813169294014366
321,-0.131984804791739,0.49980526304342054,-0.41345104287518425,0.4843358200156768,-0.18221967623416924,0.4741713014487115,-0.26814277445086226
322,-0.13196261396827322,0.49980757947227783,-0.4134295261131902,0.48433122167125076,-0.1822378395850448,0.47417617717186245,-0.26815378649465693
323,-0.1319405611961472,0.4998098807012409,-0.41340814248784546,0.48432665215595316,-0.18225589130376424,0.4741810219986359,-0.26816472972263833
324,-0.131918645191277,0.49981216687884883,-0.41338689076734436,0.4843221111994843,-0.18227383241622483,0.47418583622147,-0.2681756047778061
325,-0.13189686468545267,0.49981443815171894,-0.41336576973502925,0.484317598534914,-0.18229166393579269,0.4741906201291275,-0.2681864122951746
326,-0.13187521842609365,0.49981669466457634,-0.41334477818915877,0.4843131138986281,-0.18230938686349368,0.47419537400675343,-0.26819715290189644
327,-0.13185370517600895,0.49981893656028537,-0.4133239149426796,0.4843086570302777,-0.18232700218820028,0.4742000981359314,-0.26820782721738373
328,-0.1318323237131613,0.49982116397987814,-0.41330317882300327,0.4843042276727293,-0.18234451088681575,0.4742047927947387,-0.2682184358534274
329,-0.13181107283043597,0.49982337706258495,-0.4132825686717863,0.484299825572014,-0.18236191392445447,0.47420945825780153,-0.26822897941431395
330,-0.13178995133541385,0.49982557594586174,-0.4132620833447139,0.4842954504772801,-0.1823792122546195,0.474214094796347,-0.2682394584969401
331,-0.13176895805014846,0.4998277607654193,-0.41324172171128937,0.484291102140745,-0.18239640681937638,0.4742187026782568,-0.26824987369092507
332,-0.13174809181094665,0.49982993165524986,-0.4132214826546252,0.4842867803176483,-0.18241349854952418,0.47422328216811754,-0.26826022557872187
333,-0.13172735146815456,0.49983208874765456,-0.41320136507123983,0.484282484766206,-0.1824304883647635,0.47422783352727205,-0.26827051473572505
334,-0.13170673588594575,0.49983423217326994,-0.4131813678708559,0.4842782152475655,-0.1824473771738613,0.4742323570138685,-0.26828074173037825
335,-0.1316862439421143,0.4998363620610939,-0.41316148997620483,0.48427397152576107,-0.18246416587481287,0.4742368528829086,-0.26829090712427733
336,-0.13166587452787135,0.4998384785385113,-0.41314173032283197,0.48426975336767014,-0.182480855355001,0.47424132138629643,-0.2683010114722749
337,-0.13164562654764486,0.49984058173131873,-0.41312208785890775,0.48426556054297154,-0.18249744649135222,0.47424576277288444,-0.2683110553225801
338,-0.13162549891888406,0.49984267176374997,-0.4131025615450401,0.4842613928241025,-0.18251394015049038,0.4742501772885193,-0.26832103921685824
339,-0.13160549057186552,0.49984474875849894,-0.41308315035409227,0.48425724998621805,-0.18253033718888753,0.4742545651760878,-0.2683309636903277
340,-0.13158560044950454,0.49984681283674426,-0.41306385327100165,0.4842531318071504,-0.182546638453012,0.4742589266755612,-0.268340829271856
341,-0.1315658275071687,0.49984886411817203,-0.41304466929260386,0.4842490380673692,-0.18256284477947418,0.47426326202403807,-0.2683506364840533
342,-0.13154617071249525,0.4998509027209989,-0.41302559742745804,0.48424496854994264,-0.18257895699516952,0.4742675714557879,-0.2683603858433648
343,-0.13152662904521145,0.49985292876199505,-0.4130066366956767,0.48424092304049876,-0.18259497591741908,0.47427185520229265,-0.26837007786016165
344,-0.13150720149695808,0.4998549423565047,-0.4129877861287578,0.48423690132718844,-0.18261090235410776,0.4742761134922879,-0.2683797130388297
345,-0.13148788707111608,0.4998569436184691,-0.4129690447694196,0.48423290320064766,-0.18262673710382016,0.47428034655180457,-0.2683892918778572
346,-0.13146868478263626,0.49985893266044745,-0.4129504116714391,0.4842289284539613,-0.18264248095597382,0.47428455460420715,-0.2683988148699204
347,-0.13144959365787182,0.4998609095936373,-0.41293188589949253,0.4842249768826283,-0.18265813469095038,0.4742887378702338,-0.2684082825019684
348,-0.131430612734414,0.4998628745278953,-0.41291346652899896,0.48422104828452545,-0.18267369908022488,0.4742928965680347,-0.2684176952553058
349,-0.1314117410609304,0.4998648275717573,-0.4128951526459663,0.48421714245987335,-0.1826891748864918,0.4742970309132101,-0.26842705360567415
350,-0.13139297769700586,0.49986676883245834,-0.41287694334684044,0.48421325921120284,-0.18270456286379008,0.4743011411188466,-0.2684363580233329
351,-0.13137432171298666,0.4998686984159515,-0.41285883773835713,0.48420939834332116,-0.18271986375762547,0.47430522739555425,-0.2684456089731368
352,-0.1313557721898268,0.4998706164269268,-0.41284083493739415,0.48420555966327977,-0.18273507830509095,0.47430928995150273,-0.2684548069146144
353,-0.13133732821893743,0.49987252296883133,-0.4128229340708301,0.48420174298034163,-0.18275020723498472,0.47431332899245543,-0.2684639523020439
354,-0.13131898890203808,0.49987441814388556,-0.41280513427540144,0.4841979481059498,-0.18276525126792703,0.4743173447218055,-0.2684730455845275
355,-0.1313007533510115,0.499876302053103,-0.412787434697565,0.48419417485369665,-0.18278021111647422,0.47432133734060855,-0.26848208720606553
356,-0.1312826206877597,0.4998781747963072,-0.41276983449336097,0.48419042303929316,-0.1827950874852312,0.4743253070476171,-0.268491077605628
357,-0.13126459004406368,0.49988003647214946,-0.4127523328282785,0.4841866924805391,-0.18280988107096222,0.474329254039313,-0.268500017217226
358,-0.13124666056144457,0.49988188717812576,-0.4127349288771244,0.4841829829972924,-0.18282459256269945,0.4743331785099395,-0.2685089064699818
359,-0.1312288313910273,0.49988372701059336,-0.4127176218238932,0.484179294411442,-0.18283922264185015,0.4743370806515337,-0.2685177457881968
360,-0.1312111016934073,0.4998855560647878,-0.4127004108616399,0.48417562654687796,-0.1828537719823016,0.4743409606539572,-0.2685265355914198
361,-0.13119347063851805,0.49988737443483905,-0.4126832951923541,0.48417197922946403,-0.18286824125052462,0.4743448187049268,-0.26853527629451235
362,-0.13117593740550204,0.49988918221378736,-0.4126662740268368,0.4841683522870097,-0.18288263110567546,0.47434865499004497,-0.2685439683077153
363,-0.13115850118258343,0.49989097949359856,-0.4126493465845797,0.4841647455492434,-0.18289694219969568,0.47435246969282924,-0.2685526120367121
364,-0.1311411611669425,0.49989276636518026,-0.4126325120936452,0.4841611588477853,-0.1829111751774107,0.4743562629947418,-0.26856120788269217
365,-0.13112391656459305,0.4998945429183963,-0.4126157697905492,0.4841575920161222,-0.18292533067662659,0.4743600350752178,-0.26856975624241247
366,-0.13110676659026063,0.49989630924208184,-0.41259911892014617,0.48415404488958047,-0.1829394093282251,0.4743637861116934,-0.2685782575082594
367,-0.13108971046726375,0.4998980654240585,-0.41258255873551536,0.48415051730530184,-0.1829534117562579,0.4743675162796336,-0.2685867120683079
368,-0.1310727474273966,0.4998998115511479,-0.41256608849784887,0.4841470091022174,-0.18296733857803796,0.4743712257525602,-0.2685951203063818
369,-0.1310558767108138,0.49990154770918693,-0.4125497074763423,0.484143520121024,-0.18298119040423116,0.47437491470207765,-0.2686034826021102
370,-0.13103909756591697,0.49990327398303996,-0.41253341494808593,0.48414005020415957,-0.18299496783894492,0.47437858329789984,-0.26861179933098583
371,-0.1310224092492431,0.4999049904566143,-0.4125172101979593,0.4841365991957793,-0.18300867147981625,0.47438223170787647,-0.2686200708644206
372,-0.13100581102535472,0.4999066972128728,-0.4125010925185259,0.48413316694173303,-0.1830223019180976,0.47438586009801764,-0.2686282975698014
373,-0.13098930216673213,0.49990839433384626,-0.4124850612099307,0.48412975328954155,-0.1830358597387431,0.47438946863251963,-0.26863647981054406
374,-0.130972881953667,0.4999100819006485,-0.41246911557979854,0.48412635808837434,-0.18304934552049063,0.4743930574737896,-0.26864461794614725
375,-0.13095654967415782,0.4999117599934873,-0.41245325494313473,0.4841229811890271,-0.18306275983594558,0.47439662678246963,-0.2686527123322445
376,-0.13094030462380715,0.49991342869167754,-0.4124374786222267,0.4841196224439002,-0.18307610325166088,0.4744001767174603,-0.26866076332065636
377,-0.13092414610572012,0.4999150880736536,-0.41242178594654766,0.4841162817069771,-0.18308937632821734,0.4744037074359451,-0.2686687712594419
378,-0.13090807343040506,0.4999167382169818,-0.4124061762526616,0.4841129588338031,-0.18310257962030183,0.4744072190934127,-0.2686767364929476
379,-0.13089208591567547,0.49991837919837195,-0.4123906488841299,0.48410965368146425,-0.1831157136767845,0.47441071184368033,-0.26868465936185804
380,-0.1308761828865534,0.49992001109368933,-0.4123752031914191,0.48410636610856733,-0.1831287790407951,0.47441418583891576,-0.2686925402032435
381,-0.13086036367517442,0.49992163397796563,-0.41235983853181074,0.48410309597521983,-0.1831417762497976,0.4744176412296592,-0.2687003793506081
382,-0.13084462762069451,0.4999232479254116,-0.41234455426931166,0.4840998431430093,-0.18315470583566396,0.4744210781648457,-0.2687081771339371
383,-0.1308289740691977,0.49992485300942713,-0.4123293497745666,0.48409660747498406,-0.1831675683247466,0.4744244967918258,-0.2687159338797424
384,-0.1308134023736056,0.49992644930261265,-0.4123142244247717,0.4840933888356345,-0.18318036423794978,0.4744278972563866,-0.2687236499111091
385,-0.1307979118935886,0.4999280368767799,-0.41229917760358986,0.48409018709087404,-0.1831930940908001,0.474431279702773,-0.2687313255477396
386,-0.13078250199547767,0.4999296158029629,-0.41228420870106636,0.4840870021080198,-0.18320575839351544,0.47443464427370685,-0.2687389611059982
387,-0.13076717205217828,0.49993118615142784,-0.4122693171135473,0.4840838337557752,-0.18321835765107333,0.4744379911104084,-0.2687465568989544
388,-0.13075192144308523,0.4999327479916836,-0.41225450224359783,0.48408068190421133,-0.18323089236327814,0.47444132035261527,-0.26875411323642556
389,-0.130736749553999,0.4999343013924924,-0.4122397634999221,0.4840775464247492,-0.1832433630248268,0.47444463213860155,-0.2687616304250188
390,-0.13072165577704328,0.49993584642187927,-0.4122251002972854,0.4840744271901426,-0.18325577012537406,0.47444792660519736,-0.26876910876817345
391,-0.13070663951058387,0.4999373831471419,-0.41221051205643566,0.48407132407446024,-0.18326811414959665,0.4744512038878077,-0.2687765485662005
392,-0.13069170015914858,0.49993891163486043,-0.41219599820402836,0.4840682369530697,-0.18328039557725626,0.47445446412043063,-0.268783950116324
393,-0.13067683713334888,0.4999404319509068,-0.41218155817255075,0.4840651657026201,-0.18329261488326168,0.4744577074356755,-0.26879131371271986
394,-0.1306620498498022,0.4999419441604548,-0.4121671914002479,0.4840621102010257,-0.18330477253773014,0.47446093396478106,-0.2687986396465552
395,-0.1306473377310556,0.4999434483279879,-0.41215289733104954,0.48405907032744966,-0.18331686900604738,0.4744641438376334,-0.26880592820602645
396,-0.1306327002055107,0.49994494451730986,-0.4121386754144993,0.48405604596228863,-0.18332890474892716,0.47446733718278233,-0.2688131796763973
397,-0.1306181367073497,0.49994643279155254,-0.4121245251056832,0.48405303698715657,-0.18334088022246964,0.4744705141274596,-0.26882039434003596
398,-0.13060364667646235,0.4999479132131856,-0.4121104458651604,0.48405004328486967,-0.18335279587821923,0.474473674797595,-0.2688275724764516
399,-0.1305892295583745,0.4999493858440246,-0.4120964371588948,0.48404706473943016,-0.18336465216322095,0.47447681931783353,-0.2688347143623309
400,-0.130574884804177,0.49995085074523876,-0.4120824984581871,0.4840441012360131,-0.1833764495200765,0.4744799478115512,-0.26884182027157283
401,-0.1305606118704563,0.49995230797736134,-0.41206862923960885,0.4840411526609499,-0.18338818838699947,0.4744830604008714,-0.26884889047532445
402,-0.13054641021922578,0.4999537576002958,-0.4120548289849365,0.48403821890171445,-0.1833998691978695,0.47448615720668086,-0.26885592524201474
403,-0.13053227931785816,0.49995519967332536,-0.4120410971810866,0.484035299846909,-0.1834114923822855,0.47448923834864504,-0.26886292483738905
404,-0.13051821863901905,0.49995663425512055,-0.412027433320053,0.4840323953862501,-0.18342305836561862,0.47449230394522374,-0.26886988952454205
405,-0.13050422766060124,0.49995806140374666,-0.41201383689884385,0.4840295054105538,-0.18343456756906393,0.47449535411368565,-0.2688768195639515
406,-0.13049030586566013,0.4999594811766726,-0.4120003074194196,0.48402662981172334,-0.18344602040969174,0.4744983889701241,-0.26888371521351007
407,-0.13047645274235012,0.49996089363077695,-0.411986844388633,0.48402376848273465,-0.18345741730049764,0.47450140862947093,-0.2688905767285572
408,-0.1304626677838618,0.4999622988223564,-0.41197344731816815,0.4840209213176235,-0.18346875865045256,0.4745044132055117,-0.26889740436191123
409,-0.13044895048836033,0.49996369680713404,-0.411960115724482,0.484018088211472,-0.18348004486455122,0.47450740281089976,-0.2689041983638997
410,-0.13043530035892448,0.49996508764026487,-0.4119468491287463,0.48401526906039655,-0.18349127634386064,0.47451037755716985,-0.26891095898239054
411,-0.13042171690348658,0.4999664713763438,-0.4119336470567904,0.484012463761534,-0.18350245348556765,0.4745133375547522,-0.2689176864628221
412,-0.13040819963477354,0.49996784806941325,-0.4119205090390438,0.48400967221302993,-0.18351357668302556,0.47451628291298653,-0.2689243810482329
413,-0.1303947480702484,0.4999692177729694,-0.41190743461048207,0.48400689431402644,-0.18352464632580026,0.4745192137401346,-0.2689310429792902
414,-0.13038136173205317,0.49997058053996934,-0.4118944233105703,0.48400412996464925,-0.18353566279971575,0.4745221301433944,-0.26893767249431993
415,-0.13036804014695216,0.49997193642283755,-0.4118814746832104,0.4840013790659965,-0.18354662648689918,0.4745250322289125,-0.26894426982933406
416,-0.13035478284627622,0.499973285473473,-0.41186858827668693,0.4839986415201264,-0.18355753776582476,0.4745279201017975,-0.2689508352180596
417,-0.13034158936586768,0.4999746277432556,-0.411855763643615,0.48399591723004576,-0.18356839701135716,0.474530793866132,-0.2689573688919655
418,-0.13032845924602643,0.4999759632830519,-0.4118430003408884,0.4839932060996989,-0.18357920459479485,0.47453365362498573,-0.2689638710802899
419,-0.13031539203145634,0.4999772921432234,-0.4118302979296286,0.48399050803395577,-0.18358996088391216,0.4745364994804272,-0.2689703420100671
420,-0.1303023872712128,0.49997861437363,-0.41181765597513464,0.48398782293860104,-0.1836006662430011,0.4745393315335363,-0.26897678190615393
421,-0.13028944451865077,0.4999799300236387,-0.4118050740468328,0.4839851507203235,-0.1836113210329121,0.474542149884416,-0.2689831909912561
422,-0.13027656333137375,0.49998123914212844,-0.41179255171822876,0.4839824912867047,-0.1836219256110952,0.4745449546322043,-0.2689895694859534
423,-0.13026374327118323,0.4999825417774964,-0.4117800885668587,0.48397984454620846,-0.18363248033163945,0.4745477458750858,-0.26899591760872504
424,-0.13025098390402923,0.49998383797766355,-0.41176768417424214,0.4839772104081705,-0.1836429855453127,0.4745505237103028,-0.26900223557597475
425,-0.13023828479996108,0.4999851277900814,-0.4117553381258348,0.48397458878278804,-0.18365344159960012,0.47455328823416726,-0.2690085236020557
426,-0.13022564553307944,0.4999864112617366,-0.41174305001098266,0.4839719795811095,-0.18366384883874282,0.47455603954207076,-0.2690147818992943
427,-0.13021306568148833,0.49998768843915736,-0.41173081942287654,0.48396938271502454,-0.18367420760377542,0.47455877772849686,-0.2690210106780137
428,-0.1302005448272485,0.4999889593684185,-0.4117186459585068,0.4839667980972543,-0.18368451823256318,0.4745615028870305,-0.2690272101465583
429,-0.13018808255633119,0.4999902240951475,-0.4117065292186198,0.48396422564134084,-0.18369478105983902,0.47456421511036984,-0.2690333805113163
430,-0.13017567845857225,0.49999148266452986,-0.41169446880767313,0.4839616652616387,-0.1837049964172397,0.4745669144903359,-0.26903952197674313
431,-0.1301633321276271,0.4999927351213136,-0.41168246433379363,0.48395911687330445,-0.18371516463334117,0.4745696011178835,-0.2690456347453831
432,-0.130151043160927,0.49999398150981544,-0.41167051540873445,0.4839565803922877,-0.18372528603369448,0.47457227508311084,-0.26905171901789293
433,-0.13013881115963447,0.499995221873926,-0.41165862164783357,0.48395405573532185,-0.18373536094085985,0.47457493647527016,-0.2690577749930627
434,-0.13012663572860075,0.4999964562571138,-0.4116467826699719,0.48395154281991465,-0.18374538967444104,0.47457758538277695,-0.2690638028678378
435,-0.13011451647632305,0.49999768470243194,-0.41163499809753307,0.48394904156433993,-0.18375537255111948,0.4745802218932204,-0.26906980283734044
436,-0.13010245301490247,0.49999890725252144,-0.4116232675563633,0.48394655188762786,-0.1837653098846874,0.4745828460933728,-0.2690757750948905
437,-0.1300904449600029,0.5000001239496173,-0.41161159067573155,0.48394407370955694,-0.18377520198608066,0.474585458069199,-0.2690817198320264
438,-0.13007849193081017,0.500001334835553,-0.41159996708829044,0.48394160695064486,-0.18378504916341126,0.47458805790586556,-0.2690876372385255
439,-0.1300665935499914,0.5000025399517646,-0.41158839643003803,0.48393915153214023,-0.18379485172199914,0.47459064568775033,-0.26909352750242443
440,-0.1300547494436559,0.5000037393392965,-0.4115768783402796,0.4839367073760142,-0.1838046099644039,0.4745932214984515,-0.2690993908100387
441,-0.13004295924131554,0.5000049330388051,-0.4115654124615905,0.48393427440495246,-0.1838143241904561,0.47459578542079617,-0.26910522734598274
442,-0.13003122257584648,0.5000061210905646,-0.41155399843977875,0.48393185254234655,-0.18382399469728758,0.4745983375368502,-0.2691110372931889
443,-0.13001953908345096,0.5000073035344698,-0.4115426359238483,0.48392944171228586,-0.18383362177936197,0.4746008779279255,-0.26911682083292693
444,-0.13000790840361953,0.5000084804100416,-0.41153132456596436,0.4839270418395502,-0.1838432057285045,0.4746034066745898,-0.2691225781448225
445,-0.12999633017909423,0.5000096517564319,-0.4115200640214166,0.4839246528496018,-0.1838527468339315,0.47460592385667477,-0.26912830940687593
446,-0.12998480405583185,0.5000108176124264,-0.4115088539485846,0.48392227466857696,-0.1838622453822796,0.4746084295532844,-0.26913401479548077
447,-0.1299733296829679,0.5000119780164497,-0.4114976940089035,0.4839199072232793,-0.18387170165763422,0.4746109238428033,-0.2691396944854413
448,-0.12996190671278118,0.5000131330065697,-0.41148658386682935,0.48391755044117196,-0.18388111594155804,0.4746134068029047,-0.26914534864999096
449,-0.1299505348006585,0.500014282620501,-0.411475523189806,0.48391520425036993,-0.183890488513119,0.47461587851055875,-0.2691509774608098
450,-0.12993921360505994,0.50001542689561,-0.41146451164823217,0.4839128685796333,-0.18389981964891758,0.4746183390420405,-0.26915658108804147
451,-0.1299279427874849,0.500016565868918,-0.4114535489154279,0.4839105433583591,-0.18390910962311433,0.474620788472937,-0.26916215970031077
452,-0.12991672201243817,0.5000176995771054,-0.41144263466760256,0.48390822851657517,-0.18391835870745654,0.4746232268781562,-0.2691677134647408
453,-0.12990555094739686,0.5000188280565158,-0.4114317685838235,0.48390592398493265,-0.18392756717130465,0.47462565433193377,-0.26917324254696884
454,-0.12989442926277728,0.50001995134316,-0.4114209503459839,0.4839036296946991,-0.1839367352816587,0.4746280709078406,-0.26917874711116374
455,-0.1298833566319028,0.5000210694727193,-0.411410179638772,0.4839013455777516,-0.18394586330318394,0.47463047667879066,-0.26918422732004144
456,-0.1298723327309719,0.5000221824805497,-0.4113994561496408,0.4838990715665706,-0.1839549514982361,0.47463287171704793,-0.26918968333488125
457,-0.12986135723902617,0.5000232904016851,-0.4113887795687771,0.48389680759423204,-0.18396400012688696,0.47463525609423357,-0.2691951153155418
458,-0.12985042983791975,0.5000243932708416,-0.41137814958907254,0.48389455359440176,-0.18397300944694875,0.4746376298813335,-0.26920052342047646
459,-0.12983955021228816,0.50002549112242,-0.4113675659060931,0.4838923095013293,-0.18398197971399893,0.47463999314870525,-0.2692059078067493
460,-0.12982871804951826,0.5000265839905111,-0.4113570282180511,0.48389007524984007,-0.18399091118140412,0.47464234596608473,-0.269211268630049
461,-0.12981793303971814,0.5000276719088969,-0.4113465362257762,0.48388785077533075,-0.18399980410034417,0.4746446884025931,-0.2692166060447052
462,-0.12980719487568756,0.5000287549110568,-0.41133608963268625,0.48388563601376217,-0.18400865871983546,0.4746470205267436,-0.26922192020370267
463,-0.12979650325288902,0.5000298330301682,-0.4113256881447607,0.48388343090165264,-0.18401747528675413,0.4746493424064483,-0.26922721125869636
464,-0.12978585786941876,0.5000309062991127,-0.4113153314705122,0.4838812353760731,-0.18402625404585957,0.47465165410902427,-0.26923247936002476
465,-0.12977525842597826,0.5000319747504767,-0.41130501932095914,0.48387904937464027,-0.18403499523981623,0.47465395570120045,-0.2692377246567257
466,-0.12976470462584647,0.5000330384165561,-0.4112947514095997,0.48387687283551106,-0.18404369910921672,0.47465624724912436,-0.269242947296549
467,-0.129754196174852,0.5000340973293598,-0.41128452745238475,0.48387470569737684,-0.18405236589260335,0.4746585288183676,-0.2692481474259713
468,-0.12974373278134577,0.5000351515206118,-0.41127434716769146,0.48387254789945705,-0.1840609958264903,0.4746608004739331,-0.26925332519020906
469,-0.1297333141561741,0.5000362010217553,-0.4112642102762978,0.4838703993814946,-0.1840695891453848,0.47466306228026023,-0.2692584807332327
470,-0.129722940012652,0.5000372458639553,-0.41125411650135674,0.48386826008374917,-0.18407814608180856,0.4746653143012313,-0.2692636141977794
471,-0.12971261006653695,0.5000382860781022,-0.41124406556837134,0.483866129946992,-0.18408666686631872,0.4746675566001782,-0.2692687257253666
472,-0.1297023240360029,0.5000393216948139,-0.4112340572051699,0.4838640089125014,-0.1840951517275285,0.474669789239887,-0.26927381545630485
473,-0.12969208164161475,0.5000403527444398,-0.4112240911418811,0.4838618969220557,-0.18410360089212785,0.474672012282605,-0.26927888352971074
474,-0.1296818826063028,0.500041379257063,-0.4112141671109097,0.4838597939179292,-0.18411201458490326,0.47467422579004614,-0.2692839300835196
475,-0.1296717266553382,0.5000424012625033,-0.41120428484691307,0.4838576998428861,-0.18412039302875807,0.47467642982339664,-0.269288955254498
476,-0.12966161351630764,0.500043418790321,-0.4111944440867771,0.483855614640176,-0.18412873644473182,0.4746786244433204,-0.2692939591782558
477,-0.12965154291908965,0.5000444318698178,-0.41118464456959286,0.4838535382535282,-0.18413704505201986,0.47468080970996473,-0.269298941989259
478,-0.12964151459583034,0.5000454405300416,-0.411174886036634,0.48385147062714695,-0.1841453190679927,0.4746829856829658,-0.2693039038208409
479,-0.12963152828091948,0.500046444799788,-0.41116516823133337,0.4838494117057061,-0.18415355870821468,0.4746851524214544,-0.26930884480521483
480,-0.12962158371096721,0.5000474447076038,-0.4111554908992611,0.4838473614343452,-0.18416176418646274,0.47468730998406117,-0.2693137650734854
481,-0.1296116806247809,0.5000484402817886,-0.41114585378810176,0.48384531975866296,-0.184169935714745,0.47468945842892113,-0.26931866475566035
482,-0.1296018187633422,0.500049431550399,-0.4111362566476331,0.48384328662471393,-0.18417807350331908,0.4746915978136799,-0.2693235439806616
483,-0.12959199786978462,0.5000504185412504,-0.41112669922970413,0.4838412619790028,-0.18418617776070995,0.47469372819549815,-0.2693284028763372
484,-0.129582217689371,0.5000514012819186,-0.41111718128821345,0.48383924576848036,-0.1841942486937279,0.47469584963105704,-0.2693332415694719
485,-0.12957247796947166,0.5000523797997439,-0.4111077025790886,0.48383723794053846,-0.18420228650748594,0.47469796217656346,-0.2693380601857986
486,-0.12956277845954262,0.5000533541218333,-0.41109826286026474,0.48383523844300524,-0.18421029140541723,0.47470006588775404,-0.2693428588500086
487,-0.12955311891110408,0.5000543242750626,-0.4110888618916647,0.48383324722414134,-0.1842182635892925,0.47470216081990124,-0.26934763768576325
488,-0.12954349907771934,0.5000552902860785,-0.41107949943517774,0.4838312642326347,-0.18422620325923664,0.47470424702781744,-0.26935239681570405
489,-0.12953391871497377,0.5000562521813019,-0.41107017525464024,0.48382928941759673,-0.18423411061374567,0.47470632456586,-0.26935713636146313
490,-0.12952437758045382,0.5000572099869297,-0.41106088911581534,0.48382732272855744,-0.1842419858497031,0.47470839348793525,-0.26936185644367366
491,-0.12951487543372703,0.5000581637289374,-0.41105164078637363,0.4838253641154614,-0.18424982916239663,0.47471045384750427,-0.2693665571819805
492,-0.12950541203632182,0.5000591134330816,-0.4110424300358737,0.48382341352866376,-0.18425764074553375,0.47471250569758755,-0.26937123869504925
493,-0.12949598715170713,0.5000600591249015,-0.41103325663574275,0.48382147091892536,-0.1842654207912581,0.47471454909076766,-0.2693759011005774
494,-0.12948660054527303,0.5000610008297224,-0.41102412035925795,0.48381953623740936,-0.18427316949016512,0.474716584079196,-0.2693805445153032
495,-0.12947725198431118,0.5000619385726567,-0.4110150209815279,0.4838176094356766,-0.18428088703131745,0.47471861071459576,-0.26938516905501664
496,-0.1294679412379958,0.500062872378607,-0.4110059582794739,0.48381569046568185,-0.18428857360226059,0.47472062904826706,-0.2693897748345679
497,-0.12945866807736425,0.500063802272268,-0.4109969320318116,0.48381377927976926,-0.18429622938903786,0.47472263913109075,-0.26939436196787736
498,-0.12944943227529865,0.5000647282781289,-0.4109879420190335,0.4838118758306696,-0.18430385457620563,0.47472464101353323,-0.26939893056794484
499,-0.12944023360650725,0.5000656504204747,-0.41097898802339095,0.48380998007149495,-0.18431144934684768,0.47472663474565013,-0.26940348074685927
500,-0.129431071847506,0.5000665687233895,-0.41097006982887596,0.48380809195573593,-0.1843190138825905,0.4747286203770908,-0.269408012615807
501,-0.12942194677660052,0.5000674832107576,-0.410961187221205,0.48380621143725727,-0.18432654836361737,0.4747305979571022,-0.269412526285082
502,-0.12941285817386805,0.5000683939062659,-0.4109523399878007,0.48380433847029464,-0.1843340529686825,0.47473256753453313,-0.2694170218640935
503,-0.1294038058211404,0.5000693008334065,-0.4109435279177754,0.48380247300944973,-0.18434152787512575,0.47473452915783826,-0.2694214994613763
504,-0.12939478950198563,0.5000702040154775,-0.41093475080191455,0.48380061500968824,-0.18434897325888597,0.47473648287508213,-0.2694259591845984
505,-0.12938580900169147,0.500071103475586,-0.41092600843266003,0.4837987644263353,-0.18435638929451525,0.4747384287339427,-0.26943040114056993
506,-0.129376864107248,0.5000719992366501,-0.41091730060409365,0.48379692121507156,-0.18436377615519245,0.4747403667817155,-0.2694348254352516
507,-0.1293679546073308,0.5000728913213998,-0.4109086271119213,0.48379508533193055,-0.18437113401273633,0.47474229706531806,-0.2694392321737637
508,-0.1293590802922845,0.5000737797523794,-0.4108999877534562,0.4837932567332947,-0.18437846303761943,0.4747442196312925,-0.26944362146039347
509,-0.1293502409541061,0.5000746645519503,-0.410891382327604,0.48379143537589175,-0.18438576339898097,0.47474613452581016,-0.269447993398604
510,-0.12934143638642864,0.5000755457422916,-0.4108828106348471,0.4837896212167916,-0.18439303526463954,0.4747480417946746,-0.26945234809104235
511,-0.12933266638450575,0.500076423345403,-0.41087427247722863,0.4837878142134028,-0.18440027880110665,0.4747499414833258,-0.2694566856395472
512,-0.12932393074519502,0.5000772973831054,-0.4108657676583376,0.4837860143234693,-0.18440749417359878,0.47475183363684376,-0.2694610061451573
513,-0.12931522926694286,0.5000781678770436,-0.41085729598329396,0.4837842215050673,-0.18441468154605034,0.4747537182999517,-0.2694653097081183
514,-0.12930656174976873,0.5000790348486875,-0.4108488572587332,0.48378243571660146,-0.18442184108112591,0.47475559551702,-0.2694695964278919
515,-0.12929792799524986,0.5000798983193352,-0.4108404512927927,0.4837806569168022,-0.18442897294023275,0.4747574653320689,-0.26947386640316284
516,-0.12928932780650612,0.5000807583101127,-0.41083207789509557,0.4837788850647225,-0.18443607728353253,0.4747593277887734,-0.26947811973184616
517,-0.12928076098818522,0.5000816148419771,-0.4108237368767381,0.48377712011973445,-0.18444315426995345,0.47476118293046454,-0.26948235651109514
518,-0.1292722273464477,0.5000824679357175,-0.41081542805027393,0.4837753620415262,-0.1844502040572024,0.47476303080013493,-0.2694865768373083
519,-0.1292637266889525,0.5000833176119582,-0.41080715122970113,0.4837736107900995,-0.18445722680177637,0.47476487144044094,-0.26949078080613714
520,-0.12925525882484218,0.500084163891157,-0.4107989062304477,0.4837718663257655,-0.184464222658974,0.47476670489370537,-0.26949496851249327
521,-0.1292468235647291,0.5000850067936107,-0.4107906928693582,0.4837701286091431,-0.18447119178290722,0.47476853120192225,-0.26949914005055525
522,-0.12923842072068098,0.5000858463394545,-0.41078251096468,0.4837683976011546,-0.1844781343265124,0.4747703504067589,-0.2695032955137761
523,-0.12923005010620706,0.500086682548664,-0.41077436033605,0.48376667326302386,-0.18448505044156163,0.4747721625495595,-0.2695074349948896
524,-0.12922171153624426,0.5000875154410572,-0.4107662408044813,0.4837649555562731,-0.1844919402786739,0.4747739676713482,-0.2695115585859183
525,-0.12921340482714366,0.5000883450362951,-0.4107581521923502,0.48376324444271984,-0.18449880398732563,0.47477576581283176,-0.26951566637817914
526,-0.12920512979665671,0.500089171353884,-0.41075009432338294,0.48376153988447396,-0.18450564171586195,0.47477755701440344,-0.26951975846229076
527,-0.1291968862639225,0.5000899944131778,-0.41074206702264326,0.4837598418439355,-0.18451245361150692,0.47477934131614535,-0.26952383492818033
528,-0.12918867404945386,0.5000908142333773,-0.4107340701165195,0.4837581502837912,-0.18451923982037458,0.47478111875783174,-0.2695278958650898
529,-0.12918049297512488,0.5000916308335337,-0.41072610343271226,0.4837564651670124,-0.18452600048747902,0.4747828893789319,-0.2695319413615823
530,-0.12917234286415774,0.5000924442325488,-0.4107181668002221,0.48375478645685205,-0.18453273575674503,0.474784653218613,-0.2695359715055491
531,-0.12916422354111004,0.5000932544491778,-0.4107102600493368,0.4837531141168417,-0.1845394457710179,0.47478641031574287,-0.26953998638421584
532,-0.12915613483186242,0.5000940615020291,-0.41070238301162,0.48375144811078924,-0.18454613067207412,0.4747881607088932,-0.26954398608414815
533,-0.12914807656360588,0.5000948654095667,-0.4106945355198986,0.4837497884027763,-0.1845527906006305,0.474789904436342,-0.269547970691259
534,-0.12914004856482944,0.5000956661901115,-0.41068671740825125,0.48374813495715563,-0.18455942569635478,0.47479164153607684,-0.2695519402908138
535,-0.1291320506653083,0.5000964638618431,-0.41067892851199683,0.4837464877385485,-0.18456603609787522,0.47479337204579664,-0.26955589496743704
536,-0.12912408269609135,0.5000972584428002,-0.4106711686676824,0.4837448467118419,-0.18457262194279012,0.4747950960029158,-0.269559834805118
537,-0.12911614448948966,0.5000980499508818,-0.4106634377130718,0.4837432118421867,-0.18457918336767734,0.4747968134445659,-0.26956375988721737
538,-0.12910823587906453,0.5000988384038507,-0.4106557354871351,0.4837415830949949,-0.18458572050810393,0.4747985244075985,-0.2695676702964723
539,-0.12910035669961592,0.500099623819332,-0.41064806183003677,0.48373996043593664,-0.18459223349863543,0.47480022892858775,-0.26957156611500216
540,-0.12909250678717088,0.500100406214816,-0.41064041658312445,0.4837383438309385,-0.18459872247284476,0.47480192704383345,-0.26957544742431555
541,-0.12908468597897232,0.5001011856076591,-0.4106327995889185,0.4837367332461809,-0.18460518756332187,0.4748036187893632,-0.2695793143053144
542,-0.1290768941134677,0.5001019620150859,-0.4106252106911011,0.48373512864809565,-0.18461162890168248,0.474805304200935,-0.2695831668383006
543,-0.12906913103029766,0.5001027354541884,-0.4106176497345054,0.48373353000336367,-0.18461804661857698,0.4748069833140397,-0.26958700510298134
544,-0.1290613965702856,0.5001035059419295,-0.41061011656510477,0.48373193727891284,-0.18462444084369947,0.4748086561639037,-0.2695908291784744
545,-0.12905369057542604,0.500104273495143,-0.4106026110300029,0.48373035044191537,-0.18463081170579632,0.47481032278549157,-0.26959463914331355
546,-0.12904601288887457,0.5001050381305355,-0.4105951329774231,0.48372876945978577,-0.18463715933267486,0.47481198321350765,-0.2695984350754542
547,-0.1290383633549368,0.5001057998646867,-0.4105876822566979,0.4837271943001784,-0.18464348385121168,0.47481363748239946,-0.2696022170522788
548,-0.12903074181905802,0.5001065587140513,-0.4105802587182594,0.4837256249309859,-0.1846497853873616,0.47481528562635944,-0.2696059851506018
549,-0.1290231481278126,0.5001073146949596,-0.4105728622136286,0.48372406132033624,-0.18465606406616575,0.4748169276793276,-0.2696097394466746
550,-0.1290155821288939,0.5001080678236205,-0.41056549259540637,0.4837225034365909,-0.18466232001175975,0.47481856367499364,-0.2696134800161916
551,-0.12900804367110397,0.5001088181161192,-0.410558149717263,0.4837209512483428,-0.18466855334738194,0.47482019364679917,-0.2696172069342945
552,-0.12900053260434338,0.5001095655884216,-0.4105508334339284,0.48371940472441427,-0.18467476419538167,0.47482181762794096,-0.26962092027557755
553,-0.12899304877960172,0.5001103102563739,-0.4105435436011832,0.4837178638338544,-0.18468095267722698,0.47482343565137153,-0.26962462011409233
554,-0.12898559204894722,0.5001110521357035,-0.41053628007584886,0.4837163285459374,-0.18468711891351283,0.47482504774980266,-0.26962830652335323
555,-0.12897816226551723,0.5001117912420215,-0.41052904271577834,0.48371479883016083,-0.1846932630239686,0.4748266539557071,-0.26963197957634166
556,-0.12897075928350854,0.500112527590822,-0.4105218313798466,0.4837132746562435,-0.18469938512746634,0.47482825430132075,-0.2696356393455116
557,-0.12896338295816787,0.5001132611974846,-0.4105146459279419,0.4837117559941224,-0.18470548534202766,0.47482984881864515,-0.26963928590279346
558,-0.12895603314578238,0.5001139920772745,-0.4105074862209566,0.4837102428139525,-0.18471156378483225,0.47483143753944895,-0.2696429193195995
559,-0.1289487097036705,0.5001147202453444,-0.4105003521207774,0.48370873508610324,-0.18471762057222466,0.4748330204952709,-0.2696465396668281
560,-0.12894141249017257,0.5001154457167348,-0.4104932434902778,0.48370723278115757,-0.18472365581972194,0.474834597717421,-0.2696501470148689
561,-0.1289341413646416,0.5001161685063756,-0.4104861601933085,0.4837057358699093,-0.18472966964202117,0.47483616923698324,-0.2696537414336066
562,-0.1289268961874345,0.5001168886290864,-0.41047910209468874,0.48370424432336195,-0.18473566215300646,0.47483773508481736,-0.269657322992426
563,-0.12891967681990285,0.5001176060995783,-0.4104720690601977,0.48370275811272656,-0.18474163346575626,0.47483929529156094,-0.2696608917602164
564,-0.12891248312438436,0.5001183209324545,-0.41046506095656615,0.48370127720941963,-0.1847475836925505,0.47484084988763137,-0.2696644478053762
565,-0.12890531496419394,0.5001190331422114,-0.4104580776514682,0.4836998015850614,-0.1847535129448775,0.47484239890322766,-0.26966799119581625
566,-0.12889817220361496,0.5001197427432392,-0.41045111901351256,0.48369833121147404,-0.18475942133344103,0.4748439423683331,-0.2696715219989657
567,-0.1288910547078909,0.5001204497498236,-0.41044418491223456,0.4836968660606806,-0.1847653089681673,0.47484548031271595,-0.269675040281775
568,-0.12888396234321678,0.5001211541761461,-0.410437275218088,0.4836954061049014,-0.18477117595821163,0.4748470127659323,-0.26967854611072123
569,-0.12887689497673066,0.5001218560362848,-0.41043038980243685,0.48369395131655435,-0.18477702241196514,0.47484853975732794,-0.2696820395518109
570,-0.12886985247650565,0.5001225553442166,-0.4104235285375473,0.483692501668252,-0.18478284843706155,0.47485006131603985,-0.26968552067058554
571,-0.12886283471154142,0.5001232521138166,-0.4104166912965806,0.48369105713280014,-0.18478865414038376,0.4748515774709981,-0.269688989532125
572,-0.128855841551756,0.5001239463588599,-0.41040987795358397,0.4836896176831957,-0.1847944396280705,0.47485308825092803,-0.2696924462010515
573,-0.12884887286797814,0.5001246380930219,-0.41040308838348377,0.4836881832926259,-0.18480020500552233,0.4748545936843517,-0.26969589074153394
574,-0.12884192853193915,0.5001253273298799,-0.41039632246207786,0.483686753934466,-0.1848059503774087,0.47485609379958965,-0.2696993232172918
575,-0.12883500841626472,0.5001260140829137,-0.41038958006602755,0.48368532958227756,-0.1848116758476738,0.474857588624763,-0.26970274369159863
576,-0.12882811239446776,0.5001266983655057,-0.4103828610728501,0.4836839102098075,-0.1848173815195431,0.47485907818779494,-0.26970615222728667
577,-0.1288212403409402,0.5001273801909429,-0.4103761653609119,0.48368249579098543,-0.18482306749552935,0.47486056251641257,-0.26970954888675025
578,-0.12881439213094545,0.500128059572418,-0.4103694928094207,0.4836810862999226,-0.18482873387743884,0.4748620416381486,-0.26971293373194993
579,-0.1288075676406111,0.5001287365230286,-0.41036284329841843,0.48367968171091114,-0.18483438076637762,0.4748635155803431,-0.2697163068244154
580,-0.12880076674692117,0.5001294110557791,-0.41035621670877387,0.48367828199842094,-0.18484000826275704,0.474864984370145,-0.2697196682252504
581,-0.12879398932770894,0.5001300831835818,-0.4103496129221758,0.48367688713709933,-0.18484561646630007,0.4748664480345142,-0.2697230179951357
582,-0.1287872352616494,0.5001307529192571,-0.4103430318211258,0.48367549710176866,-0.18485120547604753,0.47486790660022254,-0.26972635619433244
583,-0.12878050442825217,0.5001314202755347,-0.410336473288931,0.48367411186742565,-0.18485677539036288,0.47486936009385594,-0.269729682882687
584,-0.12877379670785435,0.5001320852650545,-0.4103299372096979,0.4836727314092391,-0.18486232630693894,0.4748708085418159,-0.2697329981196329
585,-0.12876711198161334,0.5001327479003662,-0.4103234234683252,0.4836713557025489,-0.1848678583228033,0.4748722519703208,-0.26973630196419607
586,-0.12876045013149992,0.5001334081939321,-0.41031693195049646,0.48366998472286443,-0.1848733715343239,0.4748736904054084,-0.2697395944749969
587,-0.1287538110402912,0.5001340661581263,-0.41031046254267434,0.4836686184458631,-0.18487886603721473,0.4748751238729361,-0.26974287571025446
588,-0.12874719459156392,0.5001347218052362,-0.41030401513209347,0.483667256847389,-0.18488434192654127,0.47487655239858334,-0.26974614572778965
589,-0.12874060066968726,0.500135375147463,-0.41029758960675405,0.48366589990345105,-0.18488979929672605,0.4748779760078529,-0.26974940458502866
590,-0.12873402915981658,0.5001360261969221,-0.41029118585541524,0.48366454759022226,-0.18489523824155402,0.4748793947260727,-0.269752652339007
591,-0.12872747994788644,0.5001366749656448,-0.4102848037675887,0.483663199884038,-0.18490065885417808,0.4748808085783967,-0.26975588904637143
592,-0.12872095292060426,0.5001373214655784,-0.4102784432335324,0.48366185676139434,-0.1849060612271241,0.474882217589807,-0.2697591147633844
593,-0.12871444796544348,0.5001379657085864,-0.4102721041442446,0.4836605181989472,-0.1849114454522964,0.4748836217851147,-0.26976232954592677
594,-0.12870796497063722,0.5001386077064504,-0.4102657863914569,0.4836591841735107,-0.18491681162098292,0.47488502118896203,-0.26976553344950155
595,-0.12870150382517206,0.5001392474708704,-0.4102594898676287,0.4836578546620559,-0.18492215982386037,0.4748864158258232,-0.2697687265292365
596,-0.12869506441878137,0.5001398850134648,-0.41025321446594093,0.4836565296417095,-0.1849274901509993,0.47488780572000644,-0.2697719088398875
597,-0.12868864664193938,0.5001405203457725,-0.41024696008028977,0.4836552090897525,-0.18493280269186943,0.4748891908956545,-0.26977508043584186
598,-0.1286822503858547,0.5001411534792516,-0.4102407266052808,0.48365389298361866,-0.184938097535344,0.474890571376747,-0.2697782413711212
599,-0.12867587554246432,0.500141784425282,-0.41023451393622345,0.48365258130089367,-0.18494337476970554,0.47489194718710115,-0.2697813916993848
600,-0.1286695220044275,0.5001424131951652,-0.4102283219691246,0.4836512740193135,-0.1849486344826501,0.47489331835037357,-0.2697845314739321
601,-0.1286631896651196,0.5001430398001251,-0.4102221506006832,0.4836499711167634,-0.18495387676129255,0.4748946848900613,-0.2697876607477062
602,-0.12865687841862658,0.5001436642513081,-0.410215999728284,0.4836486725712764,-0.18495910169217125,0.47489604682950365,-0.26979077957329695
603,-0.12865058815973848,0.5001442865597852,-0.4102098692499925,0.4836473783610324,-0.18496430936125255,0.47489740419188253,-0.2697938880029431
604,-0.12864431878394378,0.500144906736551,-0.41020375906454914,0.48364608846435675,-0.18496949985393607,0.4748987570002252,-0.2697969860885361
605,-0.12863807018742404,0.5001455247925258,-0.4101976690713631,0.4836448028597189,-0.18497467325505876,0.47490010527740395,-0.2698000738816224
606,-0.12863184226704757,0.5001461407385548,-0.4101915991705076,0.4836435215257316,-0.18497982964890008,0.4749014490461387,-0.26980315143340683
607,-0.12862563492036413,0.50014675458541,-0.410185549262714,0.48364224444114895,-0.18498496911918616,0.4749027883289974,-0.26980621879475514
608,-0.12861944804559902,0.5001473663437899,-0.41017951924936685,0.48364097158486635,-0.18499009174909423,0.47490412314839814,-0.2698092760161963
609,-0.12861328154164783,0.5001479760243207,-0.41017350903249744,0.48363970293591846,-0.18499519762125785,0.47490545352660973,-0.2698123231479264
610,-0.1286071353080708,0.5001485836375569,-0.4101675185147802,0.48363843847347826,-0.1850002868177704,0.4749067794857532,-0.26981536023981006
611,-0.12860100924508733,0.5001491891939812,-0.4101615475995258,0.4836371781768562,-0.1850053594201901,0.4749081010478027,-0.2698183873413847
612,-0.12859490325357067,0.5001497927040066,-0.41015559619067704,0.4836359220254985,-0.18501041550954422,0.474909418234587,-0.2698214045018617
613,-0.12858881723504245,0.5001503941779749,-0.41014966419280274,0.48363466999898674,-0.18501545516633336,0.47491073106779114,-0.2698244117701302
614,-0.12858275109166742,0.5001509936261592,-0.4101437515110938,0.483633422077036,-0.1850204784705358,0.4749120395689566,-0.26982740919475895
615,-0.1285767047262483,0.500151591058763,-0.41013785805135705,0.4836321782394946,-0.18502548550161155,0.4749133437594833,-0.26983039682399973
616,-0.12857067804222055,0.5001521864859223,-0.4101319837200113,0.48363093846634225,-0.18503047633850658,0.47491464366063063,-0.2698333747057889
617,-0.1285646709436472,0.5001527799177049,-0.4101261284240814,0.48362970273768935,-0.18503545105965727,0.47491593929351783,-0.2698363428877512
618,-0.12855868333521375,0.5001533713641111,-0.4101202920711938,0.4836284710337758,-0.1850404097429941,0.4749172306791263,-0.2698393014172009
619,-0.1285527151222232,0.5001539608350751,-0.410114474569572,0.4836272433349702,-0.185045352465946,0.4749185178383003,-0.2698422503411457
620,-0.12854676621059088,0.5001545483404649,-0.41010867582803084,0.4836260196217684,-0.1850502793054442,0.47491980079174745,-0.2698451897062882
621,-0.12854083650683978,0.5001551338900825,-0.4101028957559727,0.48362479987479307,-0.18505519033792647,0.47492107956004087,-0.2698481195590285
622,-0.1285349259180955,0.5001557174936658,-0.4100971342633822,0.48362358407479206,-0.1850600856393407,0.4749223541636194,-0.26985103994546794
623,-0.12852903435208135,0.5001562991608869,-0.41009139126082195,0.48362237220263754,-0.18506496528514926,0.4749236246227892,-0.2698539509114092
624,-0.12852316171711362,0.5001568789013554,-0.4100856666594273,0.48362116423932505,-0.18506982935033242,0.47492489095772455,-0.26985685250236063
625,-0.12851730792209684,0.5001574567246168,-0.41007996037090244,0.48361996016597286,-0.18507467790939267,0.47492615318846904,-0.2698597447635376
626,-0.1285114728765191,0.5001580326401537,-0.4100742723075154,0.4836187599638203,-0.18507951103635792,0.47492741133493704,-0.2698626277398655
627,-0.12850565649044718,0.5001586066573869,-0.4100686023820938,0.48361756361422725,-0.1850843288047859,0.47492866541691386,-0.26986550147598165
628,-0.12849985867452218,0.5001591787856742,-0.4100629505080204,0.48361637109867317,-0.18508913128776744,0.4749299154540573,-0.26986836601623754
629,-0.12849407933995488,0.500159749034313,-0.4100573165992282,0.48361518239875595,-0.1850939185579304,0.4749311614658988,-0.26987122140470154
630,-0.12848831839852112,0.5001603174125399,-0.4100517005701967,0.48361399749619105,-0.1850986906874433,0.47493240347184434,-0.2698740676851607
631,-0.12848257576255748,0.5001608839295302,-0.4100461023359474,0.4836128163728109,-0.18510344774801885,0.4749336414911751,-0.2698769049011236
632,-0.12847685134495648,0.5001614485944007,-0.4100405218120397,0.4836116390105632,-0.18510818981091767,0.47493487554304914,-0.2698797330958213
633,-0.12847114505916263,0.5001620114162074,-0.41003495891456576,0.4836104653915105,-0.1851129169469517,0.4749361056465017,-0.26988255231221103
634,-0.12846545681916777,0.500162572403949,-0.41002941356014727,0.48360929549782966,-0.18511762922648786,0.4749373318204467,-0.2698853625929777
635,-0.1284597865395069,0.5001631315665647,-0.4100238856659312,0.4836081293118099,-0.1851223267194514,0.4749385540836772,-0.269888163980536
636,-0.12845413413525372,0.5001636889129355,-0.410018375149585,0.48360696681585313,-0.18512700949532945,0.4749397724548669,-0.2698909565170326
637,-0.1284484995220166,0.5001642444518858,-0.4100128819292932,0.483605807992472,-0.18513167762317467,0.4749409869525708,-0.26989374024434787
638,-0.12844288261593428,0.5001647981921826,-0.41000740592375323,0.4836046528242896,-0.18513633117160813,0.47494219759522605,-0.2698965152040991
639,-0.12843728333367171,0.500165350142537,-0.4100019470521711,0.4836035012940386,-0.18514097020882306,0.47494340440115307,-0.2698992814376413
640,-0.12843170159241596,0.500165900311603,-0.40999650523425724,0.48360235338456026,-0.18514559480258802,0.4749446073885564,-0.2699020389860703
641,-0.128426137309872,0.5001664487079788,-0.4099910803902237,0.4836012090788033,-0.18515020502025037,0.4749458065755258,-0.26990478789022393
642,-0.12842059040425888,0.5001669953402086,-0.40998567244077905,0.4836000683598241,-0.1851548009287393,0.4749470019800367,-0.2699075281906843
643,-0.1284150607943055,0.5001675402167809,-0.4099802813071247,0.4835989312107839,-0.18515938259456932,0.4749481936199516,-0.26991025992778017
644,-0.1284095483992469,0.5001680833461299,-0.409974906910952,0.48359779761495025,-0.1851639500838432,0.47494938151302046,-0.2699129831415885
645,-0.12840405313882014,0.5001686247366373,-0.40996954917443706,0.4835966675556946,-0.18516850346225547,0.4749505656768822,-0.26991569787193676
646,-0.12839857493326037,0.5001691643966294,-0.40996420802023836,0.48359554101649205,-0.18517304279509525,0.47495174612906527,-0.2699184041584042
647,-0.1283931137032972,0.5001697023343809,-0.40995888337149194,0.4835944179809206,-0.1851775681472495,0.474952922886988,-0.2699211020403248
648,-0.12838766937015048,0.5001702385581124,-0.4099535751518081,0.48359329843266,-0.18518207958320615,0.4749540959679603,-0.26992379155678825
649,-0.12838224185552702,0.500170773075994,-0.409948283285268,0.48359218235549156,-0.18518657716705708,0.47495526538918387,-0.26992647274664244
650,-0.1283768310816165,0.5001713058961433,-0.4099430076964198,0.483591069733297,-0.1851910609625014,0.4749564311677536,-0.2699291456484951
651,-0.12837143697108766,0.5001718370266266,-0.40993774831027535,0.4835899605500575,-0.1851955310328482,0.4749575933206579,-0.26993181030071534
652,-0.12836605944708496,0.5001723664754587,-0.40993250505230583,0.48358885478985286,-0.18519998744101937,0.47495875186478004,-0.26993446674143595
653,-0.12836069843322467,0.5001728942506044,-0.4099272778484392,0.48358775243686153,-0.18520443024955308,0.47495990681689815,-0.2699371150085555
654,-0.12835535385359145,0.5001734203599785,-0.40992206662505626,0.48358665347535895,-0.18520885952060626,0.474961058193687,-0.2699397551397392
655,-0.12835002563273457,0.5001739448114455,-0.40991687130898724,0.4835855578897174,-0.1852132753159575,0.4749622060117183,-0.26994238717242114
656,-0.12834471369566444,0.5001744676128208,-0.4099116918275085,0.48358446566440494,-0.18521767769701036,0.4749633502874612,-0.2699450111438065
657,-0.1283394179678491,0.5001749887718709,-0.40990652810833855,0.48358337678398466,-0.1852220667247956,0.4749644910372836,-0.26994762709087267
658,-0.12833413837521074,0.5001755082963136,-0.40990138007963567,0.4835822912331143,-0.1852264424599746,0.4749656282774529,-0.2699502350503713
659,-0.12832887484412234,0.5001760261938182,-0.4098962476699939,0.4835812089965449,-0.1852308049628418,0.47496676202413635,-0.26995283505882983
660,-0.12832362730140395,0.5001765424720066,-0.4098911308084397,0.483580130059121,-0.18523515429332754,0.4749678922934022,-0.2699554271525536
661,-0.12831839567431969,0.5001770571384528,-0.40988602942442925,0.4835790544057791,-0.18523949051100055,0.47496901910122036,-0.2699580113676271
662,-0.12831317989057406,0.5001775702006843,-0.4098809434478444,0.4835779820215473,-0.18524381367507134,0.4749701424634631,-0.26996058773991566
663,-0.12830797987830878,0.5001780816661809,-0.4098758728089903,0.4835769128915444,-0.18524812384439435,0.47497126239590565,-0.2699631563050675
664,-0.12830279556609941,0.5001785915423768,-0.40987081743859155,0.48357584700097983,-0.18525242107747059,0.47497237891422756,-0.2699657170985151
665,-0.1282976268829522,0.5001790998366601,-0.40986577726778944,0.4835747843351521,-0.18525670543245049,0.47497349203401246,-0.26996827015547664
666,-0.12829247375830088,0.5001796065563727,-0.40986075222813856,0.4835737248794487,-0.18526097696713661,0.4749746017707496,-0.269970815510958
667,-0.1282873361220031,0.5001801117088116,-0.4098557422516041,0.4835726686193452,-0.185265235738986,0.4749757081398344,-0.26997335319975385
668,-0.12828221390433778,0.5001806153012291,-0.4098507472705583,0.4835716155404048,-0.18526948180511305,0.47497681115656876,-0.2699758832564504
669,-0.12827710703600137,0.5001811173408324,-0.4098457672177775,0.48357056562827744,-0.1852737152222916,0.47497791083616203,-0.2699784057154253
670,-0.12827201544810507,0.5001816178347845,-0.4098408020264394,0.48356951886869953,-0.185277936046958,0.47497900719373204,-0.26998092061085066
671,-0.1282669390721719,0.5001821167902046,-0.40983585163012015,0.48356847524749264,-0.1852821443352133,0.47498010024430504,-0.26998342797669345
672,-0.12826187784013332,0.5001826142141681,-0.40983091596279064,0.4835674347505631,-0.1852863401428257,0.474981190002817,-0.269985927846718
673,-0.12825683168432622,0.5001831101137074,-0.4098259949588146,0.48356639736390195,-0.18529052352523315,0.47498227648411445,-0.2699884202544866
674,-0.12825180053748994,0.5001836044958117,-0.4098210885529448,0.48356536307358344,-0.1852946945375459,0.4749833597029542,-0.2699909052333619
675,-0.12824678433276343,0.5001840973674277,-0.4098161966803205,0.48356433186576536,-0.18529885323454864,0.4749844396740049,-0.2699933828165078
676,-0.1282417830036822,0.5001845887354596,-0.40981131927646514,0.4835633037266876,-0.18530299967070313,0.47498551641184755,-0.2699958530368911
677,-0.12823679648417513,0.5001850786067702,-0.40980645627728235,0.48356227864267176,-0.18530713390015036,0.474986589930976,-0.2699983159272831
678,-0.12823182470856206,0.50018556698818,-0.4098016076190543,0.48356125660012067,-0.18531125597671305,0.4749876602457972,-0.2700007715202606
679,-0.12822686761155053,0.5001860538864682,-0.409796773238438,0.48356023758551764,-0.18531536595389805,0.47498872737063275,-0.2700032198482078
680,-0.1282219251282329,0.5001865393083733,-0.4097919530724631,0.48355922158542625,-0.18531946388489853,0.4749897913197188,-0.2700056609433177
681,-0.12821699719408383,0.5001870232605935,-0.40978714705852926,0.4835582085864892,-0.18532354982259638,0.47499085210720715,-0.2700080948375931
682,-0.1282120837449571,0.5001875057497854,-0.40978235513440303,0.48355719857542784,-0.18532762381956427,0.47499190974716554,-0.27001052156284855
683,-0.12820718471708314,0.5001879867825666,-0.40977757723821484,0.4835561915390422,-0.18533168592806812,0.47499296425357823,-0.27001294115071145
684,-0.1282023000470662,0.5001884663655141,-0.40977281330845744,0.48355518746420956,-0.18533573620006918,0.4749940156403471,-0.2700153536326232
685,-0.12819742967188136,0.5001889445051659,-0.4097680632839825,0.4835541863378845,-0.1853397746872267,0.47499506392129165,-0.2700177590398411
686,-0.12819257352887223,0.5001894212080203,-0.40976332710399793,0.4835531881470982,-0.18534380144089935,0.47499610911015006,-0.2700201574034393
687,-0.128187731555748,0.5001898964805377,-0.40975860470806563,0.48355219287895745,-0.185347816512148,0.47499715122057956,-0.27002254875431003
688,-0.12818290369058064,0.500190370329139,-0.40975389603609874,0.48355120052064465,-0.18535181995173758,0.47499819026615736,-0.27002493312316556
689,-0.1281780898718027,0.5001908427602066,-0.40974920102835904,0.483550211059417,-0.18535581181013938,0.47499922626038055,-0.27002731054053847
690,-0.12817329003820427,0.5001913137800854,-0.4097445196254549,0.48354922448260595,-0.18535979213753317,0.47500025921666716,-0.27002968103678415
691,-0.12816850412893072,0.5001917833950821,-0.4097398517683376,0.48354824077761693,-0.18536376098380924,0.47500128914835693,-0.27003204464208097
692,-0.12816373208347975,0.5001922516114663,-0.4097351973983005,0.48354725993192826,-0.18536771839857033,0.4750023160687114,-0.2700344013864329
