i,j,Area,GDP,Inflation,Life.expect,Military,Pop.growth,Unemployment
0,0,0.10195918638108452,-0.6768193250521611,0.5208526081532026,-0.6536923779723857,0.4025006255391896,-0.5422964797299453,0.426000181380835
0,1,0.1723871324038403,-0.7036105224915735,0.5841594961072522,-0.7388542312730544,0.354525315298369,-0.5904553539931339,0.3924742851665398
0,2,0.08271314484747529,-0.6347481995119668,0.411200598238223,-0.6275109370377115,0.31871479968274147,-0.5622676538709201,0.38857221343298637
0,3,-0.049428993652827984,-0.5031109809700629,0.3612239548049675,-0.5501537241168656,0.1817836875632819,-0.48198047313369685,0.3262735553107622
0,4,-0.05946235387579373,-0.3871918956232931,0.25527604035347384,-0.4478298263822325,0.10646799350638361,-0.37135084911651806,0.20229466534361173
0,5,-0.09293419805268809,-0.29949050224328144,0.14372485056361087,-0.35328691941124224,0.04906089511802503,-0.30436860046613995,0.13763448686512733
0,6,-0.09842706866947896,-0.23929649033780379,0.09269052878147786,-0.29416666119354434,0.0056037146625592575,-0.2621736506176916,0.08587685886391874
0,7,-0.11998870724036798,-0.20293023478283645,0.048474229190667635,-0.28370748419893915,-0.04413332267131834,-0.2577051179181782,0.03521731289207144
1,0,0.09312614984334952,-0.6148251187960766,0.43341526686445264,-0.5874547851149177,0.3505707182152998,-0.4681234884901868,0.44909633998231047
1,1,0.010713882747198247,-0.5113044106790208,0.39164503140178425,-0.5242345065856014,0.29226149096670523,-0.44523661638824874,0.3573804281487342
1,2,-0.00870863104752338,-0.3804923055762457,0.29441244570953934,-0.4072131192184308,0.19556395066795182,-0.35414935225450345,0.2524271106569158
1,3,-0.0449926672585735,-0.2924624212940765,0.200014741497054,-0.32882434359625023,0.12656240220705922,-0.27742010914173687,0.1617301560459712
1,4,-0.0769800461064445,-0.21566195343862574,0.13405129941538327,-0.25748935350425456,0.06436600314044474,-0.22460492818508268,0.07809304645625038
1,5,-0.09332828910375783,-0.17444173838468224,0.07902844933560971,-0.22085371731497472,0.006975646251723074,-0.20116629637880248,0.04276022584465268
1,6,-0.11732121827536851,-0.09524574132381784,0.03301078510793954,-0.1755220011154596,-0.06183834045390811,-0.14762770772054437,-0.011557745780278619
1,7,-0.12717441620621076,-0.06455567463731178,-0.049361055856435895,-0.12269055685946653,-0.1328530221545943,-0.12111850367124094,-0.059433119272547574
2,0,0.07078274700505538,-0.4775419021005297,0.38763593168659577,-0.48508272673401664,0.31640986841124646,-0.40585863289850915,0.36377105371285867
2,1,0.01914781508239299,-0.34957760631002854,0.2920202233188298,-0.357368117287863,0.20688999860443813,-0.30765316103602774,0.26113066359343406
2,2,-0.011329198938704937,-0.25994314880992675,0.20859630087243697,-0.28440287082003995,0.14528833928265067,-0.2366356900057871,0.1718097943235302
2,3,-0.022118712911400617,-0.1995021172864881,0.1463925186443004,-0.22406237885780145,0.08175681627789486,-0.19145204489394477,0.10777907551021898
2,4,-0.03337800883804395,-0.1501222930367047,0.09540253642609921,-0.16776331088478147,0.06480033151785586,-0.1575036911425674,0.05022661273838003
2,5,-0.07034004390362901,-0.0835046661618677,0.028389967626130923,-0.12424942647313006,-0.019900806884431674,-0.10887637390352893,-0.04124869336578328
2,6,-0.09314275873786422,-0.028597661119161868,-0.012652474251057881,-0.07457105121716123,-0.07928877633730669,-0.07958523357670147,-0.08233555459097028
2,7,-0.09796163094362606,0.03607782814734724,-0.08247838770644574,-0.008907259021075255,-0.15160587941693154,-0.02438200415577999,-0.13677146105491714
3,0,0.0247671617444355,-0.3767184904412266,0.348846752927329,-0.378342379342109,0.22729603015339142,-0.2885268245703623,0.30223714345451036
3,1,0.011990471872429043,-0.23309497268906385,0.20254619972248702,-0.2373069578753181,0.155023713187423,-0.17473311516836487,0.19148121624322273
3,2,0.011721415250946549,-0.1865573079501654,0.1456676141332463,-0.1894124643647365,0.11935976793030673,-0.15062006148680254,0.12919175751405348
3,3,0.004436377401530995,-0.13403168752234584,0.09303696492118307,-0.1346880175996515,0.06520606934895899,-0.12160514336034726,0.05463375556460642
3,4,-0.003873686356998496,-0.06797742722681271,0.05490198075286979,-0.07623711702261096,0.017865216113363145,-0.0722543858748827,-0.01633645795251032
3,5,-0.025998375216680514,-0.009916502852945024,0.005387175478889246,-0.030840365627930827,-0.0363619179740385,-0.03819381880799639,-0.08094485539179778
3,6,-0.04979646649827561,0.03653419125302297,-0.029924525396815227,-0.011158948967965506,-0.09845879193329896,-0.013889159964843998,-0.14239509463529043
3,7,-0.09941546680234128,0.11135871827135685,-0.10715078256969066,0.05336086595749802,-0.18180281963111636,0.047249387808544034,-0.1993916457132165
4,0,0.06408756473919568,-0.23370824760171446,0.2656453135240311,-0.21942135302108426,0.1898379645370131,-0.14554564565174608,0.20738748458106845
4,1,0.049584286971575235,-0.1636550559616582,0.17196240240805585,-0.1548905088290399,0.14767376234007046,-0.10279743009122738,0.13518748591049068
4,2,0.036138737908339706,-0.09406076687187785,0.10800081055814377,-0.09564459842863171,0.08163805741260072,-0.06423063404899026,0.06442299280894562
4,3,0.05031519810015191,-0.0678807472740802,0.08272515000219259,-0.0661131118545092,0.03399156648661945,-0.05043360398152072,-0.0013496835393726966
4,4,0.00817057406079991,0.02637411011103329,0.008283170545934578,0.004470270020304911,-0.031806981234253476,0.007035246139468315,-0.07083767879540676
4,5,-0.019861814128199245,0.060327978159219725,-0.05332421129161676,0.043922320144501356,-0.07775415143144611,0.028770260230643392,-0.12467790706112268
4,6,-0.05084561120989514,0.13077865084328602,-0.10083203801112565,0.09898969476860892,-0.137110482265099,0.08924152810636542,-0.1784369969262831
4,7,-0.06896995726781065,0.22382429496820377,-0.1627850863373625,0.16428474523416287,-0.2283725106604151,0.14471629849749046,-0.29978973392175434
5,0,0.09645972341879103,-0.1338115758562722,0.1937037742625893,-0.119644207995114,0.13872804972367653,-0.06741831408260683,0.1278423823793818
5,1,0.07986300127063485,-0.1075548546968541,0.1355107419895088,-0.08233881978995358,0.10850679561882795,-0.04231104296461405,0.09187140567789827
5,2,0.05917852741864159,-0.03804721669970165,0.0661897164352344,-0.009095740894318171,0.03746084522315373,0.004661191895082934,0.013893248369617146
5,3,0.07298815452713754,0.009297819330213146,0.029815611517112085,0.020100849519311077,-0.007564503878260597,0.020776342031192784,-0.05483876697126326
5,4,0.028556773738513067,0.08335060190587491,-0.04303797736985093,0.08774856481596395,-0.05806573402664193,0.0718432963718127,-0.11665972185590667
5,5,0.011434764331680055,0.1512876880881462,-0.09969300649914113,0.13539239913137302,-0.10561136831715537,0.11452548526561095,-0.17837039696930215
5,6,-0.022062838071841402,0.2086209835236165,-0.13591024528517806,0.17282627862563407,-0.1707677243507229,0.15009595043733662,-0.2524452236045388
5,7,-0.052866847717405116,0.3426208295187393,-0.2522102781608879,0.29301722893628696,-0.24457282018735718,0.26677060540825037,-0.3699247449284076
6,0,0.08372927297073471,-0.06995380321949903,0.14862677468355998,-0.059809251031984124,0.08709590456571542,0.004993843012115602,0.0887002290657585
6,1,0.12205893360763694,-0.0018921939136616725,0.07476095003772273,0.047658308217765365,0.05717851488273418,0.07713242153568024,0.008591162523359577
6,2,0.09116536955869994,0.03942515070856179,0.013450053235148892,0.08543380409512041,0.012749553777171832,0.08363927731123091,-0.042575577584390775
6,3,0.08112974672056648,0.09792366785886536,-0.04384072518528242,0.13509419305507098,-0.03292389452799881,0.109269870273397,-0.10260472043313762
6,4,0.0714776981600159,0.15969061445167027,-0.09026452392292894,0.17938797590367758,-0.09780837539902566,0.1548181258156474,-0.14512712532698552
6,5,0.024870423477748645,0.2276186504034863,-0.1353636349809828,0.2087229980621538,-0.16892908852924168,0.18753646680667002,-0.23426359788553686
6,6,0.0006910500440343635,0.3521799569331271,-0.23677256778449332,0.3216272794988306,-0.2327048870958676,0.29722534033675235,-0.355814132578241
6,7,-0.03889988072900805,0.4552171786199528,-0.3289232891253634,0.4096311644754159,-0.2756673033855044,0.3837214525047423,-0.4580956594255082
7,0,0.12658166651475888,0.05205129535465214,0.06170554992161799,0.08113003899258513,0.047871920740321004,0.11862522549696575,0.006977493400839684
7,1,0.12568812561999995,0.08572755293837732,0.007346206921750001,0.1418958665607032,0.05355087092771948,0.15695279077783458,-0.029103893334531547
7,2,0.12328952818830356,0.15909286371108258,-0.04146445129341029,0.19372121141823906,-0.04771675041524478,0.20149465743598524,-0.131858301473345
7,3,0.10922399954457321,0.21106100234036648,-0.09540614617524003,0.23173153513710606,-0.0935029388282539,0.20608280501923598,-0.18359538407042925
7,4,0.0781801438070224,0.2767280714093118,-0.17426741171071988,0.28349987570926055,-0.17767699062467102,0.2509322215537396,-0.2632498935538903
7,5,-0.02528692360035008,0.4370329552515886,-0.3526440400265795,0.45364573852526785,-0.2408774862140111,0.3902534776461852,-0.3531321169063761
7,6,-0.06042314370517906,0.5750515745194398,-0.3902976721703986,0.5129514395817114,-0.27144414124309496,0.48165671906604596,-0.44723014890367285
7,7,-0.08779573551587727,0.5743911537651074,-0.4718147202819108,0.5729213882898934,-0.23928461418269906,0.4937207592326474,-0.5450579780486527
